{"layers":[{"inputSize":784,"neuronSize":200,"weights":[[-0.00002781085340540035,-0.007214056863824656,1.0554517284488711e-19,1.851601873004506e-9,0.012418670761255251,-0.0002115023280174156,-1.1256289816502183e-14,0.00031857826716739164,-0.00016231770917816342,-0.004892058612729524,0.0004509292719236012,-0.004357743538178844,0.000022383444244306793,-0.004361854258665042,-0.004400604835931221,-0.0006072263091689033,-0.004756806609192559,0.003609521872499134,0.0018919539252339604,-0.0049573901698579115,-0.00039074722085020964,0.002759280794250303,1.9951119823760296e-26,-0.0005066202452714068,2.2950166578540117e-20,0.003932624021685105,0.004855003612897167,-0.008098695399731508,-0.014742862270484675,-0.010380411226805629,0.0031157894823021356,0.011426149128574143,-0.015594232868678448,-0.004200389844591493,-0.005654237934895832,-0.0009169125628420178,-0.0004813997789497172,0.002888547506611994,0.00020284297426273443,-6.401797614865046e-29,0.006325541437589483,-0.0007665718327556409,5.2276587097880906e-23,-0.002646072389778142,0.003933748845336243,-0.006662628790101424,-0.00509450176972255,-0.003597002070560387,0.002273170795710235,-0.01018908036137708,0.0022239588648368573,-0.0016150276811928957,-0.005987234668796659,0.006369211767765635,-0.0161225003136176,0.0006982821794594646,0.006319923688355652,-0.0023297754924978434,0.004585728388163607,-0.00005929530583773026,-0.0007047376549640055,9.172321707105554e-28,0.00481829741854384,-0.002999415299392445,0.001085524868756,-0.029313454841814746,-0.009483033518994648,0.003538351578999706,0.0028096062364410287,-0.005419025255397865,-0.004917919453452689,-0.004632294986147657,-0.001645941504363477,4.8555447693721225e-12,6.153829058083869e-7,0.008660921625243248,0.005715810681806114,0.0035884652583322006,-0.0022887764326622135,0.009397514244463353,0.0044677861963356375,-7.051224546473051e-16,0.0006333424030180056,-0.006572288642315726,-0.019310531038440933,0.0009718857390455693,0.006574034700085805,0.010421607052337955,-0.007063761185440694,0.00205099735139805,-1.1318973844072992e-14,0.004175477052659015,-0.013285636072641627,0.011382499494711719,-0.0023306283381935395,-0.009310535237492522,-6.1328958223927926e-9,0.0016428001420209781,-0.011692359943913528,0.012000493091171327,0.009717397317883392,-0.02487072616414093,-0.0005735508038127867,0.005280661371094697,-3.918376429442367e-14,0.0007037252283320034,-0.0006038390449420615,-8.059331435811897e-12,9.396672623839088e-22,0.0005769971734667918,6.300439808447008e-10,-0.011358588637269778,0.005582964629678279,0.0030990666581048975,4.897592363567465e-37,-0.002061850480295191,-0.0044652279947274475,0.0022574127925623134,-0.0027094486369398413,3.185649648217933e-7,-0.000968630183841352,0.005447527870203242,-0.018030089558692727,0.0018541785456430801,0.0036749135213946455,-0.004992505695908579,0.0027261088758181516,-0.0026619365184624736,-0.0020855288143127805,5.119790379853016e-17,0.0055732184036171376,-1.6758975758368834e-27,0.005618270227310021,0.004737254642520476,0.005509379869734681,-0.004184023941295517,0.0008372006074299785,-4.286290476274506e-7,-0.016400931684975834,-0.0024606142431568513,7.296477072199874e-12,0.0017298746279828122,-2.0394836568123814e-23,-0.0010112862922903464,-0.016653043433715743,0.0033442243259396136,0.004199765503443433,-0.001860587564186644,0.0006910596305659487,-3.6467727797131037e-13,0.015273110278441401,-0.0043360339826075045,0.011782785206647545,0.012570129424520415,-0.0062665149176749065,-3.910411928803279e-15,-0.006987544045880573,-0.0007616895778539784,0.0032652597572105473,0.0054420716819477445,0.0026043387363590864,-0.0018597431559007442,0.00488165662742895,0.00025001547611522507,0.009014724107313882,0.00114302647003195,-0.00008697150141947436,-0.005647137511517966,-0.0026777859543242752,0.0037161312532756653,0.0023437641029588393,0.0011857439156935084,-0.01032723720440991,0.007683800642043995,0.006785231241258881,0.000946064523249324,-0.0030554661866630316,-3.6292645387731993e-13,2.1568550458883234e-14,0.011646433247617547,0.005977126728494049,-0.0029449944364126476,-0.012171269122561666,-0.0003115821037692664,-0.005431326802509156,0.0027984084548001533,0.005400435188418835,0.009141321416214182,-0.0018732471619137883,0.00042283286763578656,-0.032851208202866515,1.4880106168945717e-38,-0.0007141477775774329,-0.0000031588316619444838,-0.007470605905257902,-0.007417599097104653,0.005422230399435614,0.011151209034643183,-3.088919010188069e-13,-0.0006899970054560706],[0.003970034234589141,0.008649826223358054,8.558689080953202e-20,-1.7910773504816592e-9,0.009810808920812488,0.0008250418705976969,-8.823443089997174e-14,0.00024251848128943997,0.0005238690396662673,-0.007419010904908823,-0.0024040907822284303,-0.0005158847713182438,-0.009505982083151423,-0.0022663713270221642,0.001184879662561777,-0.0014473922854443557,0.027961922146724844,-0.024207799568917773,-0.0003993057516157927,-0.0018141817828585577,-0.010528477304299214,-0.0037917300325802272,2.0528135889542783e-25,-0.0045589571769125235,-3.4125874706130154e-21,0.004005042309427017,0.004649435977363743,0.0023308791842646674,-0.0015087763323484496,0.019307956701012853,-0.034213122979281356,-0.0033411910320465662,0.008983853966323953,0.0014215757205891357,-0.005721884601478579,0.0026860389147974452,0.009436114194141535,0.007487952333174361,0.000014324648411094434,1.947205738899189e-26,-0.004870338556739502,0.00013220343256732152,-2.1500682990282077e-23,-0.0004205223229663937,0.0020306298151046803,-0.0016492511253986672,0.017459625445973855,0.00207414462783877,0.0060158109701191845,0.00670584087539381,-0.005387216459951711,0.002198890658955983,0.004011596048002717,-0.015227939499239097,0.012250007811860957,0.0001222871497759194,-0.002735239960505723,-0.0006399379538598438,-0.0010763529425977646,0.001994499967198904,0.0009187823677158604,7.541068070801912e-17,-0.009677852932478442,-0.007432861823233308,0.0020501439727638455,-0.015843193495788593,-0.009377813703526762,-0.007601425640609778,-0.015632794340225117,0.00022174739304056768,0.016971377685192326,0.014321322214827225,0.006158480484876424,-6.195115931921588e-12,-0.000004259357724787475,0.0031926982282292713,-0.0006123849178756367,0.0011028905357999307,-0.003225036903528312,0.005680618643014471,0.0047111126770484095,-4.1689703823855344e-16,0.002119901447499667,0.001972334435235445,0.012746999235815137,-0.00775899275229173,0.0006358575198454568,-0.0037036060464143124,-0.006599832750721454,0.01277721719367851,-2.0610518056762144e-14,0.002321522175935873,0.01608199198837018,0.009996568648943757,0.016166663157598772,0.024822658577486133,4.228940063249455e-9,-0.0056631151304180165,0.013934501218571104,0.004244478323990029,-0.016972715034087885,0.017098014747904677,0.0035755305171085794,-0.010538657474026939,-2.242313679554674e-14,-0.011973200854958416,-0.00011780063412504343,4.2554941997419956e-10,8.306835793383681e-21,0.0064452561731174,-1.4887865311010332e-8,0.021245626684007674,0.009550193117174489,0.02279720951047029,-6.120122868089318e-38,-0.03277378571232604,0.004473603984554882,0.00028538963313230444,0.003893081359703793,7.21520136153058e-7,-0.004545743299930993,-0.012345157864264416,0.00693223041284817,-0.0029710829878069524,-0.03833442046051584,-0.01119783731789378,-0.0025173319403430125,-0.03726400930957985,-0.02662654843828349,-2.5635322134781335e-16,-0.006573635559687134,-8.037761896855998e-28,-0.0019423488665933025,-0.024669296439906698,0.012630413343884973,-0.008057088937260386,-0.0030526018582947042,-2.2378413057987434e-7,0.0003529622069978735,0.005624954920690463,2.2450213553789132e-12,-0.002567192067255562,-2.5709120366927944e-25,-0.0002098822549573195,-0.0078837365537071,-0.014242264750540265,-0.019844150776984884,0.006919552508626754,0.0025847767839826744,3.725708764844486e-13,-0.005878673562644493,-0.01100748765480014,0.01273415738011278,-0.01695476965982333,-0.002087097572021907,1.0549987977423098e-11,0.010899466700252195,-0.004841130255709867,-0.01016328681381356,0.0064371390717199856,-0.006786903214018792,0.004737035688636276,0.005598594129994356,0.009592965741982422,-0.027947161988109172,0.01118378752390675,-1.4148402265954302e-7,0.001871156900885206,-0.014437609839042964,0.0004284543753860598,-0.021655871332296493,0.017286741489171083,-0.030398571163995493,0.013394997302408838,-0.020771861362055027,-0.02339811897449598,-0.0005695595310611182,-0.00005791426718373719,-1.1607898489468669e-13,0.0003312462856453406,-0.0054744750833825755,-0.0009636971911434794,0.000526366583892805,0.007460070527568755,0.005892604488792771,-0.000019613847986363752,0.008425373248526357,-0.014949261340936625,-0.0012394265542019715,-0.0007655139430918854,0.013138454379484918,1.887826559646334e-39,0.0017447102402560846,-0.0008066018347839202,0.01732549944512488,-0.0005115117759533073,0.0019843919016844687,-0.004267210789822474,5.1656000515532837e-14,-0.011026408068855681],[-0.0030204463641963805,0.0020627612244367697,6.683803280701557e-20,-2.349325682370483e-9,-0.00015113988358828804,-0.00004284402945925742,1.7591877909287043e-13,-0.003267796494816585,0.00009144942527280293,0.0018290580202032082,0.002977696023803152,-0.0024216820442198588,0.006839892548334317,-0.0025132367324653708,-0.008935928025400055,-0.0001884163082536931,0.0002361592037120918,-0.004857003917814884,-0.003329820160605827,-0.0009217547540524702,0.00609179694744059,-0.0004564275505991384,-5.1528927723848354e-26,-0.0002444525683242868,3.072154893933977e-21,0.004511552374542704,-0.0005851542969629726,-0.0005212271878421576,0.0068405246034127214,-0.00006684065756677233,-0.00938675914981563,0.008180146869763193,0.006041642401574805,-0.0037960090590119775,0.006642891056491379,0.0007363795401131376,-0.001981895620631573,-0.00043195374926082326,-0.0000010376511855650257,1.972564445177174e-25,-0.0026530047936456818,0.0006289618296526231,9.058521369997794e-23,-0.00010548288654454176,0.000011515752546420905,0.001388369310559793,0.0008395204239460336,0.0009856021867454693,0.002585655604333814,-0.0012574609004198116,-0.005509912716165674,-0.001137870957979382,-0.0029205194012752685,-0.003480862860385524,0.003884156996890896,-0.000012224325489851809,-0.002473138471052742,-0.000640350812065388,0.004034926675819945,-0.0009907954387476689,-0.0009973708613426069,-4.019244919821071e-29,0.00022749779569563076,-0.001518003907392484,-0.000050682110132364356,-0.0011277872072964104,0.0019334143691631385,0.003412431383376986,0.012791110127282611,-0.0007904929375178942,-0.008184087542209543,-0.005378827143839109,0.00220816579925478,0.0000012443393425765367,0.0000066642730455411,0.007521971810279412,0.0005351476979216921,-0.0026116657265759582,-0.002485173394943276,-0.00018554011631380813,-0.00048168455727442205,6.111600354235985e-16,0.004334281308620059,0.00002944831268394168,0.0004660281485558684,0.0004154841373830308,-0.0005102837973991993,-0.002930488947098302,0.0004270959620029074,0.005599468386592324,-8.059100942420507e-14,0.0001672355363431865,-0.008943199062722854,0.0020473189230235094,-0.005975598420439898,0.00044937145692335327,-4.582698432782346e-8,-0.003006233331273006,0.01054417422370613,0.003957843626741076,-0.008597435159653463,0.0058509314683848936,-0.002287099310588203,0.005815235597462645,3.5864540640654194e-14,0.0014987390947905277,0.000027707212837409044,7.218196742093145e-10,-4.691104888504148e-21,-0.0001660981403844433,-3.1506262784219957e-9,-0.009450526559363527,0.003989212184590092,-0.0029502911255178312,-4.2001613707690176e-14,0.000742663264188533,-0.007129844913285374,0.010716243676109644,-0.0001177266974209381,-3.114433054181616e-7,0.0034272256878264797,-0.002329379376472428,0.00671041220615202,-0.00002854201428540884,0.0004823720049422765,-0.003957250018607249,-0.005705774076714677,-0.00008568679943032372,0.008304371368445954,-4.638908858522623e-16,0.004846563582169114,-7.626396516066114e-22,-0.0011367389988822909,-0.006629037579568024,-0.0035562070085650432,0.0024825053611104604,-0.002739085538034013,1.0889949395642001e-8,0.005640303568073233,-0.004563536253025866,3.11413549031685e-12,0.0008295215079823622,-2.8976783781825437e-21,-0.0024132832456613034,0.006288580324658363,0.0038776714967041245,0.005487572581937256,0.0020341113463829942,0.0003642262605742649,-8.980536531656621e-13,-0.011274919693866048,-0.0021915495707771466,0.002887282385973002,0.006957621983747236,0.0009491347813567061,4.791706082511463e-15,0.003232796093568086,0.0009390321075713539,0.006886018195478401,0.00010121283396833965,0.00006633201746455038,0.0011581441617521363,-0.0004854862927805577,-0.0032363731081587995,-0.0076771349930765415,0.00785053916401211,-1.0980978594729975e-7,-0.003591680116716214,-0.0036642826583547145,-0.0024973751673949707,-0.002687882748485717,0.0029070265065822207,0.0038013587281643378,0.0034214075674243094,-0.001317519348290293,-0.009631861202642132,-0.0019532753134036867,-2.0774244140751767e-11,-3.006984789257706e-20,0.005576843728725407,0.0011266363252735597,-0.00010416683530274762,-0.0046515667383624434,-0.0006169246716510874,0.0010697169552117867,-0.00022590962782272813,0.00827296750889281,0.0011364269587777424,-0.0012053583231644808,-0.000472474781744529,-0.000802792488000061,1.2977374335197893e-40,-0.0037156280055671577,-0.001483483621885287,-0.004501512312510605,-0.0003946717446471385,-0.00032734738466671793,0.0032073167101382962,8.685608981945657e-13,-0.00372918236169259],[-0.0006813067366889087,-0.0024791648447235063,-1.9213758672275316e-19,-2.9998103868004584e-9,-0.015268843510320106,-0.0006637517727471713,2.0607504570964848e-13,-0.003452642044585787,-0.0002534090580806538,0.0007772463543109691,-0.0016567255985904565,-0.002265801780311291,-0.011586025206977199,-0.0015620846278818735,-0.01058138684020858,0.00045292781783417375,0.0018385163721530689,-0.004189178723369759,-0.0005553034069616917,-0.00343096052020171,-0.003722059019767612,0.002671452913395853,-5.306071005282202e-25,-0.000042067982186772806,-1.9744929596377698e-20,0.00038415741192654224,0.0047816509370048315,-0.0031653722031082915,-0.007818472353022493,0.00162977662660796,-0.009751315463272339,-0.004589282103981819,-0.005718683729822033,-0.007365340178876089,0.012913002489836303,0.0007057097328662189,0.010102469502871036,0.0055354546650228185,-0.000014303450656631041,-3.1304373101553954e-25,-0.0009451370892951753,-0.0005346803440985141,-3.529125507735607e-22,-0.0003891872582275074,0.0010969643419153504,-0.002581268557843519,0.0053564754022663655,-0.0021881859048286005,0.005075052440424334,0.0010195867157508597,0.0035078902558650406,0.001256589627290476,0.0070931906226972385,-0.006307714015749866,-0.001105754408988038,-0.00012235028563119813,-0.003248157457901785,-0.0018422190461066087,0.007251365827672036,-0.00021437280379561113,-0.0028472610446234545,7.318132279808785e-28,0.011041642987379028,0.004344182043164226,-0.0018271073337039567,-0.011651803830114877,-0.0064780759459249606,0.011023113299421069,0.010796419810011249,-0.00032585741111298516,-0.02615164256650431,-0.013480221125926084,0.006141106161877329,1.1979988254353555e-9,9.905544722009993e-7,-0.006239514567961229,0.0051627862807803295,0.0005936063542225126,0.00016022565903270138,0.00410426071594305,0.002108494597364143,6.300056991378407e-17,0.007808172767186584,0.0039024864575267905,0.0026046377570641114,0.002751355577631259,0.0026076081928093674,-0.0011319892804982639,0.015741365249252008,0.018986807649876102,2.0439854424107264e-14,0.002975056864584624,-0.004075096418928823,-0.005533192258838088,-0.008840244569200226,-0.0037651523500654414,6.742729030436099e-8,-0.0019773709563989652,0.010576233323527287,0.008091512055730624,-0.007919353971978365,-0.0002517117953192643,0.0005805112194005252,0.000780948906711525,1.6731644994639743e-14,0.0012979514002795837,0.0053170167762557315,-3.663404121865519e-10,-1.5974576769267356e-20,-0.010969274832360367,2.0671400667886665e-9,-0.009236452137428682,0.005196660231830415,0.0014163151491289002,-9.202920829956232e-37,-0.003688715758946759,-0.008875039546484659,0.006427190852465323,0.0001813782921975494,8.956449188660181e-7,0.006827365597007666,0.0022964199810582364,0.0032978293664996756,-0.00424157389432285,-0.0031915330088859643,-0.0009346341842588447,-0.005486357874434146,-0.00017231224564405378,0.008439424405272329,9.800225323884518e-16,0.006747137241511667,2.1763311923473565e-27,-0.003096565265145078,0.0005601310203953624,-0.009670814116831843,-0.0016342241654692972,0.00044032237377026435,-4.4310155173130454e-7,0.0027781079000603792,0.0028068756270085804,-3.305477801246256e-12,0.003705891458373563,-4.773736854970925e-25,-0.00041464994461864574,0.013261399863588527,-0.0023208694211445573,0.011783282741378406,0.0007868875773699476,-0.005225069419755247,-1.695372449227449e-12,0.0033545568646509696,0.0007445479154287529,0.002835293168175033,0.0007205179119588244,-0.000886523906628195,-3.170919770249693e-14,-0.003500870663284549,0.006157000671660469,0.00003344246884443434,0.004312763833917716,-0.00011436490523377855,0.005384259580555422,-0.00959691531542187,0.0036558337703226653,-0.0019371215298510309,-0.0014306570494075177,-0.00018119845599626807,-0.001170378825619702,-0.0059901147577543275,0.004941318836866648,0.00503438782330521,-0.002137278155693396,0.000022960588678125815,0.0019500696510485135,-0.0003440528551508153,-0.003489390278997918,-0.0015597469850330307,-1.9638764183476017e-7,1.4193758808130096e-20,0.007045705066485495,0.0037407443019046153,0.0038495948341265023,0.0005459726400521413,-0.0063782003472780974,-0.0024404795673258163,0.0011664320667310762,-0.007538511235202959,-0.00031197745939480357,0.0011547788898834594,0.004985652469369483,0.0061399766424980965,1.8742737410109824e-38,-0.0022546191967757864,0.0008202676998138426,-0.01822629971704222,0.0015977265824661155,-0.0004570294881483548,0.009373865843426522,-6.32658816522775e-14,-0.007414750769879458],[-0.004501364674185246,0.0008402154391028943,-2.4731743059332405e-19,8.080528908584337e-9,0.0017272610003340777,0.0006969551636627742,1.0286106286166018e-13,-0.002478727846109099,-0.00009649847823014728,0.002089153247802152,-0.001983517531418287,-0.0032241442518397205,-0.01854883898425369,-0.002487590537371973,-0.014888528287625895,0.010422318776751174,0.007086239091237748,-0.0031483796923001575,-0.0015545677985777668,0.003499305833888437,-0.019902088757151257,0.008253737210333794,3.688331345945257e-25,0.0004255056359004856,-5.574518680149247e-21,-0.0007376399528468411,0.010732262233233364,-0.0033342173106405346,-0.02566579248355246,0.02595942722855064,-0.010553423508024894,0.007355781676481179,0.004352626925592828,-0.000724350557602703,0.017293443318009753,0.0009875942213444244,0.00484651740910416,-0.0020584032866480537,0.0003193674809898599,3.969498883739211e-26,-0.008066306039204248,-0.00008379661386022822,2.5463415679465114e-21,-0.0027625539612480088,0.0019047289843075743,0.00035409587879078007,-0.0015508887717853258,0.001024349770509676,-0.0047064743276058005,0.002662190275652772,0.002650520142516142,-0.0014996830366711244,-0.002582314232442645,-0.012972380070793299,0.006925771780166915,0.00001981848284255145,-0.010750326190176528,-0.000029810304614632117,0.002323264520736829,-0.002313586766614712,-0.0008361419555427402,-5.940149667801883e-16,0.0035604482070242995,-0.003817402243282849,-0.00004577597213928529,-0.0017756928052164798,-0.0007499126067717497,-0.013627124348396996,0.023947513267369252,-0.008680683580060624,-0.004778284703462741,-0.009283374258183909,0.0032586292146903483,5.935302398261411e-10,0.000009094491789466997,0.003708347797824304,0.00003348313271669693,-0.000823314987918775,-0.0022799184432192587,-0.0013448132143098774,0.0022918977006339625,-3.9629384753850235e-16,0.0074427675466995115,0.005401622086443151,0.00318537006256094,0.0004784593283316724,0.008062330815638862,0.0027979761192190077,0.01645589186115283,0.023963650787332477,-7.857751635325148e-16,0.000039810868311706384,-0.02162136715815621,0.018457981151003645,-0.01240719127820484,0.0006908915043511098,4.271577027278035e-8,0.0036313944944234887,-0.000851468904234588,0.011978024755513838,-0.0005195828842700157,-0.002640221070099573,-0.004602676753749872,0.0025753967423599823,2.8402104871867832e-14,0.00578223223348089,0.004143520821760071,1.4017094333916947e-9,9.305232115050342e-21,0.0008928653276039576,-7.578619045711649e-8,0.0010553153145627526,0.0018332413358672463,0.0033128146971102756,-6.853899349005031e-12,0.0074568975246814065,-0.010395395597806514,0.01435521009190669,-0.0017926103386995396,5.78235351472888e-7,0.01613386574433976,0.00021933375163293045,0.0036472897833615967,-0.0022928507584532663,-0.00023407189656010012,-0.006726028387000847,-0.009146439540114265,0.0033178120184515674,-0.01876633710889154,-7.68252011415425e-16,-0.0004356870771290832,1.2445925668929752e-28,0.002796966896999411,0.0002088417023993194,0.012415381969617828,-0.005612056851439977,-0.0030530492002353786,1.10361934802485e-7,0.01444460876436235,-0.024327555804484348,1.358537779606021e-11,0.006424068577129774,-2.9209107605525983e-12,-0.005004748513769999,-0.004312506024263698,-0.0010337405186660396,-0.0014982993806707554,0.0016033582061313236,0.0059334365653135905,5.652903645730022e-11,0.012663017854684109,-0.0027201957478092194,0.008471856316169573,0.0021207782878495335,-0.0013631289282020375,9.699696683298392e-15,0.003669546754268237,0.002594904214049051,-0.0034024097108282473,0.004283773297587285,-0.0004376748601444809,0.009068057463507351,-0.009120035352230162,-0.0006597423888579986,0.0009375600160055429,-0.004679054744517477,-0.00035517946522818866,0.0029632055950879355,-0.0072147642878672485,-0.007861447516924552,0.0005362974308276953,-0.03211102583863834,0.013276524377966755,-0.004082351788017613,0.0008709188359808614,-0.005553702994332405,-0.0027097020106757693,7.927466708402719e-11,2.2199970947087134e-13,-0.003593767628665692,0.0005815215992869887,-0.004407972731059915,-0.008995427249032755,-0.0015111480603134477,-0.01727937341235147,-0.00028015784600067463,0.0023482435361654574,-0.0032869845377592683,0.009311319573815646,0.0024469867699014017,0.0019868381431596346,-1.339782510347823e-38,-0.005652078635158501,0.001647666013426552,-0.0052028300150277935,0.005077728395759256,0.00033103794411065875,0.006947765012953657,8.587317159676563e-14,0.002891515248706609],[-0.012561149127609294,-0.0035473344355852463,-3.0742929371282195e-19,-7.405575151349087e-9,-0.006432386010989832,0.00005358873111702242,-8.439900555838614e-14,-0.004469970341630377,-0.005309304970865928,-0.00411061441946758,-0.005096319979282709,-0.007514291402072074,0.014845755419877543,-0.005528645848586874,-0.014034291329775057,-0.002059139421335296,0.007101939137703331,0.0006938058464188423,-0.00012168732589000722,0.007039701726045192,-0.004591206635620586,0.012280639229109123,-2.77419828429298e-25,0.0009776142641533493,2.4162711090106605e-22,-0.03685226779228265,0.011695174751595434,-0.008708945939470006,-0.0030592243433494527,0.05027579134806514,0.0007662905034016785,-0.00004778264409350142,0.02368725685742971,-0.01626874360980542,0.01776325473208703,0.001180544546718547,0.022934890176281694,-0.0048124209234781,-0.00005300937229386253,1.6032248874737257e-25,-0.0018589708075787078,0.00011191317836876066,4.7409348032177384e-21,-0.0012466703796760936,0.00014682460524869187,-0.009710434643105552,-0.011610821933957917,0.0001534548611472141,-0.00466334757936459,-0.0017739941593464873,-0.0006527992007927789,0.00012317117363234092,-0.0032836239475356713,0.01289364965555988,0.00018207528523290202,0.000014198294766327673,-0.013229927794516178,0.00041706677769211503,-0.009575597734083549,-0.006813990645988058,0.000023151848314440374,8.704986325856338e-15,0.00577886007230206,-0.019216305571171398,-0.005175948690457972,0.011619174552852721,0.006007878311871769,0.0004766293059625168,0.03941278182572565,-0.029352668925911127,-0.0025025575082770844,0.0032320729645369003,0.008850469523200335,1.574662702159402e-11,-0.000002123749514056335,-0.003878709695623491,0.003197607331292077,0.006855181371859875,-0.009090027374317978,0.004960946625923886,0.0023447617110372403,-2.249819608824409e-16,0.020767664092507153,0.008800739153021889,0.01273101965470492,0.002072186631899667,-0.01222340925379298,0.005592028266100575,0.016609508358146674,0.04275040737383676,2.8818563306873345e-14,-0.0006383157062787899,-0.048099598582022146,0.024763792142971974,-0.004657666544433017,0.023024300327365205,-8.200191996742918e-8,-0.00022334777549607799,0.011190881293941008,-0.0022541650158028545,-0.0036394655133728158,0.008936117317518607,-0.013130327633496948,0.004978428654057779,-2.5966261512638735e-14,-0.0011928357856169345,0.0011030222200087703,2.7311560752188954e-10,-1.4497888127200783e-20,0.009326541585059434,2.1017700910083784e-7,0.028237619423278005,0.0007276064891827071,0.0027420756735592514,-6.948038868408018e-38,-0.008377186892393008,0.014189308664777548,0.015300452232860388,-0.0037356324927364,5.453561438770567e-7,0.024565103513053847,0.001362319461944428,-0.0018674289957019182,-0.003647164932300594,-0.0009404056109305606,-0.020427927603170005,0.008592072656908431,-0.0017739123312858031,-0.03980890925926245,1.6799916862355706e-16,-0.01282729643778941,1.3417701105993049e-27,0.0075633075727584735,0.001281497713022859,-0.0023500230143717656,-0.02677599747406547,-0.011882260933402378,0.0000032194640414318696,0.020717869137553347,-0.03733788531004558,-1.1081769879187441e-10,0.0024941824404809535,1.4961773050438198e-26,-0.012872989489141229,-0.001741908439466216,-0.0002588799850014185,-0.013832269882348841,-0.01626455988831338,0.010371815331090188,1.0377212239125502e-13,-0.0018752772488313813,-0.003026530645681868,0.0030571784983548685,0.008776229510642912,-0.0009458667426203739,-4.969867243579252e-16,-0.005219494535513314,0.0014804282136054846,0.006235555215373755,-0.004134128255884712,-0.0021095200291115688,-0.004018924873243261,-0.004013250938163351,-0.0056096131918568996,-0.0023509674620254004,0.003734646102777837,6.089076162528457e-8,-0.0054995867469147496,-0.0009160713231471152,-0.010092104319031932,0.005799108614115842,-0.01393789937529921,-0.004973269912650075,-0.0010046576493268576,-0.006559904813488625,0.001636978766716383,-0.006335324919779525,-7.946212578983447e-14,-1.5563974389003558e-15,-0.0014759151850141153,0.0005539034910814282,-0.007942337716536808,-0.011685328014959178,-0.00030914775545516247,-0.017104901057542764,-0.00041396427992681476,-0.016852519770957485,-0.005359444822804205,0.014900142965536607,0.005199128721817034,0.001019286197115784,-2.442828675084351e-38,-0.001162992335813571,-0.00022902394338385554,-0.004145944524876074,0.01119786751476592,0.0030423357619196504,0.0030111071302818255,-1.993762384495231e-12,0.03199975249114812],[-0.010389102685866836,0.0020815846813966796,1.9087108821709342e-19,-1.448536347042971e-8,-0.027447748411592827,-0.00034817301455124217,-2.0479673226950714e-14,0.0054496557999515445,0.0003011859480065335,0.0017840737158927578,-0.013205643216821895,-0.005175483919469314,0.004897336029828242,-0.0028225218716553487,-0.019689007683363798,-0.004402483706995929,-0.00023436661050812752,-0.02117365466640622,-0.004278737385153061,-0.00190921934166015,-0.001495022314264518,0.018083534849807195,2.053706364150945e-24,0.0013234133555187863,-9.089892674350962e-21,-0.03228164538869967,0.01343477786657128,0.0016399043485371071,-0.019364582226426504,0.061652793269783575,-0.00861835466213371,-0.002871078171237789,0.022988978622711567,-0.018717791756017357,0.006540741112649549,0.0002823033945712485,0.028677958304667468,-0.007521210208479263,0.0008055745976028353,5.653582102023492e-26,-0.000808854326923419,-0.0003823982763885123,-7.328197510831825e-21,-0.0014181549849134987,0.000741742372161919,0.00019149435408417768,-0.007583644394535404,0.002204882997737397,0.0013907131417766265,-0.0049803659920941885,0.002977159869166669,-0.001838950895425658,-0.005896816806279253,-0.0011386857692999223,0.0030502329986967893,0.00022422249966253923,-0.013146796649581292,-0.00008258538448660711,-0.03649202836518603,0.00015403747746122468,0.0003539408350333801,-1.2846297597410532e-16,0.000498080311687656,-0.024188101662881885,-0.029689761321902187,0.013494627128836,0.009127378557459716,-0.011804002793734189,0.04721931025501027,-0.03344344750016963,-0.02280163651571034,-0.015703486665545104,0.006982040315590373,-3.055731935999155e-11,0.000002904177545386974,0.00316218965451405,0.0002533292529494388,0.014252384233400566,-0.010427807332310269,0.003835962138663882,0.005577033695842037,3.9021662271148205e-16,0.03287248700173634,0.006273700378456282,0.018040748763463482,0.002843663747720961,-0.0055817070290354615,-0.0036553255353323033,0.044452069777857935,0.05209033160829895,-2.1402012135806374e-16,0.00008506122223333803,-0.06419251288096672,0.03449876145353666,-0.005604770542555018,0.02472090005442893,1.140605824010178e-7,0.00043846501774938017,0.040320342799714,-0.01987023745842589,-0.019958616518211646,0.015627473843907946,-0.01720626722531297,0.005813977343013673,-4.423294484555847e-15,-0.002407052044178621,0.006551844696868687,5.495550971263737e-10,-4.164537294810141e-21,0.013577757892857908,-3.0413354112058154e-7,0.02036547623431251,-0.0028936242075938146,0.00684698068642672,-5.469886471105654e-37,-0.010555539776464964,0.016172314616016252,0.007510072570408162,0.0013595842715120323,-0.000005967244824947334,0.02191170683123534,-0.0006980383295135297,-0.0053114632862142795,-0.011822603006600867,-0.007543865760345971,-0.00870667118015617,0.000031669439779083956,0.003249479143164419,-0.03935976511305258,1.2808903673946556e-15,-0.01985789942266944,-2.4509132386961858e-27,-0.005688277259697214,0.0029487114222338084,-0.010905799274416674,-0.052433949542091685,-0.014064096004504728,4.957736503602504e-7,0.04169444821909802,-0.040456710830357755,1.6951371174074168e-9,0.00260288197107602,-7.132581661773889e-22,-0.018468790316565124,0.005402933773417288,0.00021473396162681886,0.00023959943251264138,-0.00537497010727501,0.02391858621524187,1.2328913201847506e-12,-0.004332393177627796,-0.0045076103337201075,-0.001213111500500304,0.0059070969879104875,-0.006887557704515912,1.3604542156393968e-14,0.004813131800609294,-0.0014406610590929137,0.003638714710348764,-0.0005601009680144979,-0.0002504625852959697,0.004702147404001936,-0.018785825175247087,-0.0057333151196752455,-0.01987805027752121,-0.008785836055231828,0.000002617052506473189,-0.0032090123410568544,-0.003332537646043409,-0.01576652140826223,0.004280840831025565,-0.026198774298328807,-0.02067547925655637,0.0009503646603252189,-0.012511987543056253,-0.00695281923483758,-0.0038663104178203395,-1.284349966921504e-13,1.0513797904521157e-13,-0.007027155344893043,-0.004805050909743503,-0.0016749246801498175,-0.0034930827479672855,-0.005067034350422065,-0.017185333706536986,0.0018791694452711361,-0.028481452995042247,-0.002400743659383626,0.018541011158116676,0.002976875841444799,-0.003445798019634613,2.494810818385364e-38,-0.005669506420050095,0.004041273564441342,0.003763971769363861,0.00416323453405147,0.0014365532148018839,0.008236023032122312,-1.0962411989214468e-12,0.039089492929834845],[-0.019166781464739126,0.00022777411299770595,-3.0514317806968704e-19,2.987198969792863e-9,-0.01093164709237959,-0.0016302460493321487,1.4842729351274887e-13,0.022540812643641592,-0.005765029530423921,-0.010373423616046594,-0.017750674320728556,-0.006331275663119742,-0.012137156954071126,-0.0024162655405862207,-0.018431880310695894,-0.003904670662788115,-0.004178838799539059,-0.016524973422163445,0.008401523764351073,0.0024503925524205633,-0.008491410324422688,0.020242306276242503,-3.0455300292891e-25,0.0003387740474928485,4.25674849112205e-20,-0.03284917178320638,0.010780403718800274,-0.0052337109779004905,-0.030310798043120698,0.07361310853589967,-0.0027199483322186487,-0.011256679719037804,-0.008625902574869563,-0.03657115083037521,0.00542623319026459,0.0008781900919624886,0.05361338391555769,-0.006490442687990546,0.00005201085449499438,-2.427189452255592e-26,-0.00029678068303344324,0.0014774720451139571,-1.2086917895386444e-20,0.0013880099734556385,0.0012104303520435262,0.0022092525273895037,-0.011282002065633496,-0.008214675911301103,-0.0016706263431617648,-0.0037468434431721116,-0.004634405831273147,-0.002315894457104816,-0.0018883863922826137,0.019609157526387054,0.006848560370101823,-0.0001764372904011659,-0.021768712939300834,-0.003544602137689949,-0.031221932487432692,-0.012396220705142694,0.010328065792016769,-2.9887707103125585e-29,0.00891273910374492,-0.03973829434167581,-0.026191477132476028,0.024978319773494434,0.003814539811182952,-0.014890256628688772,0.0655282637407065,-0.030644616026603344,-0.028787225150671163,-0.027883379585089442,-0.0015339309946932498,-7.570127296478006e-11,0.000005512847348882519,0.018114037519878726,0.0018718912737481143,0.022587060790104217,-0.006559811300356697,0.012297182357486733,0.005743623509647114,-2.300516167873366e-16,0.05824695128773891,0.015295245782699647,0.0056662266530883515,0.012823107146324906,0.006422706311851791,0.0003508488158576267,0.06595362962388661,0.07418169600095799,-1.4767463589515479e-15,0.00008588326079928217,-0.08129751446086299,0.04338639447254996,-0.008407936069230473,0.001084969705423542,1.0729936750824219e-9,0.0019782737637228072,0.034067874439202374,-0.02850298716529558,-0.0053377643032492695,-0.010253177869512554,-0.020545684605695995,0.0027129007023975037,2.257033898787476e-14,-0.014869919632020927,0.01286744480407731,-3.775928160296976e-10,4.1205933952057614e-21,0.014799100317675916,-1.774220784817702e-7,0.01487371798369167,-0.0040730677128977665,0.01877223889987744,1.5390617844651723e-36,-0.009984747260792202,0.0015785164748612687,0.024289987267145312,0.0024657517985045784,-0.0000021026806613816907,0.01574292759551313,0.010691198099095422,-0.02155662798829662,-0.006267508994122495,-0.0019146912351461671,-0.013805900753980287,-0.019110115948167215,0.00685341117334904,-0.038094803386320965,1.5044312296696862e-15,-0.03463066709776841,-4.868723478092799e-27,-0.00017619766076280144,0.014339295915200025,-0.01259549272437881,-0.05883404290774584,-0.011971724310217206,-0.0000010612886832591438,0.044360176041803895,-0.04507403779296314,5.882040822644993e-7,-0.005625972470227432,2.2022453875173594e-25,-0.018475637397928412,-0.005312023557231451,0.002746631668108591,0.006014677248284666,-0.021778252514721506,0.03281784262628386,-1.3054770213553585e-12,-0.004697012077275256,-0.0029229864686994163,-0.007497328535930896,0.008351414518408054,-0.00920976597369096,6.430351527421794e-15,0.0003392406537962359,0.00025162515622611473,-0.0142266547527768,-0.006663720735854248,-0.003589628867665793,-0.01003301925633931,-0.01410817679489145,-0.01643187053829832,-0.011514381450870779,-0.0005094723811309295,1.8083373867749572e-7,0.0019753689069634426,0.007431165037623892,-0.02059153061533811,0.010186971965751542,-0.040494590942752116,-0.01295794801941443,-0.004293285805302684,-0.01224865970743052,-0.0063852067594657655,-0.004739569009765691,-1.0670351021690688e-7,-3.083985689729305e-14,-0.019836632299055836,-0.003619327036986623,-0.023366866727101,-0.005730094391399788,-0.0016697199382981033,-0.019735991604946636,0.0020458998908995654,-0.033050698634030304,0.003578687520193858,0.022951951937278475,0.0036502226204833516,-0.02000928478869221,-1.3246127790098636e-39,-0.006896438550897903,-0.010850701138281713,0.0019886468693427997,0.005552775438946416,0.003634415561129704,0.013140671463335765,-6.355056515119524e-15,0.040914653921280165],[-0.0159553830040977,-0.0020983785861762795,-2.0011789413758485e-19,-1.0419384573649198e-8,-0.008700246234925402,-0.003125335795620313,1.8243675110935234e-13,0.033449036651413584,0.0011583254710987442,-0.007546928235714124,-0.02355313430957919,-0.005432359889583591,-0.03263795658235389,-0.0011451129727496063,-0.0221856651067532,0.003327856246629686,0.005477993075959863,-0.005503758086432874,0.01423884931957681,0.0003041919660935451,-0.015719053010492645,0.018814694145517577,-5.792646206828767e-25,-0.001155317404533304,4.0931449823695535e-20,-0.021891026935914985,0.006545212091760991,0.0007136728465782753,-0.030425605137876628,0.06406024897760274,-0.002327656970869193,-0.0014310088471097293,-0.03371260215954604,-0.04531326489769912,0.003123044777528525,0.0007108162603517019,0.051224724993094446,-0.0014486991186433797,-0.000013277047779063416,-2.0557988732289988e-26,-0.004406187081527677,0.001096849718119473,5.212703500379955e-21,0.0035346542976966958,0.0016001225194253552,0.0018627216050689974,-0.004232537336811273,-0.017633127935955957,0.004110819438156098,-0.005848658407655362,0.007603796689485685,-0.0036799090187043387,0.018303426099939214,0.012174369903630375,0.010553803136378966,0.0011354629078099124,-0.03260803385938472,-0.006881509588792736,-0.010306943310984005,-0.01781255471194723,0.01939804659366822,-3.64984348932106e-27,0.022667571328175325,-0.01730154414368531,-0.03865376170965121,0.01847283834883366,-0.014370487218749702,-0.02615000581656433,0.044442022938645305,-0.02921196675053059,-0.01462780355745825,-0.03975541699212641,0.002439228560618824,-1.865247671307014e-11,0.0000013867868938538886,0.027429151302057912,-0.004010912075531915,0.03262149290991272,-0.0030292148306855808,0.029958904160308435,0.00544176169799367,5.816758774533358e-17,0.05670776897493466,0.015275831680951256,0.003917399759896551,0.020445359054864335,-0.0016059370875253563,0.009260164695440542,0.06397730197850243,0.08116797934770793,1.0702828886671976e-14,0.000663594405580843,-0.0813063280631333,0.04220774089529089,-0.008775599591459965,-0.027956041528921168,3.687678943592176e-8,0.0024598600579732108,0.03704154304628391,-0.034299610666416194,0.0020586892501664004,-0.029294952011948844,-0.019163873642651784,-0.0087402784773283,1.0695648901670693e-13,-0.012012394659635078,0.016424385640342768,-1.4876182569950346e-9,1.5063854089047408e-20,0.013015341401069955,-9.771626454104345e-8,-0.003653224949254826,-0.009747077334082576,0.011059344058021668,2.448966423955458e-36,-0.0036262173089217785,0.0023355655745016814,0.033115694241124635,0.00239878958214116,-3.4591956884760044e-7,0.021696025720014445,0.014538848571437628,-0.02350732156953049,-0.006652791291505363,-0.009916991677722618,-0.002472601045899071,-0.03261778593050743,0.012328174095403,-0.03042014694729354,1.5789341667569654e-15,-0.016304817361542046,8.53632704025234e-27,-0.012919256699585324,0.019976772164040917,-0.011117316594656234,-0.06070074423025712,-0.007187618725043855,-4.2930502918367496e-7,0.06148804460513618,-0.045854352425349895,0.000003737094343235499,-0.0030479655355558186,-5.163227616125197e-21,-0.017862708532514756,-0.009913501852379668,-0.00033902710907146913,0.006122902678666558,-0.006448998002095491,0.03225891652130609,7.109795833335977e-13,0.008736349154319591,0.0017392484876345873,-0.0026812221345430634,0.006779946826520294,-0.012662545554844976,-1.5246081103421697e-15,0.009676403140658856,-0.006655967243762465,-0.028900956919294268,-0.0016234046070112943,-0.007795300858731068,-0.010315921052344112,-0.012044798832115103,-0.025615571611141492,-0.012471081181334992,-0.010971707607094417,5.2466506407422196e-8,-0.0000035365021280316486,0.007731331624364518,-0.03243265380024381,-0.006634574843686144,-0.044004877366211545,-0.01651497984388121,-0.006498898965773134,-0.01551797021261064,-0.004445495654838618,-0.004563410741390263,-1.4751638803317482e-11,5.734126447589118e-13,-0.016736191473188663,-0.001836633142245138,-0.03131237585354196,-0.005674428329183809,0.0021483139067872714,0.005574127238695872,0.0033101015391146325,-0.010490284249704862,-0.006439517660278855,0.019368645635975956,-0.013242462160312888,-0.020232658325894826,-1.5264512452359399e-38,-0.016286212931356837,-0.01832091700561773,-0.0001449263548857785,0.014146697920303741,0.006835637201131873,-0.0008139182535102864,-3.773932788944764e-12,0.04140181158223434],[0.0033285817642014675,0.002347340726514808,2.0340705235563821e-19,-1.5076253289866917e-8,-0.024595355672138948,-0.012077637755514459,-5.167919050769996e-13,0.027847096870732054,-0.0007655045653462508,-0.01116290822412609,-0.023876140777440137,0.004667323460597832,-0.054078132655748165,0.007017699266583437,-0.014779463358283108,-0.003192579809064381,-0.0048538877327964835,-0.01562461687571975,0.022577106913532905,-0.015710222969614312,-0.028122196619966414,0.00933901282164165,1.2183966035264117e-24,-0.0006473701471637653,5.135572923834507e-21,-0.01588092778245558,0.00561330474061012,-0.010975887926835131,-0.03443222196666688,0.053728648377061684,-0.015695719175278785,0.0004162936354734864,-0.009210851534003807,-0.034533333594443355,-0.005097417170064647,0.0010442657258344858,0.029036611374942557,-0.005553876792412523,-0.00012022991524317787,2.5429131139255893e-27,0.005078147967079226,0.0007877524766907209,-9.509409257414775e-21,0.007658330647883912,0.0005835131054638906,0.0012996921824089398,0.0016286645547187856,-0.023747851966182267,0.00032882083301232726,-0.01662417999991405,0.027462361600290325,0.0033147307665136053,0.020511634096611872,0.013119401208384507,0.002763227166817935,0.0016521069035787383,-0.022805946811869555,-0.010185541043308283,-0.020694471374506744,-0.018315936790079725,0.022498228602689834,1.8265089907565108e-24,0.03859601552353192,-0.027369652963157957,-0.05119495470406378,0.0082547930283458,-0.027229705426270265,-0.03739987788369362,0.020848140814144024,-0.0008900164755063437,-0.019093306442896547,-0.051279229297964496,-0.024205796847273968,-1.821455019007535e-10,0.0000011677980267937257,0.030363266787833385,-0.00043003636815566954,0.03885151511137203,0.01039061461680217,0.02744852496272217,0.011258386226443255,-3.980649941697685e-15,0.03820021868653853,0.013940106990428377,-0.0034527325707482733,0.03222590085273718,0.0130053119725737,0.011786405651221752,0.06331861906103946,0.07558929909202616,-2.0610491789546066e-14,-0.001526894242965587,-0.06627256592916378,0.025648729053028625,-0.013079906587931537,-0.023407216631218836,3.9531886752534646e-8,-0.0020408389338269564,0.0622352557221605,-0.03266887157525708,-0.000789074486118017,-0.010485605473155182,-0.0008373126610156207,-0.021617730778087454,-1.4172486716201187e-13,-0.018443672347058997,0.015912913749961854,1.6585487523076174e-9,2.170411721075098e-20,0.020689586185117858,6.379782966936493e-8,0.006908863281570307,-0.0052430358876681925,0.0044761767643931565,1.1220745847004532e-13,-0.0074651860216336805,-0.0035927680128771777,0.0173271915065179,0.012935838476484194,-2.00188350383387e-7,0.006582933292087866,0.01599960256894106,-0.0009003407709346856,-0.01036452351159083,-0.018832410202117022,0.0026887773339410743,-0.028637730161107034,0.019365130777466467,-0.012114342220232556,1.0017292200304284e-16,0.005640853632797528,7.080779286286129e-27,-0.016324801279135905,0.014584742711574023,-0.017231822990838263,-0.04954837142790717,0.009433574483650278,-9.696085661204442e-7,0.07004795758552564,-0.022267122425816445,0.000014382398824673172,-0.006804295115350384,-2.096901285655309e-20,-0.0019884287892894996,0.0018406739474898103,0.0010355530474146142,-0.01712407916112102,-0.012582792181398086,0.034790447267615765,3.4360254967230546e-12,-0.008820364353335539,0.0010308816765522786,-0.007916064488754261,0.0031992325187688245,-0.0071595121648721895,-1.830880298592526e-15,0.0010201560481707926,-0.013845705029431358,-0.0321460114809676,0.00975678254680683,-0.005631331692009179,-0.004564573531787456,-0.004511948371284799,-0.025103615449190125,-0.01688067116705486,-0.01604482418280371,-0.0001351772023663299,0.00036470275433548823,0.01008835056596735,-0.0332728513719283,-0.012731483401673948,-0.048896687947717156,-0.031202657100348297,-0.009388168049414966,-0.013085649438645233,0.0049243191615693195,0.0035269484155289817,5.229238773671371e-10,-4.960306697740939e-13,-0.014654873060929862,-0.0027286927594623945,-0.031064638568093102,-0.011724696286073066,-0.006764806896537055,-0.0027592703190693867,0.0009051762878994056,-0.00020196571625288588,-0.0056489637724338885,0.015053713608990877,-0.017835112477286516,-0.02569601451484848,-1.1269056641034647e-38,-0.014210230186908993,-0.025007154203136563,0.012372851159543065,0.004462564947152607,0.011386637728481353,-0.006459961986327143,-3.258278950346782e-13,0.028444526985510758],[0.013635767069101351,0.021700276617710786,2.234297109023971e-19,1.210457296843063e-8,-0.034129683538818845,-0.016050835775163856,3.518529891395243e-13,0.024880813738499805,-0.0009590961757559443,-0.009833347255089605,-0.02246434387201625,0.010042480028307125,-0.06387630738657142,0.009774967055066598,-0.013519354743373903,-0.0057175715689708724,-0.003270285800040424,-0.040616190869126,0.03452212869798952,-0.03113367930884405,-0.03216975417199471,-0.005272862530797964,-7.967538148679572e-24,-0.0015292035690272394,-8.660290616196947e-21,0.021520318738964837,0.0025732034185774275,-0.012724666286803962,-0.03815221830925734,0.055864072775347905,-0.014088404059378933,-0.0012415678417097079,0.03010359080117521,-0.023495496212387335,-0.019874843232555596,-0.0021781757737262095,0.014174624310360196,-0.007959808544760949,-0.00024960086652415895,-1.0749197747285226e-27,-0.005808080678507745,-0.0000701671826659958,-4.022284886354745e-21,0.003944286957409198,0.0013702704710514327,-0.0016605841050047773,0.00971039941855072,-0.01916386548646339,-0.003833078227368687,-0.02865243435800964,0.00847328512568912,0.0012449957583590963,0.0035665856821120397,0.008588082012491123,-0.017972496101485953,0.0015152387088168877,-0.009801996012086943,-0.011043570091526267,-0.010617062603174163,-0.025036661745820404,0.013839961440214413,-6.82660360387218e-17,0.03365606802755369,-0.01950437768031243,-0.0483817369180505,0.0010865399213775603,-0.021348538116357823,-0.04326966928341841,0.017697697315063952,0.03648434590170699,-0.03146672461537132,-0.06397059752127816,-0.026657177465234147,-1.9204983533105315e-10,0.000007050685667405205,0.03167552771589052,0.0017224188513945107,0.03622348784187096,0.012326506503658893,0.008987623442830113,0.009915738808532028,-8.821905319582918e-15,0.02612311554495062,-0.000046895871698770435,-0.007031331096710228,0.031610564735496886,0.0036981920133383975,0.00388318905301888,0.06807295546330393,0.09168313825318072,-8.573320940916268e-15,0.0004280216536361887,-0.047990476362313204,0.010979776833555452,-0.003979872550119458,-0.004754328694850776,-2.221805212943839e-9,-0.0034200489334174026,0.07090211900660075,-0.03417621648191652,-0.010668860557149409,0.005045174770483136,0.009994181616807773,-0.02293521316984933,-9.306895530430397e-14,-0.02957235985019924,0.012313052699855904,-6.046591324623274e-10,-1.6477298464845826e-20,0.02787563551655931,-1.5719970650945723e-7,0.004109362131624241,0.005330707039956289,-0.0008902723832170257,9.126535727739176e-13,-0.005652996852840221,-0.029830958610008177,0.0014537117400977516,0.0051176325184266016,0.000004749346813700281,-0.0001920096401597871,0.011978911932265648,0.001370031021247045,-0.015961856953594318,-0.03605910520896865,0.010764940301385516,-0.021688507115340212,0.019807866519646975,0.00516034403280812,2.851808166108559e-17,0.0199478151585343,5.712603462628846e-26,-0.019153578693316003,0.012878767715473576,-0.03172110962006174,-0.025767068697845383,0.012437202395571823,8.197442161169547e-7,0.052316919922502245,0.00609556348867144,0.000029887305300923438,-0.004398789244174272,7.869805876033441e-20,0.00805619443877266,-0.0003785221523458337,0.0030345337160869795,-0.01879935922570472,-0.011834319581358475,0.025375643046800955,5.0181044273314945e-12,-0.04527980761080513,-0.013513239127944505,-0.014365336617190687,0.0006966450363520424,0.0008798004297627627,4.401301655209422e-14,-0.00003102159606265534,-0.01741343521355368,-0.04375569628159393,0.011472949811978923,-0.004433346797691673,-0.001240172608227286,0.0006499168726017972,-0.01543778071617803,-0.02781123195261939,-0.02346199073338745,-0.0000011354076809306093,-0.0021045618060772267,0.005707365625729109,-0.04149295305068332,-0.016217313992861394,-0.05227705730054128,-0.044498189818248886,-0.017034833365363888,-0.008482009150063613,-0.007542311163421484,0.0082624688822013,-4.4543446663583374e-7,1.736912415090767e-13,-0.026976658153289656,-0.0024050839206445564,-0.024613011625222544,-0.007490889149225781,-0.0168355216374197,-0.012700282596242254,0.0015394830510748962,-0.0037239951540829516,-0.01271853242315641,0.010780646671890172,-0.018300739066236697,-0.019438862227421715,4.0175753914978215e-38,-0.022460110071988483,-0.028499113591541312,0.02441682756607765,-0.010903839461662665,0.0119839061408594,0.005914388994105244,-1.4118828835595344e-12,0.024461100590810577],[0.0015263165333339655,0.018256510342682823,2.5203519122985304e-19,2.9153446716480195e-9,-0.01865105466244019,-0.01185238119209466,1.6473977844237117e-13,0.019800816984628145,-0.001132145451298841,-0.0020955688460386804,-0.02525955768947342,0.0032833307060563476,-0.06894776612223784,0.0021766335263264905,-0.021672359373625088,-0.004236478513850652,0.0006988759904650961,-0.05967842831187606,0.05888195061835431,-0.026841706117411858,-0.030705260536244644,-0.014631225556991192,-1.5352513784977684e-24,-0.00199069025859898,2.1156078682091168e-20,0.03557849322000943,0.01598514746651396,-0.01596097291605795,-0.034885436316958555,0.06553881636759991,0.03237805167098432,-0.013139617883794795,0.05443751582135595,-0.0084116861538316,-0.025381868314844153,-0.0041671488243495425,0.01350724849176336,-0.003613317268300469,6.045672591479528e-7,-5.1623438406994014e-27,-0.015713020325158773,-0.0068759847587785165,-1.6319807396624128e-21,0.0006246497209969957,-0.001361067104456138,-0.0017028443828364128,-0.0009248820471052606,-0.0388906115592926,-0.00219354313296183,-0.022654249688670847,-0.017997407948242235,-0.00320800025222979,-0.01728039852809688,0.008037430562511839,-0.029287282929138986,0.0030918272468660785,-0.01305865239880075,-0.012900592494076366,0.003301902612451829,-0.03545872090835622,0.010896537015540535,1.0792338378752826e-28,0.027469578235908846,-0.011881055512594973,-0.0451439522301297,0.0032412797151433054,-0.04260405895235236,-0.03617002857142732,0.029630812169506752,0.055042092184531724,-0.03179102500743388,-0.04162803794721365,-0.01609541976074446,1.0932441780739116e-9,0.000003161862676997621,0.03224198293271688,0.003169548301064213,0.042147293172787044,0.0020141927610842466,0.00015595317348679266,0.0033177299100920965,-8.54441885487167e-15,0.016030065761864963,-0.010466337468518576,-0.02150088389068137,0.02214473296984962,-0.002828668991170865,-0.001297020865072923,0.0395061893214778,0.11500928578629736,3.5446950170008597e-14,-0.0009084083135879654,-0.03541342902717563,0.023312508087443565,-0.00005313048103015267,0.0003965785326580729,4.084354268514951e-9,-0.007008177240729015,0.051573851259506656,-0.021112713754365103,-0.0028781857847937752,-0.025690833156179683,0.002256557509978425,-0.020540092189728014,1.2901491744408256e-13,-0.05909375922057964,0.00028808148038354635,5.917844862272574e-10,7.752518040412025e-21,0.029657057146627544,-8.66315104382932e-8,0.010991639792405286,0.008447275832319308,-0.013059799965301305,1.0646063133286002e-12,-0.015058447757107693,-0.051651119316567566,-0.00014219028814599024,0.002119931008432711,-0.000011761913668085154,-0.0011886839335410316,0.018162238967295612,-0.040548430992959184,0.0026405278369484404,-0.03449522443843871,0.012195439505167405,-0.040768500905427205,0.012014657794809388,0.04069813489711025,-3.679627611187054e-16,0.028530354691955223,-5.623660686623826e-27,-0.022589502191175198,0.01528351342343918,-0.029499169205165994,-0.009305681106207638,-0.00044287803551293174,0.00001213176595993752,0.035200073131199196,0.013091976261664225,0.000058615426236714584,-0.0003565356097260053,3.013986237816337e-20,0.0036884623608295585,-0.024870753802909516,-0.0034250606803428903,-0.019228383946609567,-0.02340711665646635,0.017857770475309304,-6.0857283553791535e-12,-0.06389256497806349,-0.013929103663226633,-0.0017000346713020769,0.007983825352289912,0.0022705097946132094,4.0410310600725035e-14,0.004506621685187279,-0.021547767828402155,-0.04377429761762002,-0.0051177478461221365,-0.00739437039608898,-0.03185306132766236,0.021763454832467277,0.0023249346474006434,-0.030442815966155314,-0.01993852120533257,-0.00010228209479385925,-0.0019618068697027716,-0.008586031714313103,-0.04513043212702555,0.0034030249540547863,-0.052014150058321364,-0.04181972894672054,-0.019416595699279803,-0.00626453672067931,-0.018770913575849292,0.0021688072613998298,4.563634495990666e-10,1.0021816609859847e-14,-0.040843485963645086,0.0012096418414700844,-0.0245130134555454,-0.0073302007478838775,-0.014189560620338222,-0.04059197639408229,0.0012528305351254465,0.013757472449599408,-0.010914265363015405,0.0028356503544620048,-0.01071947100365034,-0.017616842435317054,6.580867050376253e-38,-0.02222397478989088,-0.03292117310850777,0.019236414128856287,-0.011216650099037797,0.013111272710463967,0.012487963844587013,1.171384783133596e-10,0.034816510662951154],[0.007010256751516922,0.013289473903684105,-4.666298952168151e-19,-6.265805167593046e-9,-0.041502810635049625,-0.011544574714803002,2.0275673043428308e-13,0.008963801288934696,-0.0021660408258333493,-0.00919445013504486,-0.02710825603300667,0.004552121009766447,-0.06277028045726657,0.00240424395925025,-0.02641827661720389,-0.009828881942553302,-0.000542284775069446,-0.05900048158135523,0.06368583586389423,-0.02407691410286956,-0.020438852320478547,-0.016106240497659314,-5.127331720459695e-24,-0.003205719010395859,-6.922894767201991e-21,0.02983609676067649,0.006752707566813008,-0.013893482327000313,-0.03322918403317818,0.08520699312702612,0.0544605038742838,-0.01364919960149816,0.07752562856106218,-0.004861806980660237,-0.021085417326887106,-0.012213800281758964,0.035132474378589684,0.007063053223393606,-0.000013319819393444178,-2.0348688960239075e-27,-0.014540395170944546,-0.010800286583436566,-1.5062844576146063e-21,-0.0037684621365003342,-0.00014576957917448522,0.006419362827588302,0.008657534054188575,-0.03961111115864496,0.0013208178013504588,-0.012367421465039745,-0.03664758040736007,-0.0038991268027371616,-0.014065949415390862,-0.002498281020997665,-0.038032937262436714,0.00243097613637515,-0.004045043352119191,-0.010250545991372718,-0.02552933385433232,-0.042452955190998454,0.0033399018555725197,1.7355956044396938e-14,0.027981177937146412,-0.011992533037353434,-0.04293437466979886,0.0020240708720871406,-0.04584374174405857,-0.028402433330170555,0.023836083027924095,0.03132244062884282,-0.0331641515801237,-0.019112979487666684,-0.000012017805581033322,1.7710291306114912e-8,-0.00002572762516623159,0.03752850319813724,0.0030130077609541923,0.047560355400702845,-0.0009203869544514545,0.00041966239393224404,-0.00747043826461266,1.2174641139778216e-14,0.0035233535589686243,-0.016698952347347824,-0.013863670111901859,0.011085051863660276,0.004491200912136482,-0.006719918291243455,0.00451838320949205,0.1264026941198929,-6.284389701775673e-14,-0.0018860761717391316,-0.03196149565200632,0.03635178547903586,0.00402903034823818,0.012606775674979961,4.569648765304704e-9,-0.0065517458694017965,0.0376380452684599,-0.012215974224084002,0.004971517721353029,-0.02591481560902626,0.003913759146756541,-0.028141022196070967,-9.175837269914114e-14,-0.06956965471705644,-0.01694758243374997,-1.695458141994963e-9,-3.056907353599412e-20,0.03154823201653554,-0.0000012139469196039275,0.003855294923500049,0.01430899564458392,-0.019174577092597494,-7.605844094974047e-13,-0.028461400172542024,-0.06354637067753657,0.006789112898818072,0.0001780658680194299,-0.000016148930611807926,0.008507715020218682,0.015945371634233586,-0.052455354139169914,0.012298741424883169,-0.028066875675667992,0.011058138568108793,-0.03576780154186935,0.0044392507942680555,0.04376208842693197,-5.539988817579659e-16,0.03233862511490336,-8.779203813761135e-28,-0.018524043591450576,0.012575800175847328,-0.03040040523569392,-0.02517837421255605,-0.002367613136604355,-0.000022850915877000142,0.029542059974899337,0.0011776819640475574,0.00010827094738622561,0.002593453110036937,-2.3999215421639404e-11,0.0030721394079672604,-0.020274572944127302,-0.006330755468867163,-0.013107985410706305,-0.025825240738857322,0.0009277617415296819,2.9149374414566745e-12,-0.06685546322086934,-0.010283457165160825,-0.0007381807912761004,0.011277656461779266,0.002511600289360319,4.48679996973725e-14,-0.004674851158384542,-0.019890084572741763,-0.050269979886363836,0.0025858288868140867,-0.005395532112605503,-0.02778004995167882,0.039566118186508736,0.0032590344088940576,-0.025555980918367496,-0.012812458028826352,-0.000966447680370235,-0.0013207162321090798,-0.01568872426953113,-0.04251057942626432,0.015428023333626608,-0.04610736974735153,-0.05455609751472457,-0.01721166536326674,-0.000961595024243063,-0.020919991319423268,0.003993562608254383,2.4012099773771093e-9,7.323847216349241e-13,-0.04733575807506002,0.008692181588535377,-0.01585710846789711,-0.003180231116286001,-0.006308085817645958,-0.05102462251958511,0.0030422761935997482,0.011695180019497643,-0.01450252043667094,0.0023241897630582042,0.002236582103840696,-0.0031598015048640493,-5.296117526276198e-38,-0.022285821045639108,-0.02922644197924433,0.014619756999451951,-0.011907932643622995,0.012899869778913829,0.01042371498315433,-2.792389924294612e-10,0.0498013857345864],[-0.0025619131144815656,0.006317089173041274,-8.625949869960737e-19,-3.808362398090731e-8,-0.030416930032153414,-0.018480255057317856,2.8863216305301334e-13,-0.015408883526435099,0.0007692924607780025,-0.019649275574072752,-0.02061754873735943,-0.0020085503801043547,-0.05461702493442417,-0.004150765815379214,-0.025584415271670605,-0.009403666277828373,0.0017639270238863592,-0.04816997262888001,0.043048332582093,-0.029803816603370597,-0.0053358085489925615,-0.003560411098274067,2.0875535147357336e-24,-0.002900855743510204,2.8558131430049124e-21,-0.007409036441936522,0.011142022666192835,-0.02151012237826507,-0.021044689578592398,0.08857697010465765,0.03188514552902171,0.002702632413295008,0.07534837119934264,-0.0012043168861639957,-0.01759741851915452,-0.0077075163955529005,0.03123360097469275,-0.011402660998307612,-0.000351132273687754,-2.2520382078883583e-22,-0.011420657998756217,-0.01325491995393675,1.5726797429425208e-20,-0.001789758682361103,-0.001338085657697979,0.007639112093529433,0.009473105892934514,-0.033794929710782066,0.0012877892329142486,-0.007454524527164422,-0.038134531365379004,-0.005883561050401696,0.0005506532641679252,-0.0025733937199540285,-0.039335173271534546,0.0015024891632980178,-0.004416688887981527,-0.016182899685816744,-0.023801042033174416,-0.0348659743759393,-0.008804471999955835,-3.0006746297023725e-16,0.02475231720127901,-0.009412958910791426,-0.04358156339511719,0.003602125014683805,-0.04361278464157285,-0.014387373085977144,0.03298379325596609,0.009786145214502825,-0.030065145727019627,-0.008830860984447377,0.016275685516723853,8.414124458415748e-9,-0.000014346692294077682,0.04053420560555367,0.0047087793271122615,0.029789140025497676,-0.007266086378949841,0.006292229605948961,-0.016330298824291302,-6.707023483840078e-15,0.0040019953383666085,-0.027901492550494133,-0.017799311154966198,0.012128023467517781,0.0028232577905022787,-0.015431992704207144,-0.022997833516377325,0.11494110078848575,-1.0590702331265264e-14,-0.004873059184781341,-0.0205942905785942,0.028503763101707904,-0.002929746484734167,0.0049279932380771364,-1.4905373948686166e-9,0.004148375246309273,0.028932371825918495,-0.0017297764950268686,-0.004969144582428259,-0.03311932893580518,-0.0010654589406444938,-0.02383663814963828,-4.3929652363005554e-13,-0.05389216823114305,-0.02264343960912289,-1.3156510946466463e-9,2.192422496529279e-20,0.03914464794373577,-0.000003920226319449266,0.011542688317524065,0.001476034851636532,-0.025825519906374557,7.021636138203721e-13,-0.027081801348674918,-0.05326151188610566,0.0235462122659475,-0.005310149666474867,-0.000017585666090133203,0.016957110216363574,0.013085226110342326,-0.05985635838535794,0.007641579891155848,-0.013619626689096156,0.013529713520188462,-0.028225809471962904,0.0029942508817460646,0.02455377970162013,9.790804805880548e-16,0.021410921882145446,-9.263315119073173e-28,-0.025458658641314108,0.01417515073483333,-0.02275888465992067,-0.04226468805463371,-0.009760521337712179,-0.00025976958440801376,0.03285355938509937,-0.009500060642251298,0.0001846059133646945,0.0024385804572669514,3.706107136969274e-18,-0.0028871707994351926,-0.008203176427703554,-0.012887662051674633,-0.02286289959182764,-0.026889528464614842,-0.004519217573690005,1.9923866509413342e-12,-0.04296534308028541,-0.010953446147370068,0.0018988966134646278,0.016796503611289225,0.0017273999360278112,-1.8858139969868222e-14,0.003720870883840375,-0.011599064303416368,-0.04250771552632141,0.004371766417740451,-0.004910553594989736,-0.022319239421100832,0.05495203555543743,-0.007030949119662258,-0.02491585203626042,-0.030647279320126095,-0.001798477127150523,0.000570064662937461,-0.02179870687914103,-0.047097673025800965,0.02624916865132014,-0.041358493367860724,-0.06388653691763659,-0.015019681665161055,-0.0023033872675130842,-0.009315883492441767,-0.0020385879802567774,-1.4984710444178744e-7,-2.864526733333308e-13,-0.037727040549995344,0.0017272737614626604,-0.022196484579546667,-0.0027351101137037467,-0.0033180145502099503,-0.02557562019234561,0.002941228412503365,0.016162154464386274,-0.012579373070581561,0.004302865773004448,0.012992213547638493,0.012510802535315677,-2.2187112133831734e-38,-0.016758166733627174,-0.02539328133606177,0.01980859465667786,-0.0033699147909092477,0.007027766188253563,0.017206480149247142,-4.406313330245325e-10,0.05519846957698185],[-0.015061524568435318,0.002529328107591942,1.0983272103989387e-18,-3.322487512836465e-8,-0.0006490853624909337,-0.024886198399915717,-7.269702430041252e-9,-0.042559690507192806,0.0035849864503890412,-0.014295000691789116,0.003196921973634779,-0.01064773639491114,-0.041724042516421964,-0.012925096556486436,-0.030838429065821786,-0.01178199080486995,-0.0029791674725861183,-0.03212459346048316,0.02148561374996884,-0.044422117145553434,0.02361842537018945,0.01434591949052383,1.1940526045698414e-23,-0.004772983161141707,6.029658701625862e-20,-0.02568971279801424,0.01513219195154451,-0.015588189373496895,-0.012649741906123523,0.06670881765405175,0.011844798624158086,0.035669996126683826,0.06362898278377928,0.01336820430347244,-0.01955289251055905,-0.0018874385755701926,0.00477854727466674,-0.02886308216675809,-0.0006696462686397121,4.0394629291422974e-20,-0.003414913867305951,-0.020632946980305995,-6.3226823012632e-20,-0.00258928373335032,-0.0013967336362817316,0.012743376250462624,0.007227942998747083,-0.03971090930337121,-0.001076136006854343,-0.007035683083871302,-0.022507306874931614,-0.011712319181128613,0.0062947035759316275,-0.001832834233284365,-0.03243424653746061,0.0015402587733692377,-0.013820690492608322,-0.02373529520079405,-0.025232573554915396,-0.033610276526741686,-0.024614375359927866,-2.753341126708373e-26,0.028806391261637112,-0.010404020744099744,-0.04648836259602241,-0.007422895482077668,-0.04895151287572739,0.020254897342300855,0.04133081733961101,0.002172395379941941,-0.0460721163951693,-0.013578349735214565,0.023072692362663044,2.954842504508013e-7,0.00000477378893658033,0.04393990203126716,0.00866577430489682,-0.0037434286293866513,-0.01920478625881666,0.01596479204705461,-0.011592935580058694,-8.195069270358726e-16,0.003202160217304102,-0.041775226033583475,-0.03850536080055979,0.01550493769153192,0.0040550368993423295,-0.01648161946681039,-0.045833804462424854,0.06828864669648763,1.505346051008891e-14,-0.002825251206414169,0.008284949364361645,0.00353938037688379,0.004239715857723818,-0.006930404834805963,-0.000011169008851963881,0.014845450602796502,0.03479236793948627,-0.0012267313876646224,-0.002914500763282002,-0.02979938428172745,-0.008011797701627466,-0.009634147728012228,-2.7800901713794074e-13,-0.029345947856827294,-0.019244187334600024,-1.3146636912639026e-9,-7.591704194178482e-21,0.04563175187222952,-0.000011015777058935088,0.03456823535808017,-0.0009601995050626167,-0.04734693221097569,3.153245652994573e-14,-0.008153864672484136,-0.04750860210654918,0.04112346125103129,-0.007781516002621637,0.00001819147168491441,0.019398392918315105,0.01447120179359472,-0.04882594317968492,-0.004948354358563472,-0.011125125458135536,0.027448766020591424,-0.03920018899053549,0.008675145671614776,0.030950618523640682,-8.701579087907055e-17,0.015460369735915528,5.273129614240659e-28,-0.03580585595637198,0.018777339905961178,-0.01763068160844495,-0.05628558759059804,-0.02158194063675273,-0.0004947110848100563,0.03482589453993276,-0.01640121411336747,0.00033433261082252083,0.002645869998873362,-8.900270442105847e-16,-0.0117790755678611,0.006642601873262245,-0.014844367017121196,-0.03654062765440728,-0.013168620589130908,-0.007262271137200187,3.003725623154293e-12,-0.01552764477126071,-0.01795148772153416,0.02224972176821349,0.021148199869608614,-0.003457064540833302,-6.655549929170818e-14,0.003411266013820688,-0.0022685072521304362,-0.040007148019828534,0.00643531273389213,-0.005100504923401259,-0.01800215800947427,0.05306453185871607,0.011512724199604415,-0.013515598136491436,-0.05496546687824997,-0.0016702601995195153,0.0005938741052490765,-0.029567083461361336,-0.0520367198635399,0.019868541327902983,-0.040108659019359366,-0.0689428007910431,-0.012250030140433953,-0.0026318543960301213,-0.006380620084819656,-0.010038967255665018,-0.0000014450297998411451,-4.278522615431907e-14,-0.03574619827174513,0.003701281899425752,-0.03422786675088197,-0.004603808732979595,-0.013529165772775286,-0.02271698886047203,0.0018372536435804134,0.033991880597007765,-0.006397011298919408,0.007050990818391564,0.011775832404319406,0.016181108855145263,-8.982270078569838e-39,-0.020838506378969425,-0.029184500832397486,0.007773528185273516,-0.01182918182628523,0.0012438370979313015,0.022699448085957023,-8.388086545417327e-10,0.04796062510214397],[-0.014255021936004097,0.0016711944541259842,1.473455376972826e-18,4.840499692978366e-7,0.019999501938322332,-0.02581799233799424,-3.408171759872551e-7,-0.06337775140408966,0.0030815542942553473,-0.010757306820328747,0.029483997576380566,-0.01559273085890769,-0.019355638937204423,-0.018639844722038848,-0.03621463775134444,-0.005841349199950485,0.0006841567421033745,-0.033270044794046987,0.011101723122602955,-0.04200202690769406,0.04157138797100923,0.023383827270831384,-1.2715020132233869e-23,-0.0011657972894991186,6.433432334993327e-20,-0.033930993936787696,0.01423060060357088,-0.012190881726023919,-0.0067570943483251465,0.043225639883244196,-0.025504329099731306,0.05174756369292458,0.0569640438486276,0.026055940456544507,-0.022847935482419972,0.008941671723881018,-0.02472206037874528,-0.028134716861689727,-0.00024211685278305553,9.161974128879587e-21,-0.0036295162271625697,-0.02963301054374548,3.14389949933266e-14,-0.004438601774977852,-0.00609353114398516,0.004733945820083384,0.00790820422801581,-0.05598677311625158,0.0000647774854644138,-0.011048044546019571,0.0032053820656960477,-0.01608930863262668,0.002418045927561033,-0.03841233237055624,-0.039708677455321174,0.0016336848662289042,-0.027022013983725272,-0.020103708697289006,-0.030192081554079774,-0.03753562999122717,-0.03559417213775311,-3.3023616773251954e-14,0.0268599735983402,-0.007357130684051955,-0.0454800238630117,-0.02325892308957605,-0.05992520947305619,0.040405483232174445,0.032036902343467136,-0.004870665046784444,-0.04131192455701298,-0.013366741118313104,0.021417421529958666,6.606128310708644e-8,0.00001852220375973108,0.031844214519388736,0.009124905747230877,-0.026474548805835975,-0.02095895146952215,0.020821178724345923,0.00043398940682695615,-4.001932359913348e-15,-0.005697260250425767,-0.05341556846172499,-0.052781298839186724,0.020187510765342538,0.0055255677474018725,-0.025215690538260088,-0.0666146333722757,0.04672800632378284,1.2857803908698712e-14,-0.004444394452859035,0.011811808119024011,-0.0018713971089752831,0.013058478720438983,0.008273990722133036,-0.000028209962250179216,0.026048414127978384,0.030500268298790708,-0.0014784347707942117,-0.0007482083199380274,-0.0139974524551249,-0.004601351617003418,0.006225274072892464,-1.685873780095399e-13,-0.02316333981899133,-0.021265581185111643,-1.8196454746801696e-9,1.1193716507291544e-20,0.054715045936215435,-0.000012272242489494098,0.06698589027257908,0.0010264829520601458,-0.046833881948508474,5.9883441110795107e-36,-0.010735150565741211,-0.03894920721387446,0.04489489999207223,-0.009341742952246646,0.00004900607496247127,-0.0038023789649360715,0.008873023914410872,-0.033007925007092626,-0.022495296704491952,-0.010171356529262498,0.03865098742353711,-0.055088870000397666,0.00008463194052303608,0.021001660894841997,4.167464665044258e-16,0.020188382581529732,-3.8125083554297e-27,-0.0577329516757993,0.012869934509741995,-0.017229739837468346,-0.06537141593414329,-0.021589817424816287,-0.0007936061734841657,0.013975189625988142,-0.010295917883031339,0.00021462102122370283,-0.005362175659376227,7.995954675445028e-12,-0.010682672434471394,0.015524100849176123,-0.004882293988728114,-0.042683492602050795,-0.01950439763708492,-0.006366822874607847,5.634220913250407e-13,0.008806612267601743,-0.022030736386987528,0.015123409881556643,0.023702109015192614,-0.012539943281766839,9.737326431401739e-14,0.004626241504483914,-0.0026071994949074923,-0.019396058158973127,0.012091075999886342,-0.00441668201482621,-0.02240409369439513,0.06095425763810948,0.03935716267807357,-0.007605779362142556,-0.060698472284842576,-0.0017338059092233712,0.00028320464048749107,-0.045985009032409686,-0.051850151148933696,0.004630062090639797,-0.03619631920488159,-0.06348557796711916,-0.0048424046657851,-0.0013783564130481543,-0.014532944840803218,-0.01465665171893539,-0.000012552476802064253,-4.049301384064489e-16,-0.017240528180105665,-0.010386976732680738,-0.036676298558696994,-0.00533922703494101,-0.03283045977791724,-0.022873979069683227,0.0004977152054445017,0.04148781605403818,-0.011439057830668209,0.007769961655568418,0.015092066418971432,0.004541812335161548,3.0426427624478745e-38,-0.030025140297383106,-0.027872148675105467,-0.0011526405116877789,-0.017888866735274137,0.0037639243508193003,0.016937570920668287,-1.210620336040803e-10,0.0027073894358635594],[-0.02664915965636991,-0.00019522706515177804,-6.212312338643884e-19,7.62739808090622e-8,0.04264745491706395,-0.022477420465915134,-1.5824112042917253e-8,-0.07293455206184793,0.0031756701819532314,-0.011951953771339464,0.04081011329682676,-0.02835251323457915,0.00033131396209617667,-0.030517375193859563,-0.04552828716532722,-0.0055347944579898995,0.0040906750853678875,-0.030290127213333008,0.011543433933891331,-0.043220517710912634,0.0488514989804763,0.033730650130568904,-3.394058307341216e-24,-0.0005484388444946865,-1.0115023555260097e-19,-0.04246204301977815,0.010724339274098878,0.0006888003273521488,-0.008879186253116369,0.029096744911387317,-0.019393738056880296,0.06087601311781145,0.050104330671757444,0.03378416899960618,-0.0116653860609666,0.019373359569636674,-0.045935368260568946,-0.016581191497772606,0.00007525244559431632,-6.789494285370493e-25,-0.009967704346725639,-0.03734669976186485,2.9702825269874767e-14,-0.008907196184587431,-0.0006015583697093928,0.00800174002656228,0.0049038682252206586,-0.05284994008030424,0.009707236672934709,-0.006581524812081069,0.01625952474328632,-0.012664717959915119,-0.00011839061007531352,-0.0540145148335574,-0.03335122199136048,0.004151742634317973,-0.04096442872835575,-0.02549366758894652,-0.03855955721176455,-0.024550382001134043,-0.03931624389449179,8.768324724999817e-27,0.016640617425254342,-0.02059257449858188,-0.019167743568917813,-0.0355692050093419,-0.06049984060835995,0.062068691500975576,0.026154424519618455,-0.01059042688322746,-0.014881877355264849,-0.013772629303323583,0.023545305919665954,-3.776377079193582e-7,0.000013771697323128284,0.028135222754903426,0.0119158578769276,-0.03813419527221455,-0.031567211162839066,0.023926299303073,0.012910649980096693,5.859150866061292e-16,-0.010100511434950459,-0.050814247604966924,-0.06839972647865036,0.013090043196308125,0.003166421018894728,-0.04180909522399845,-0.07728982201176847,0.03344094747603944,5.213999877478244e-15,-0.005288048636215361,0.02148470122982825,-0.003293851444150186,0.021685506859198636,0.02106825807575181,-0.00003751094071256008,0.020198236514949217,0.004634496353670517,-0.004394345381745018,0.009233283998134155,-0.007584812035419127,-0.015979228252160426,0.023607117739734305,2.667640684097093e-13,-0.015762825042761178,-0.030847999132158466,-1.1573526151636603e-11,-2.4574456275317734e-21,0.05360711321630075,-0.000006937159200663865,0.09133149081327555,-0.005802352916539054,-0.030223050084794506,9.478284497290895e-14,-0.0027775134689030693,-0.030062102162738576,0.04674501798740675,-0.009886594158034896,0.000007122203700845699,-0.02588288869662628,-0.005118921254896977,-0.02484481352327173,-0.01089177301632914,-0.010351139759243252,0.03517625588035092,-0.05671885712414609,-0.012301423452031926,-0.009013741025811768,-1.4656971279357359e-15,-0.0027821982131236147,1.6809884021534558e-27,-0.06938224783016991,0.013134471942201596,-0.016283626321771088,-0.060653011317847595,-0.03234252529594786,-0.00036211093752135136,-0.010587307297886435,-0.012265257916060781,0.000059953849923154933,-0.013381434728941028,-4.135310538155544e-21,-0.02162085229878134,-0.005359738468782164,0.0064237132173255215,-0.051529896221956854,-0.036169389435459276,-0.01179130998533862,1.3624794479051192e-12,0.02020905312517464,-0.019158656094602877,0.00887568318050542,0.02381909359971265,-0.026013569886401303,-8.262948019111708e-14,0.00352108882081516,0.008229631772168657,-0.016192011904086128,0.002568029890990229,-0.0036165073354487752,-0.024366427854606888,0.06657123203599888,0.05168969357501879,-0.004072567807304552,-0.048414278049804006,-0.002060103302111813,-0.002577391053521112,-0.0419967399442453,-0.05012342258975417,0.009261765658808289,-0.0306113631870231,-0.02855968903348343,0.0033156884100658244,-0.006630809424931468,-0.027736642612420148,-0.02572785797481408,-3.664256382021752e-7,-3.863344255194245e-12,-0.0011423264807059685,-0.015251985919555736,-0.03694759646600422,0.0015140539309933118,-0.03658592227236497,-0.021424388074664232,-0.00023050454864815515,0.052968668260890514,-0.017967001331462926,0.004836479883668454,0.013378026375494154,0.0013820665095695553,4.6325271877989063e-38,-0.0466342908044436,-0.02452868095595159,-0.014636206946931178,-0.01423204287942307,-0.0019688640164143845,0.011086655009916251,3.3290009401661384e-10,-0.029101822247154192],[-0.0232272840302653,-0.0028759596059108857,-6.227534549846066e-19,1.4640850464665703e-8,0.021522319976424936,-0.015088108111030092,-5.196820675001375e-9,-0.048088412456158684,0.002678756493181064,-0.008168943518614956,0.04034038632113888,-0.023547044537734287,-0.001286904472034875,-0.02495434868495272,-0.029650035537092053,0.0076859136681287415,0.001653629207051184,-0.002149092873097768,0.0027346634664166918,-0.06273987756508695,0.04060950481391007,0.030690788717611377,6.3037465067931705e-24,-0.0007341196826470718,6.846339920344859e-20,-0.04049947779308027,0.028855708827506064,0.004236958729972424,-0.00723873712194416,0.030031328119593595,-0.016153060746407474,0.07590065689766938,0.04077583894616538,-0.0011301548803348872,-0.012649382738045863,0.024886610708366046,-0.04946078860782353,-0.003392712794459616,-0.0016357644875446057,5.484244023324759e-26,-0.0015983183509829066,-0.038687534517581654,-2.295117354173843e-17,-0.010621618402579646,-0.0006627443525157117,0.004449748960125879,0.008763019059465256,-0.047900818769646025,0.009278261323275899,-0.00011522947246261641,0.029056647646565452,-0.011606782097071267,-0.00042341399364402934,-0.023873518085562092,-0.04411370530305491,0.0034078384954271345,-0.046426387121953155,-0.028048374635636503,-0.034522776327257164,-0.005854206881061236,-0.026304957464345385,9.597998241455651e-26,0.008509670066367131,0.0019266335366080448,-0.012317679579640669,-0.03506327002979729,-0.04945975342206107,0.05253952916791706,0.012335119737888266,-0.015564354713437527,-0.00670480405521254,-0.029361585102630615,0.005615886299166906,-7.237310582641179e-8,-0.0000036014261921809475,0.032250173065754034,0.004594006391390619,-0.03206546694138363,-0.0199887433410911,0.023093788488819034,0.02497419832734077,3.407929840573386e-15,0.015038239251299412,-0.04972673362217695,-0.053001124995703995,0.0216982530735487,0.01389425547976164,-0.040437732264041355,-0.05453160521577759,0.02187648717930666,8.527565694736942e-15,-0.004647888381604597,0.021304387848348687,0.010591266460687518,0.02964064401546987,0.02300637219899191,-0.000030366297620470353,0.023681646194903826,0.002049926258143988,-0.02221722228480633,0.0012890521524655243,0.008257142900591482,-0.010000073653969,0.03854019145615984,6.621636075371944e-13,-0.012052892776505638,-0.03284758099741608,7.505921726175019e-10,-8.702142060079227e-21,0.054754025959736705,-0.000008548594485734501,0.09489081293026837,-0.007393913601860265,-0.00046244268409997613,4.2141006835817126e-36,-0.00578474942109455,-0.0286908474408448,0.023450606786373052,-0.006576441182052497,0.00014862391766565325,-0.031315760901545836,-0.01470560640386711,-0.003976202482055492,-0.010085748411414037,-0.008448775686221379,0.02825746913651761,-0.04626307981137316,-0.0005199336803153461,-0.01806041717420775,-1.9597353723208643e-16,-0.027907165132369384,1.947876390849196e-26,-0.05225292945550104,0.0023191126684870542,0.0009831263676145974,-0.05892452656818886,-0.021660603499361643,-0.0001547455722749396,-0.0044497434708458804,-0.01859981356637164,0.000012019194533803687,-0.030450473023983977,4.254299575182925e-20,-0.014106616976011777,0.01415158465031533,0.027115952548366358,-0.04012362084710988,-0.034330701144355505,-0.001313663966815328,-7.848548530691129e-13,0.00862995854620608,-0.006064078805555027,-0.002699403683819096,0.027167224070675525,-0.022277451724969085,-7.199155937017944e-14,0.011471475412374494,0.014146568021634649,-0.03981181665114333,0.0022597436207369257,-0.001720376314058845,-0.007069309557910212,0.04035357265541924,0.019677570378618354,0.0034650238776806333,-0.06964973151538366,-0.0014768628061371549,-0.0003320370394068979,-0.012786447014873845,-0.03634868286550015,-0.002437564452020589,-0.030083275647383122,-0.01957490379191067,-0.0031915130939513523,-0.006225068349932881,-0.025433026775306847,-0.022484158949591892,-0.000001123053279658982,-6.67523193033356e-12,-0.006700302871939757,-0.01419263494499699,-0.02448071202866082,0.008077219119157087,-0.03611602790833652,0.017027317725687614,-0.0006667658917922915,0.047492008732845786,-0.002370235008814129,0.004909381253230907,0.006611262301874497,-0.016847099255836145,4.2703599676945537e-38,-0.04109953227537945,-0.020407649349217075,-0.02176193900602749,-0.012833053575277217,-0.005913312243492106,0.009249513104371814,8.454611292448145e-12,-0.043987085533471006],[-0.0135020470277509,0.0005699727962179637,-6.526010436232643e-19,1.2988086105864156e-8,0.0048840970630818015,-0.008260948692893786,-1.1362880071501264e-7,-0.011938527644034466,0.005068364686386701,0.0016179019653392221,0.03541892039317396,-0.012709357523465014,-0.006124931603363031,-0.013250062579471098,-0.013812032092539301,0.0036931670431847897,-0.008412863899905896,0.004009329608918501,-0.005583837346240626,-0.052778710278795445,0.03572786636807402,0.02034734383224231,-8.295374710651991e-24,-0.0009147326601362006,-6.608111018818373e-20,-0.026207645291211945,0.03720312794000918,-0.0005411874905925072,-0.016155388088147746,0.015380533138182639,-0.021748623000517588,0.07979185600861033,0.011741351502498614,0.011060287256250308,-0.012742659456041474,0.02573218518978798,-0.032695766797331535,0.015815738047867487,-0.00020378623173796464,-2.4646414765888996e-25,0.013840750342698327,-0.03858924656000452,3.306579793954516e-19,-0.011138031156091658,-0.000002530145198334548,-0.0002727692187378859,0.010765456997072877,-0.044219684169298855,0.012735822947482756,0.0029223265187983296,0.025950148074963944,-0.01385982347843556,0.000498251500148988,0.020466470000376703,-0.06460194208685209,-0.000361954310051942,-0.04141430232331576,-0.019042249761653803,-0.017932489175230056,0.0013547300945004417,-0.010491494648371073,-4.4406545434153825e-26,-0.00518808498438124,0.00030873989001324045,-0.021662396205744713,-0.03688716709280959,-0.045160480088881585,0.0332705326386685,-0.006707905878628642,-0.011825964710829355,0.007079719022118269,-0.02485543322136259,-0.017260129177233317,-1.4114338449791808e-8,-0.0000037468563383199805,0.02864320403140945,0.0021655233727466573,-0.004682561159698528,-0.007225757861253874,0.034513413560980866,0.033878330889148406,-1.3022008051620344e-15,0.033185877201384,-0.044717531935796015,-0.04812320466245378,0.015523899898951365,0.013141465502271339,-0.04284422926688403,-0.025898819722285495,0.01790746961621035,2.647938773759314e-15,-0.0005270771206948879,0.025403718013026187,0.006837389825153575,0.039340117794664085,0.0068956524543356094,-0.000004851955943973768,0.016096770343612486,0.015259241617302856,-0.03413449268652939,-0.017705815859030378,0.01752926313919356,-0.006147272369759598,0.038336134992893595,5.3426090648242166e-14,-0.0003543460405638723,-0.020114108418257424,-9.669167420371426e-11,-2.931008470197778e-20,0.039818159930625534,0.000002012898908563083,0.05901250342246329,-0.002892732063478753,0.017623957581495164,2.786497089740971e-12,-0.016409039838312784,-0.027383576277322092,0.018693408705844836,-0.004675704340840526,-0.000040071635082216155,-0.02612714436599828,-0.024006610837266663,0.015777646595508843,-0.010802493972242217,-0.010384007113866335,0.03499690352014227,-0.05288115455565295,-0.00844981774434928,-0.035282997828616505,4.907855767911861e-16,-0.021983463079409613,1.8924772294033657e-26,-0.04351002283036835,-0.022222808688126334,-0.004196838951632661,-0.05478721824935987,-0.009121190411611397,-0.00016567636069361312,0.004319758082518094,-0.014383508229789411,-0.00001712368605345388,-0.042622696680583425,2.6307287970685903e-21,-0.00828550144614758,0.011412046924635483,0.02011532413141847,-0.03640966619233921,-0.022583893975461938,0.0016857507778242783,2.001113520694269e-11,0.005222892545816901,0.001741902671284297,0.0060172290095135755,0.027825036412742123,-0.024603020558564538,7.753876220024766e-14,0.006349678949109813,0.0031813641734841085,-0.044193068056775316,0.00458510452354639,-0.0014599575374012726,0.00762583053793459,0.009831045426401234,0.029330424973278413,0.027574150571207975,-0.1008211842803697,-0.0011084105836791183,0.006708601958537084,-0.0037519084816590303,-0.040788804239892625,-0.019273985194139816,-0.02756478117341338,-0.021548381897336297,0.01774168964169623,0.0013926335754094702,-0.02445062588224919,-0.012638558649458924,-5.965960108773276e-8,-6.417641394903275e-12,0.010659065946417249,-0.0029066530871188724,-0.007390445650188609,0.0025228681747929173,-0.04391217454122174,0.010697469847760599,-0.001574357968638385,0.027272808771693597,0.010862183782328805,0.0031272867036366324,0.00042081733077536563,-0.03320878977875106,2.856313489692684e-39,-0.03187129293517714,-0.014541536195868126,0.001965652689880342,-0.02200583541929769,-0.0037689374789263864,-0.004377527342812974,-2.847012246564879e-13,-0.03024130131868075],[-0.007336745256995177,0.009125316951875276,2.5635645578752317e-19,4.126537799018996e-8,0.002903304462258639,-0.003205867083169798,-1.6689679026912343e-7,0.010573592473691037,0.009113132792163381,-0.0049356138060341545,0.023236662069160672,-0.004421907669787303,-0.0023310848363581145,-0.004523181536949311,-0.013415450303813123,-0.0038976565331670624,-0.01318434591000218,0.0069889345534790955,-0.014847819150437256,-0.04407237492486066,0.03153663867388375,0.011054422440190524,-7.166146778323169e-24,0.00019673494459353745,6.093849180034263e-20,0.000007761775469885201,0.05119967175555513,-0.003850361860445091,-0.016532214288350236,-0.010996192811580086,-0.019390802879571113,0.06913786378249892,-0.013386349645029036,0.017362396696575647,-0.012029881265257366,0.011338165616807186,-0.013762108373477551,0.009659599093319211,-0.00009001564911454202,2.9621106082749852e-24,0.01609036977760873,-0.03006777360041733,6.121894672244605e-22,-0.014154324128882897,0.002842474465857551,0.0049672633216852865,0.010636594368201715,-0.04044724395875006,0.008906794642273072,0.0007280188428270059,0.025312263963656517,-0.012958516189972995,-0.001239197800819252,0.04644879260491741,-0.06076178061835729,-0.0015343877564276424,-0.023131092090026995,-0.01677616361067444,-0.0014813879476611362,0.0014331505553957908,-0.005983078244791678,5.105395613577871e-27,-0.01646305331716933,-0.004513099720998227,-0.028266406270315698,-0.028801511301271024,-0.03042721800348836,0.017623340725311167,-0.0054452023061003834,-0.017079341832102347,-0.003967969295257239,-0.02589461726295769,-0.02022804704569511,6.998427090229475e-10,0.000023425254482798902,0.012036190153574704,-0.0012520800671090922,0.007381887032970943,-0.0000615891663092857,0.04148134114877396,0.038089032168373886,-2.747822278990839e-15,0.03937679570524251,-0.038910144337881494,-0.05531297023338069,0.015352535743876015,0.012276092704425303,-0.03678056935241527,0.009399810228618266,0.0002521019855210193,-3.7180181217169593e-14,0.0007645320585000901,0.0066345604201052955,0.0129663900333497,0.03509520928419799,-0.0056989060003840445,0.000015601733022769903,0.001019572814351064,0.01378910354146498,-0.03757899681320522,-0.0012071118442308249,0.0129844080369185,-0.002531577825633939,0.030708531567007376,5.052422799940028e-14,0.008911075205662297,-0.015292336223510075,7.014737295304384e-10,5.781820397760051e-20,0.022040619622750685,0.000015802423992058953,0.03174223375300838,-0.0023733907552839226,0.040839731776797145,9.88489377764439e-12,-0.025735209311639518,-0.00855941540262687,0.018122558745321475,-0.008878398887512842,0.000014644659943265912,-0.025665191853195254,-0.024864531381702602,0.022311255621446875,-0.007046303875131314,-0.017627082758465785,0.035003682342906454,-0.03725267018514673,-0.006231415358336751,-0.02106576396598335,-1.6601793094560157e-15,-0.019795034923579546,2.69080817351546e-27,-0.02428065726466295,-0.016785713646038453,-0.02670464566710183,-0.05623338902384637,-0.0014877033070043726,-0.00020192051849898693,0.014478284321385981,-0.020941885659704895,-0.000018463484235752864,-0.037075958087719935,1.3391193350973406e-23,-0.003201145892998145,0.007269372030075112,0.01737800611183917,-0.01955432052379359,-0.015240892777958807,-0.0015935189255616368,3.895561822231601e-11,0.028034378147631978,0.014399034222126192,0.010263943291063352,0.02265076850839099,-0.023536700324235896,-4.894862458155245e-14,0.003569119294743566,0.0002750603274590594,-0.05830572839954591,0.006467158042147055,-0.0012065637431390246,0.003234109845237522,-0.00674813801497426,0.045372669958292346,0.03532132511537397,-0.10457206982001334,-0.00016895078669551167,0.015701847629013874,0.01855004259694481,-0.03840222132328298,-0.020246691885580752,-0.031477926856731675,-0.01688837441627408,0.024847691138087102,0.0009366341634607868,-0.019191329258554025,-0.004925551862112829,-2.253069303689338e-9,-1.9940659301394007e-12,0.015644531678369735,-0.00036849190934989284,0.00043445024867415295,0.008925293110021583,-0.047858177662200165,0.001840726146208216,-0.0026273941036636297,0.016931460054585547,0.014023847012723302,0.0007095186430173304,-0.010294484017174258,-0.046261527732973394,3.0579584674848893e-38,-0.021324288502449034,-0.013330749727911465,0.016284507179380587,-0.020999038023619868,-0.0017398977844132353,-0.008287835337545547,-4.35851412541239e-12,-0.016034355944350945],[0.0007225848297618203,0.018214530969312824,6.368535849403394e-19,-3.140594481371231e-8,-0.00597324263657659,-0.0011255435674573902,-3.24150251523966e-8,0.00981676584876085,0.00796466428262304,-0.015912525287435135,0.004271856672710959,0.0016804797146037671,0.009816624467253775,0.0013547529939059468,-0.016207746020738375,-0.0033100595048461503,-0.0005748616230121632,0.01543999953069328,-0.02826074859966422,-0.05163552258548979,0.017847103709541904,0.011388272859443386,4.101726660768276e-25,-0.001012235698926662,5.907579829819017e-20,0.007014185418420672,0.05206081085950342,-0.0030442755584623336,-0.016497078944018383,-0.008676826053244786,-0.014287936810799873,0.0599254165854645,-0.03402532984007611,0.01498075852439353,-0.017261417528916533,-0.0008689816345059527,-0.007667424731719455,0.0056688686370985845,-0.00014281286313958989,5.837939006815564e-23,0.012188967940694644,-0.02502763088374684,1.368903274646815e-22,-0.01156949074867905,0.006472411290095018,-0.009328603087998153,0.01462385748538679,-0.034817196222068574,0.0031379724657780526,0.0008397190390970429,0.04230899682598598,-0.012387586347272701,-0.0014638438653897868,0.06123571587239881,-0.0606224483987239,-0.00016531868339440337,-0.02168411180380654,-0.012398079015059838,-0.00438837491320207,0.00021389839812081528,-0.009592355361037192,-3.3997493131631094e-16,-0.010236984282811721,-0.008966336810240248,-0.02824006920896242,-0.034304336192235906,-0.017689624857345248,0.0005257768107319418,-0.006587322671723065,-0.028803575712729627,-0.0005404622399583473,-0.01706599184607893,-0.033392594435034534,7.618397624047545e-12,0.000023794626278115342,0.0028943718537648463,-0.0021463387993440096,0.010615188965178117,0.0038201493981123913,0.04338666105744467,0.0321673035872227,1.550634162906384e-15,0.04220402024988317,-0.0406946477839779,-0.05193532403114809,0.013263289218317027,0.015561969838999015,-0.03641867640105888,0.002483826600620381,-0.021865153117361404,-2.831007019771137e-14,0.0008374051372755457,0.006599610075376105,-0.0036243629075237024,0.03566784459580561,-0.013395975308982663,-0.000018547128861430966,-0.012726468088271539,0.016267711909561125,-0.038263271026475455,-0.004355618754802727,0.005999979359351647,0.0026542134384182096,0.02114648767680903,5.697681619142963e-15,0.01990862839722132,-0.007168631935606232,3.9058655038861227e-10,-2.1062424187689605e-20,0.00883926403991108,2.398967901900476e-7,0.016277634319327692,0.002193498361380372,0.05186566801394318,-2.6917066154525813e-12,-0.03307660898787755,0.04279175076268452,-0.007401727324785323,-0.0020859739516006556,0.0000010517738536541296,-0.014935750629471615,-0.030763707718339833,0.03414045895699321,-0.0009814824995733572,-0.013175439312734478,0.02844320443650122,-0.0238493618159924,-0.0011922454247845402,-0.03045347412015829,7.917051035219617e-17,-0.01264702750438857,-2.121176145968306e-26,-0.014321422236978265,-0.016787536381469556,-0.016543854703556453,-0.05846689624778411,0.0031555544474062024,-0.00019101285085391289,0.0012875279401898922,-0.023095841276227953,-0.000012183138777292875,-0.02081347926179093,-7.963251248618151e-25,0.00026657845465411,0.028389368745254523,0.008429512376147842,-0.016955566824695,-0.002778848155919394,-0.00590741642313381,-2.7254949389196957e-11,0.0380687465628141,0.020726352457003713,0.0021778778401245003,0.02300265353485049,-0.023097724820797465,4.436516639976638e-14,0.007323364535089886,-0.0026974439689396576,-0.06082758713941399,0.014787009575003625,-0.00040057118055821645,0.014091983753968683,-0.027946285135127893,0.05496729556534358,0.025413422643555762,-0.09626269724611732,-0.000009326582016795109,0.013676295059196819,0.029695605751012384,-0.025393836186627744,-0.015251147076545887,-0.020599826595092886,-0.025666657104808872,0.0218111519874691,0.001308108397003809,-0.021001214709675198,0.0012925248898858943,-2.2238352815043434e-9,2.503572656201317e-13,0.022935990958467455,0.0020060362335621276,0.0028771336463513097,0.011120919524038372,-0.04079528467754419,-0.008071780358722818,-0.003379707338057387,0.0008263155680195676,-0.0043782839731397105,-0.0013049295755846715,-0.007258019885713097,-0.04864146639693439,-2.757379370640691e-38,-0.0015527963988597384,-0.012737888018197299,0.0026496314990001987,-0.01712290601538321,-0.0024832043241325937,-0.0012729973359570136,3.848022218822488e-13,-0.00312491844144529],[-0.016931469820530617,0.013551930845320904,1.2345188947441214e-18,-2.696316429258013e-8,0.047747794584268345,0.0009580906410746525,-1.289114558164918e-9,0.00934986074940868,0.003691857652321532,0.0007319986857169337,0.027300156709035826,-0.009402683026855436,0.0028650736167810747,-0.008429296619374563,-0.008447309027441128,-0.006511238783466729,0.0022700260425397604,0.027584922215204952,-0.03237174843727762,-0.04761734374860376,0.01107896347808695,0.017892835313808232,-4.49975141292631e-25,-0.0002385556530935444,-5.840287080378192e-20,0.004619132179968395,0.03455142104975851,0.0031174819427081456,-0.012279753756517383,0.0027263007162633647,-0.011231897997625619,0.056281851929820464,-0.02363763262918188,0.02229035453414135,-0.02141584539504403,0.019933723394771227,-0.008448479924388493,-0.005126684860005063,-0.00024280242280140562,8.70762818065878e-25,-0.003597871914864488,-0.011793573709881464,7.132029175554363e-22,-0.0097105977248489,0.0029517424956938525,-0.0029902698483852998,0.01064573277199252,-0.023795359532274303,0.006109691451381146,-0.0021835998660849907,0.02936401935446376,-0.000827377931931927,-0.0003097844961453502,0.08985989189134676,-0.04763485097998068,-0.0004867910578817108,-0.010458137095174293,-0.007871013844323422,-0.002323170643779029,-0.001005104737441879,-0.017058521458356884,-3.9289370816933946e-29,0.00282541798942054,-0.024087635269425454,-0.005347099636002746,-0.02532190873970563,-0.014002400001877345,-0.008272644034462796,0.022992637753784184,-0.030797868472113202,-0.007492329099970911,-0.01263874882302026,-0.02733096391704304,1.5920941533333975e-11,0.000023059430577469113,0.01053408045220681,0.0011758049211039617,0.005378400905775255,-0.01314269252724422,0.05196021690718622,0.011016702494420607,-6.616392357792956e-16,0.04441744905274916,-0.04033117471504538,-0.04714738850076969,0.0012048676404730154,0.0026416425788981426,-0.03803945914036242,-0.008751224696559467,-0.021277086504531643,-1.0871372408378718e-14,0.0014371058204696821,0.008058162772258683,0.007347104020654452,0.00775408558287595,-0.03609451394175527,-7.16142882857916e-7,0.0032124503537958923,0.0027136461639034742,-0.030231678639126253,-0.007277855469402827,-0.019720535647076497,-0.017236798533529385,0.019890462308058625,-3.3265301817541566e-14,0.015589545418625702,0.008600260560800557,-5.97300052180313e-10,2.2657149555930106e-20,-0.00041711042850669415,-2.5617389507552193e-8,-0.009919121012493787,-0.007024901508538625,0.032932737825454805,-1.2587816265278124e-13,-0.01859458136624137,0.04648721133862144,0.020847669151164136,0.001804547101614564,0.000001088537992612278,-0.02919628079571624,-0.02752391105188092,0.021459851742794987,0.009079725011404976,-0.0007816019167316215,0.029503395804626433,-0.01607399516012873,-0.001103407473185675,-0.03251444885940134,-2.434591989636558e-16,-0.010440917422468188,-5.925665716154959e-27,0.0020369584183051012,-0.01283453313697994,-0.01544082525694824,-0.04314399822037084,-0.014226366738505268,0.000013249452187797028,-0.00013002154118393135,-0.021183315486329422,-0.000004172880216935234,-0.010328653850270259,6.740235783562436e-21,-0.017705439327462852,0.02572256894810092,-0.0016892334538593208,0.007777287979165343,-0.0067589975566706186,-0.004418698562250272,5.892337745277326e-12,0.046145703431158556,0.015604684145581287,0.010240918326190455,0.02249238343104261,-0.019481209439045112,2.802483735156681e-14,0.0010496511424919561,-0.0006423038585629915,-0.039537077891910154,0.000690678582634357,0.0010046722460944045,-0.010424510495667233,-0.019212600952756773,0.048221300307941355,0.017702938202437943,-0.07306781909200703,0.0000032570952423948703,-0.002825813880051774,0.01859335744202703,-0.013413457665806792,-0.0013309114011068443,-0.005890456664571886,0.0013725756725811076,0.012961372581109574,-0.0021602504944056716,-0.017081672488494997,-0.007412107485283328,1.0212154637836325e-11,2.5038346382017417e-13,0.020243800000415407,-0.0027154074756310514,0.005848678318153973,0.0006535434859638624,-0.022970149072340195,0.003995243877864088,-0.0002767205810140341,-0.009195685300244226,-0.015498421482887638,0.003988762238026617,-0.005427081841219319,-0.02642007985684043,-7.730535930373218e-39,0.007316640670578998,-0.012810341335920078,-0.02205966373137691,-0.013050875765285807,0.00017373941510270168,-0.002681969000361624,3.7700838531878273e-11,-0.0010970994564245822],[-0.02586115622718092,0.010140444538736006,2.106885149671212e-18,2.0767400177526017e-9,0.06597909600882604,0.0004377737278151233,5.340340397797886e-12,-0.0013467583478620714,0.0018445664648566828,0.016302606837273543,0.03927509200120165,-0.01596248235978055,0.0007160687900966024,-0.015596437917567905,-0.008825593403163821,0.0017054496034653265,0.010243081670709642,0.024304117947779175,-0.03414293550925978,-0.05045881971742357,-0.00401554278509571,0.019927961168941133,2.6899164365408126e-25,-0.0007108919284743776,7.038246673907182e-20,-0.0016468982282305958,0.008258943885570118,0.0029244058982674692,-0.007619365895804983,0.017125233445853788,-0.005992184951519106,0.052078619556969914,-0.008688000891801084,0.024124351848633575,-0.011007193735266598,0.031030018719459273,-0.005776271368393129,-0.010964847897664318,0.00001527374005000802,1.1270521550291425e-25,-0.00962386847740565,0.000502143165198072,-1.8373226656784483e-22,-0.008006583986167385,0.002617896183730606,-0.010666655699136765,0.0051127972304809925,-0.018389082461861557,0.003956777232477424,0.002512668249236208,0.029839650061514147,0.0020708324773146248,-0.0007599719555184926,0.08148184659476987,-0.03875733134540135,-0.000772086811277855,-0.0021136037950072223,-0.007701042308207721,-0.00008235498384560398,0.0007955714404332118,-0.019678654574890743,-3.9413161380382964e-30,0.001553650549952566,-0.008275946974339244,-0.0009690221353204179,-0.01805089003222538,-0.007434781922368158,-0.010001365232395887,0.04675302449839035,-0.033398903330666974,-0.007690029769915301,-0.013757250234449165,-0.019467689731597456,0.0000030040764450557074,0.00002630037748274923,0.014107015997315725,0.0017705164314234553,0.003985006478591163,-0.02435801264064838,0.035702911507945224,-0.0005152636512302371,-5.78423559780377e-17,0.028473762580203912,-0.03620087444896955,-0.025798061139822533,-0.009958655058239627,-0.006891838275518064,-0.04257480765577749,-0.01953393333322531,-0.022778722736186828,8.856887526105893e-14,0.000509481451672756,-0.0023292335964010106,0.016034637072271464,0.0058345840997923665,-0.02631074068477231,1.1812727546905683e-7,0.014083646571470236,-0.008331874850114692,-0.032268160787941716,0.0004913267720662639,-0.03460412380806448,-0.02511047251036773,0.018424456430487395,3.275932214631795e-14,0.023206570606969214,0.0017377159156247793,2.9394665727346243e-10,6.918662279084871e-20,-0.004244238195614269,-1.070667383658036e-8,-0.00777780335310865,-0.014090077798131019,0.03522531813230631,-5.195456846246746e-36,-0.009739563528238859,0.03296394423348283,0.03437016486047481,0.000006482693732061182,0.00000514108615673103,-0.02327872101425863,-0.02491446103264492,0.006052054376316863,0.010625067044630608,0.0012652844273614,0.020818192858190733,-0.0014071292838450753,-0.0004379255280614229,-0.031461585101301925,3.709421511036359e-17,-0.014721537137565832,1.3858562642039748e-26,0.0021723321079639086,-0.008945705882275484,-0.0011470828630904292,-0.03352460737460573,-0.025927878104041287,-7.47086497378783e-7,-0.003257324320317407,-0.026148938470208518,1.2353551071612482e-9,-0.004274679681405455,-2.420575874500252e-26,-0.025603365182997502,0.02453687312010654,0.0021831156786832756,-0.0018171049094177936,-0.007521481139012399,-0.0053007127954971395,-5.824080791041033e-12,0.04454503363818308,0.004279181934661246,0.01963588538262226,0.028269551581947883,-0.01602973388398612,1.0060084851779402e-11,0.00043869995923232565,0.002380331416847666,-0.024816127497930225,-0.004654193530893515,0.0014266535896203132,-0.015267606360601484,-0.011119570122187613,0.05616329679102962,0.00432177624630548,-0.049662996396880425,0.0000021632874699450654,-0.003997154591392274,-0.0056816218677933124,-0.009576646944713985,-0.0009487425221561051,0.001786291580548024,0.010593721774226326,0.011165126646004175,-0.000873185768948719,-0.011890160332858977,-0.01250099643750332,-9.021139941588304e-10,-5.284670605681735e-14,