{"layers":[{"weights":[[1.7534732251917652e-65,-0.0011797935404663671,-0.014037234731454875,-0.011585383260146945,-0.008830922682176359,0.04149837890871413,0.021709301454468585,0.012390431375352657,-0.0008775859979273718,-1.9248146598799834e-64,0.01353367807419462,-0.011852913436680377,-0.0023943344944204253,0.008183766639381373,-0.031237427790791333,0.01463342975920688,-0.022770758003543733,0.010153110690244082,0.007445328779854974,0.03555174040735362,0.0006262398012891885,0.009577113081715048,-0.028529455697495692,-1.5293456526881508e-63,2.9256881620990345e-64,-0.0009212616056953122,-0.0029108199246300316,0.010366760163868104,0.005369551327914669,-0.016070431232860102,0.039928013347481466,-0.008450950806569145,-0.007535471930547159,-8.153500373776113e-35,-0.038861208075502904,0.0007339306846752859,0.025899541104219874,-0.004591237239876889,0.012941710440323353,-0.03849274323234783,0.01669047674927273,0.004474730230109893,-0.03869390215972235,-0.03101279282626145,0.010355980679885376,-8.848342524610979e-19,0.013101825064116017,-0.019285165429978338,-2.0860265793251044e-35,-0.012458973807189258,-0.019838202875073867,-0.032473159317253454,0.01246076693719727,-2.366571218042328e-68,2.6737796907187664e-68,-0.006818394056020702,0.012591414657889027,-0.001359570254451388,0.000018501042636690383,-0.015391678471635821,0.010291579564937517,-0.01065047291449869,-2.384195307436338e-34,-0.004685613640293124,-0.00010923091042439113,8.538307089154267e-65,0.013628309147638023,-0.006336044753101177,1.6888513264688357e-66,-0.008386551127475265,-1.0449753928393009e-67,0.022845517362220548,-0.010304540724636357,-0.01790489529232918,-0.0206350132722137,-0.025970502054710964,-0.00948180692434717,-3.881932690926231e-34,-2.4860044078917248e-24,-0.011638609564625178,0.028408567759264543,-0.018728143457152374,0.022297234299120616,-0.0015266342825360844,-0.009155443325657465,-3.8547907279166666e-23,-0.011903249456793285,-8.86333813447734e-19,-0.00417031875093523,-0.01584803963405414,-0.015515774311957506,-0.017571170714793666,-0.016316916446978497,0.0030120390822928732,0.0009421822280978206,-0.003117945208890115,3.0035535497129207e-20,-0.00005627928236522588,-0.005244422103730466,-0.002414968342659731,-0.0163119842932463,-0.007574359821063224,-0.027876422797234922,-0.01738550666626094,-0.00019782325725415832,-0.006876111751958642,0.030206500206473662,0.01288154367375803,0.014067877255995656,0.004302480987618798,-6.425476828920184e-68,-0.03409591890387381,0.004359372459061937,-1.4959801491162603e-67,-0.007174812867712525,-0.009187000044273697,0.0004937439445281292,0.025157333220042606,-0.011317950656616328,0.008261413937175477,-2.6836513472373034e-68,-0.01415585262105107,0.0040456919701782855,7.30077549967682e-32,-0.0205257839870007,0.0022990795736126998,-0.01558801190673406,-0.025638549412121476,0.005798436112445682,0.02234022735980968,0.01835618081032824,-7.23374020886511e-29,0.007441080874594336,-0.01814989523690631,-0.02165927384055839,0.0024413455339314123,0.022274116751816904,-0.024394778284857914,-0.035355638949863974,2.551529890843841e-49,5.593766361505765e-68,-0.020372170872183674,0.021478460984712976,0.0010432826017164041,1.8870337560857514e-67,0.023143855391390074,0.000048278132565952425,0.02522623845494512,-0.020014112663995436,0.02560911783284852,0.02984856997865773,0.026462953959488337,-0.0006981631613972147,0.011589976957074907,-0.0005928770046949596,-0.01714454783190545,0.040716590303474395,0.01166123655033222,0.0037450137742140372,-0.003922275407936753,-1.726399548806823e-67,-0.005045355327960281,1.563739144053149e-67,-0.01073947366342565,-0.007983993329007896,0.018501309579251703,-0.006421946264658187,0.008240769996599315,-0.003153935175888737,0.0003960941649422812,0.018572290781357168,4.238202214978831e-68,0.021716781513375943,-0.0016628462675439262,0.006819171557518151,0.0016996487644692971,-2.3851726006393927e-67,-0.0144756408279901,1.0685137718001429e-67,0.0025578655764990207,-0.01623748506272815,-0.001348242404974007,0.0054006138992406865,0.0022385932276444216,-9.841257428790697e-68,-0.006258695367518775,2.400049055075802e-67,-0.01208276092604868,-0.003783398623054917,3.4577688790233684e-68,-0.005387658632750497,0.00246325597123765,6.494714013019587e-68,0.0017864158476008055,4.394734684083048e-30,0.014969413272175349,0.0006734711607490218,-0.010589709026520778,0.026925808150167457,-0.0029781416974337532],[4.6065498231707655e-67,-0.004875505813928217,-0.008508948625901215,0.0064918888430931685,0.004982033615189766,-0.003198909955769172,-0.006983877203791455,-0.005869735836384343,0.007559443644137012,0.0007841315607800415,0.00689026398085054,-0.022963801916738597,0.0074423587342439335,-0.0028829847869833065,0.003151071742506686,0.027720524809261012,0.01631599283582855,0.004820723465755352,-0.008354088471460602,0.009771061491943357,0.0071963128165098466,-0.02253030326761655,0.00035746628540862184,-5.3190404102909905e-49,-2.8723656845953717e-64,-0.007674641344011674,0.0025653834816619157,0.0020571233191081966,-0.0357403524605339,-0.006241794955775529,0.001659324258089315,-0.002853311958244724,-0.0242013898207587,1.4621754774039584e-31,0.020619986070321884,-0.008334966456647457,0.009312484033877291,-0.0056251791517239556,0.01839608605935116,0.0018141535147008824,-0.01673018039192436,0.015809691356535618,0.0008618918092715214,-0.006889149758036865,0.022136388723451625,-2.382245732724962e-7,-0.023036127678286455,0.0016796622297062674,4.2538525431697274e-35,0.007870499751054234,-0.011902350340435379,0.03519802684884548,0.01001517737916931,1.0973157639208689e-68,1.700785780611249e-67,0.010757650681814331,0.0018818488414652525,0.01233495640983304,0.002969166139244213,0.019335366693481126,-0.009197193392781857,-0.0005345223007042427,2.887417342102647e-26,0.0053049289226868145,-0.00010022425218366687,6.008395254383839e-65,-0.000033625607032891636,0.000967795971986017,7.869121472275613e-48,0.022386766049382202,1.8703766033828203e-67,-0.012841210399097351,-0.0003709980680943244,-0.01369307608538969,0.014465084715673832,-0.011304121357309975,-0.001978951974270186,-4.0939298831862105e-34,-2.2227172264255416e-23,0.0010206010207679142,0.002908811110786924,0.010573568657366198,-0.014602920027297562,-0.0013550970535049552,0.0011473856640243393,4.1460910982232005e-22,0.027315506652606417,5.687220834901387e-14,0.006906136503387503,0.007726355300927081,0.016453993593724625,0.004497677575720294,0.0037491752172203966,0.014150914041783777,0.004459831920515789,0.0007448887433517005,-4.279417905555207e-8,0.00012169424563551577,-0.0018755733881591313,-0.0028454964556494126,0.002149010735135653,-0.019843213481296293,-0.006268737361273822,0.0279197990562962,-0.005597731354559953,0.009628905930753825,-0.0005360976542810833,-0.009087148107893534,-0.010391893353670327,-0.006960642460401465,2.134669708404689e-67,0.0003536870125466318,-0.004439977741982469,1.7403779337486288e-68,0.025804862745244784,-0.02297986041399749,0.0011207361301727686,0.007783037788704639,0.01406277256578519,-0.008718786801388316,-1.2772659512699899e-67,-0.03316718619266456,0.001775456904360635,2.2999267147426695e-32,-0.022915339654811552,-0.0003439672223217021,0.014875436400294276,0.007208054563574054,-0.0010525508694629654,0.01133006084970454,0.009025541428048324,0.005477282143056452,-0.025072451309922222,0.006542214262978668,-0.01399487493032816,0.0035362393875422427,0.006284496917564298,0.00807209908844467,0.028782760702315283,7.316943787922833e-48,1.8103842942784613e-67,-0.009482008607647969,0.004858780597849248,-0.004496470144104429,-6.7804150563740164e-68,0.014396700778191046,0.0111888395057697,-0.025607916581629725,-0.005886898942966685,0.011528146190734024,0.00813801921838,-0.0031130114715593542,0.002037550590270856,0.002443620989511347,-0.021342208088806176,-0.018578663581944748,0.0016556282845637841,0.008140904285324843,0.0035529443263153902,-0.005426720339032972,3.1961101045555703e-68,0.0020440111728903024,7.186059075381279e-68,0.0005685435448243485,0.008834858127367274,-0.003908856355438745,0.005700719110529115,0.0014261264257114585,-0.012537163595370281,-0.001215948988492096,-0.011512288335031647,-5.768983612338234e-68,0.01651186910665444,-0.0013368129366417595,-0.03143707161165205,-0.0006104218752139238,-1.638410771776241e-67,-0.0037631157569702257,7.811164187448841e-68,-0.011221646008926115,-0.03674124312894858,-0.006168038569431487,0.0020369686425533847,-0.008869417523358365,-1.5067546198189146e-17,0.023296925149022697,-2.686944580665386e-66,-0.008756868597147882,-0.008960529826670704,-1.5271179872819713e-67,0.0008749433463520926,-0.0006452267524164556,-1.8062700951441368e-47,-0.0012215128684250353,-7.194496423388384e-30,0.0019214766615083302,-0.003856398911876195,-0.0017384863262042468,-0.01270044023721875,-0.0004725568677998364],[1.6187604813474794e-63,-0.007006362244169213,-0.011049636297000669,0.0034831026237734947,-0.012219962016615425,-0.004667174393583055,0.009241054628161119,-0.002002988301738451,-0.0002437918730933109,-2.9202734751532157e-14,0.003136134093918709,-0.0026249671162568156,0.002293943736711822,-0.004678035845834133,0.0033134588025639715,0.0004984295220413198,0.006193252238408794,-0.0008941629612221355,0.02055130235891063,0.010609481367008832,0.0010604089314438813,0.014455442729660603,-0.0006324022638910413,5.907899090280725e-45,3.6211933567986776e-64,-7.451902780720635e-7,-0.00961702808872134,0.011353658519044815,0.0006076777370908094,-0.002015406543481792,0.022616981648483858,0.0026316566093074934,0.0016899584717735526,-9.774749815369794e-29,-0.0012813044757679134,-0.005951169458914399,0.003513127090940188,0.000821649948567219,-0.001042532951725523,0.012203178703717024,0.010909934270376061,-0.0006813307392100323,0.006511722090740251,-0.005450053113513985,-0.0008543408553186462,3.433613573602566e-7,-0.002642058606007402,-0.002220127164690212,8.657417229806256e-35,0.00655954776940982,0.012153606507387131,0.008376205033141158,-0.004507550719084039,-7.408971312913733e-68,-3.4904946947523043e-7,-0.000883126083403599,-0.004833876169113365,-0.001373347379436009,-0.00029203853442514145,0.015707515585078324,0.013266085294187395,-0.01868836601539714,-0.000033357438692907155,-0.007684897814672808,-0.003566942285580169,-2.5093042504455957e-64,0.0037581091376521778,0.007724355941207723,-9.678902294005324e-45,0.0032684647043155204,-6.59574671874176e-66,0.010778063710559617,-0.008971397573409092,-0.0029850309959789474,0.003864028596954399,-0.016774280963756157,0.007762109009860206,-6.0905340771402815e-34,2.174344148762883e-15,-0.012604328400706539,0.019817423163521326,0.024473688704873812,0.0019503532972507845,-0.0016816137980592712,-0.004951706838073436,5.7408378618030265e-22,-0.004163847665052744,8.24386357826355e-11,0.0033841818937295222,0.0003292478229357256,0.0057070085630932426,-0.015267207262270998,-0.01220246712731623,0.007497194224716569,0.0051795269799094655,-0.0061560689323983024,-1.533887778285406e-7,0.0035927151996365,-0.0077009036539552045,-0.00776080999151057,-0.011224735404112816,-0.0015242373199678867,-0.005000201772943726,-0.029845575278910106,-0.009613292999265556,-0.002146062625626898,-0.0010887475760794944,0.009793640015985733,0.020916079573547505,0.008696655816954509,-1.2148725893333266e-67,0.00029869094252100265,0.0016629251807071745,-2.7050712235973073e-22,0.016285244987490975,0.0037406180684142034,0.0007909421477069922,-0.0034696440762563637,0.005930576919807965,0.000767247408347218,-3.766100387863186e-66,-0.018655937539641565,0.011909923750329322,-5.25817266081979e-32,-0.014682243336089357,-0.0025265477898074413,0.005674456581874908,-0.01040818087493148,0.0021970655767325226,0.005177644520268351,0.01063313367108831,0.0015801253200501187,-0.006334601984575472,0.008257308689586918,0.0022582816046365956,0.0018171172751512876,0.0009188653506478101,-0.0023568976640795172,-0.0014460054223031742,3.410221413338914e-40,-2.330367369662066e-65,-0.02321217085679916,-0.0018403593724260377,-0.005762382980643183,-8.141011721479921e-68,0.005417761059834836,0.0008255996681772119,0.012051750540765394,-0.003225423566876717,0.02215428728739743,-0.004233935465813554,-0.0035475127004735967,0.005666446399714623,-0.0048533335205309235,0.0018106637787278228,0.008226534614156867,-0.006485322319226258,-0.006008531837689718,0.00435397970167965,-0.0038486643414483,-4.84734416679336e-68,-0.007496210769857865,-4.5663253951351094e-67,0.0020221008226518106,-0.00342289098544418,-0.008989878597491691,-0.0015993667881009047,0.003757078936963659,-0.0024714133791185794,-0.0016527449788405829,-0.0011722268229566223,-5.32358544898346e-68,-0.007751357618967154,0.0009656599307478915,-0.0012179362889605998,0.002919835066193448,-2.76838223095808e-63,0.0020619482461438237,2.4437933472454014e-68,-0.010630883709743561,0.0066049602288654,-0.016903808036880318,-0.01015444856509505,-0.011001852863353808,-1.9727065764730933e-16,0.021537740788278425,1.4283521980994608e-66,2.169004335157666e-7,-0.0011363345714107676,-1.688725530004115e-67,-0.002043011038167814,-0.0018576948190733517,-5.7550447848405454e-46,-0.0070218680123152605,3.0356679124993003e-30,0.018421126250663937,-0.000044197340806619685,-0.005872506969028135,0.00897374166389112,0.0009130091179065685],[-6.714337566290607e-63,0.002535982722118196,0.004329580638701532,-0.0031511481857718596,0.0003437198032235197,-0.0023262948597849386,-0.0005396802172654262,0.0020292676089771777,0.0008410045914110122,3.396068075697859e-14,-0.002432969233026176,-0.002935739158909145,0.0020561949202208265,-0.00307982794575985,-0.001720454837589824,-0.0013046297919885798,0.0007205509812232415,-0.0035941841101509975,-0.000973299950243976,-0.0049015526152161384,0.001201577180942017,-0.004494783904108495,0.002830085160419878,-1.726452490423129e-42,1.318726405917892e-65,8.658596978846155e-7,0.0003593605935058092,0.0003092249254161688,0.00484525850326444,0.004592186824249261,0.009237838153668692,-0.001542097264237934,-0.001195690278351011,-3.5747069119896864e-28,-0.000888338952019023,0.00096573696050775,-0.002083653236077548,-0.0032304297209705007,-0.002117680245172589,-0.0148848319707361,-0.0018075305567584886,0.0007923494739970705,0.012300855404723018,-0.0021818826862230944,-0.0015839589592217293,-1.6385574889381012e-7,0.0029619221129342814,-0.0011593233340965116,-4.81431876465031e-34,0.0008715673935506934,0.0009839485766470124,-0.00404137550483335,-0.0016615766497847678,-1.9337374093697462e-69,3.922942675758779e-7,0.0003696738347167245,0.000930480342428234,-0.0009292778459521534,-0.00003216853221668211,0.004844668241659999,0.00047823852154402994,-0.0049292817729492495,0.000004898634265172925,0.0006229379698040212,-0.004237082796248729,-2.0804169606279245e-64,0.002409027526729503,-0.002449967192616085,-1.4775399444772858e-44,-0.015388166170954908,-1.0917459225313238e-67,0.005545530604744581,0.0012927746305973673,-0.0009883536128490562,0.002073709575649461,-0.0038785344368173842,0.004195661156205696,1.7754233604660831e-34,-2.659098875306635e-15,0.00018206505499901863,-0.017148227801676914,0.016691163301481134,-0.0027700432786204945,0.0010616648475049058,-0.004524064890073867,-6.921119436916601e-22,-0.0012908351808222371,4.718076749972037e-11,-0.008132953876740824,-0.0036181046179777766,0.004720789990755765,0.0010760134108698655,0.00196704702438452,-0.0008510928324902808,0.004796333965944113,0.0010907811664701565,-1.569727145435851e-7,0.0007595424061080993,-0.0004385704381009243,0.00028448875289115703,0.001363272851400234,-0.00028624057264665687,0.004318323184693091,-0.015231853181469456,-0.00030926763008060234,-0.010667000025467886,-0.0014136059921381634,0.008742188835144276,0.00005875962656498434,0.011197795553295985,-8.036924583863997e-71,0.002458366250735684,-0.00355845418871193,4.694650512281334e-22,-0.009827607234616809,-0.0029625441679833734,-0.00003701285722088755,0.0034704678584595904,0.0013378394167085598,0.003590807336093094,-5.0096656094676144e-42,0.000057633172411409174,-0.008596782600008223,6.696547163527917e-32,0.0005644741481877179,-0.00038755923996149945,0.0027446043682878706,-0.005234942352987057,-0.001967369064291388,0.01304464214385883,0.0036753047153445565,1.9226731869751143e-7,-0.00017419544566804704,0.0031674041047183043,-0.0030539958423017152,0.0037973392619357884,0.000033468824044170504,-0.0030050838167132803,0.001569889634653091,-7.716182253844457e-39,3.956251063936275e-65,-0.0016710895969489013,-0.00024810087934961104,0.0003716484719089168,-1.7351625986358404e-67,0.0010756230956341728,0.000031767085630405736,-0.0199982120014662,0.0010865226473227674,0.001043236041434733,-0.000620019878250675,-0.00480346176822263,0.007954478497334137,-0.0014450052049860668,0.00009557520582566106,-0.000977163988306892,-0.0037317068166151392,-0.000896877686012655,0.0014840082531056577,0.0006261876617972429,-3.71847949779303e-68,0.000270922459049312,-2.69173744610675e-66,0.00033560084143329215,0.002935176540347789,-0.0003236743150695449,-0.001204488899821689,0.0001261742038504594,-0.00007256464024865438,-0.00020954033465059633,0.0030984568283928962,9.019352525132456e-68,-0.00036884759616069823,-0.0004696613122203224,0.011179711110939199,-0.0007900850700237824,2.667289233708099e-62,0.014489080147811742,-2.7604723027774e-35,-0.015181146590383072,0.000596074577162142,0.0016940618253120183,-0.010502911608650582,0.0055149530557116735,-1.3893156768149366e-16,-0.005039592727366188,-1.9105581042593327e-12,0.005713671528274551,-0.000015154486116011903,-1.0881929402428418e-67,0.001043148959416603,-0.0014233276731331318,1.2272698213547947e-43,-0.004577433056859321,1.527316474094821e-29,-0.007877699441937058,0.0011165379787602071,-0.0009190881944967765,0.002279994750111817,0.00037868668260775877],[1.7352857512776075e-64,0.0017285039124724211,0.0028773301163086545,0.002928619703103665,0.00401157681740994,0.0018466524737171365,0.004531262053477589,0.0015073736837401608,-0.0011323201582302436,7.349860172546134e-13,0.01548703333867918,-0.0006650590070276046,0.006510934800868869,-0.009172431207466716,-0.0003788906411403973,-0.008271720036546241,0.0010563528243297577,0.0035783097773344676,0.0010378812476093142,-0.0030351354416252286,-0.005087273662899206,-0.00443407330743742,0.0014096056172882919,-6.748509083082772e-42,-2.353052546192722e-21,-7.159123556472399e-7,-0.0011090114436889218,0.007323044000971198,-0.0021543107557215565,-0.0008449593818211442,0.009299839339548576,-0.0012706716165064786,0.0005665672826629484,7.48524289556671e-28,-0.01349932526804425,-0.0017918834643815289,0.004236168815311591,-0.000003373769765284209,-0.00399868584873627,0.0008605585781237325,-0.003487220812204645,-0.0003500910429531512,-0.004285535942207778,-0.0018818896642360057,0.00006746854634940265,7.598204576669923e-8,0.0021849762338360234,-5.89333956341477e-8,2.7753944582351823e-34,-0.00039037612529469585,0.0012601293538127899,0.0020091996435244986,0.003389216152595449,-7.233348763312964e-53,0.0000018645508736304372,0.003888241389743681,0.0026477311173914147,-0.006072423892597809,-0.0011470605185291514,-0.010568287787061119,-0.0026658250486294656,-0.00004888963979569734,1.6321501016549434e-7,0.004046168928630195,-0.0007416165273562685,5.123476205417727e-25,0.0005563439903709785,0.0030916764803216898,-1.2304193586510784e-45,-0.01858743521018616,9.786742267559322e-64,0.024932031828075126,0.0073032731494943656,0.000054243930408384304,0.002412018177192838,-0.006587068139045848,0.015161804563315163,6.00636531556712e-35,1.4932297809296567e-14,0.0024324168937706727,-0.006828249520517001,-0.02767577668955116,-0.020525926777805924,0.001069495479066965,0.00030015653602855205,-1.7074145407409406e-22,-0.004066364516849107,-8.268203780100895e-10,-0.0022154738578691897,0.0019042902318797846,0.002273360637602772,0.005314533915909913,0.008189585642298223,0.005205373132939772,0.0053528273722734145,0.0003708207409356248,2.0568645745614013e-8,-0.003606916385767422,0.0004765662889122324,-0.00008556885796251746,0.008318696861330393,0.00030425312991857675,-0.000972462054338047,-0.01737208965251733,-0.005096349447477072,-0.013358482082034282,-0.0011323869151654167,0.011838747307772271,0.00043809035712166213,0.01502815777817609,1.6026808009727353e-66,-0.01329122594585256,-0.003152318476378321,1.5406619099268858e-22,-0.0018589307671661678,-0.0032126642485161712,-0.0008862378265606679,-0.0024183151985426215,0.000595695374435911,0.003357872782780313,2.761450042074946e-41,-0.0002722527592210935,-0.000835599616183648,4.3396165525620945e-31,-0.02327885920109718,0.005660499494967586,0.0024623687381553484,0.0035983032441009306,-0.00012754915511149604,0.017165775247341863,0.002227733958126692,-0.000037677921386945966,0.002009231769022841,-0.0023912817658187334,-0.008900794210291,0.00010487446147518429,-0.006171393964624062,-0.011831788425495263,-0.001228758634525577,-4.926740415030088e-38,1.616958036667348e-64,0.00155399402388844,-0.0004396394797021928,-0.00035041300821199054,2.3177750002707024e-67,-0.0015755281336542585,0.00014302531327315624,-0.0021424293406904025,-0.005820427012654022,0.010163728035324627,0.003245448558159482,-0.02298185193222278,0.007466722911483135,0.003683548706738938,-0.0031435726400005017,0.0004834395794168092,0.004951084946972034,-0.0033351496217784767,0.005343382376611057,-0.002678499559241976,8.90720008184053e-65,0.002162651249727892,-3.0366615761167675e-23,0.012633570253475685,0.0030421414575628886,0.003782082624212978,0.005524684927457979,-0.0009163339892110169,-0.0015421510812842678,-0.0006286555779996322,0.009011195257434833,4.31867468306597e-67,-0.003703612000143284,0.005533382155717718,0.0024999840418872396,0.002968350275955687,4.865209682123966e-62,-0.0024435851917683354,3.3740667078489787e-66,-0.01719088514976314,0.0013360324759710777,0.008473141981433762,-0.010584484060574103,0.0016736972370944734,-3.29700061694614e-16,0.0050320653311976575,-3.60101269548683e-12,0.005188863712443583,0.002397414192051234,-9.134245032454307e-67,-0.002160128326521126,0.0018329688003871415,6.175233763347377e-44,-0.016741582898503433,-9.09811677098518e-29,-0.00381043258749577,-0.0035871906340783108,-0.01182507476466769,0.0036558960606037877,0.0011911408502547102],[-3.5344127206860435e-63,0.015584847137207826,0.0049019404167713375,-0.000943262638061409,0.008222769973206152,0.012373650975654014,0.011413822867909713,0.006074599507568245,-0.004852986465536184,-0.000001991078458261536,0.020265763628580884,-0.000633500404463389,0.0006791109548561887,-0.009705649728836196,-0.0008052426214342972,-0.009459057575072729,-0.00579782752736339,0.0074423304399519035,-0.0002605373087579294,-0.018660927139089584,0.0000641315288160846,0.00012970664844097062,-0.005191423508404903,1.4586821418357404e-40,-4.298742219966745e-20,-0.0008997317916409056,0.004699074193756975,0.0034398681067111555,-0.004231626298316797,-0.0032589949641052994,0.005909575218615348,-0.0015831199075895081,-0.0010881267928689797,3.825036009427099e-24,-0.019315751919177077,-0.0035852082840945837,0.0015098104297695117,-0.0000595581823244137,-0.0011122770758709623,-0.005670342814675068,-0.004620909239172358,-0.0003297377844544404,-0.009148102585854405,-0.003974982298476688,0.0013797030129791862,-8.040127461396451e-8,-0.004904023724801582,0.001992794010759828,-4.8463548847234e-36,-0.0017595155369910793,-0.000730198906204891,0.001703620084786792,0.00348650054948577,2.0581022406643238e-52,0.000011919879403136895,0.007295109830486788,-0.0014311050448206541,-0.012210846999799884,-0.002426406131745441,-0.0035859068334019354,-0.013500616466771505,-0.001287338012269061,0.000007266691592655513,0.007568503042795676,-0.0013756377414167833,6.318380835506128e-23,-0.0013523008312938053,0.0037372089874515096,-3.534108741385946e-45,0.0003304205190415886,2.920908399740593e-62,0.026854447468513606,0.01022345123042789,0.0007738686126373682,-0.0003523276935989919,0.001835845661525841,0.013988477563220835,-8.35483651992423e-35,2.951336901786004e-15,0.0068319132232883,0.00308338209188968,-0.012029805390658895,-0.025077934277368704,-0.0003593823844213641,0.01601798481728489,-5.720821430362296e-22,0.006922298266386889,-2.355850414007243e-9,-0.00465225012218368,-0.002104408946880645,-0.003934479071144311,0.010594941239082497,0.012098678918180263,-0.0019297863305345196,0.002687239305156836,-0.002339072311725475,1.0024529195952236e-8,-0.005527629226610085,0.0025798961498667496,-0.0003613895646685841,0.01154528574119135,-0.0021829834384910094,-0.0061967997919319985,-0.00011041915687911988,0.001915403930458099,-0.015955419837984555,-0.001858923128805269,0.011614506549041217,0.004967856141506562,0.015825265307879366,-6.512129036992926e-66,-0.012718392656243452,0.0030304479662910727,5.783885062159151e-22,-0.0007606743047795644,-0.0020397323194561753,-0.0040334882997021156,-0.008254833792879,-0.0019337402125397462,0.002518770187749696,2.1849936926476334e-40,0.0004638775487504035,-0.0015387354568290271,-4.8840942383225206e-31,-0.01453676443019764,0.001533419958543657,0.002753790873498076,-0.0004042094575670299,0.00309181818311227,0.011196042888235374,0.000348324579230754,-0.0009070145835810537,0.003941763081658494,0.004254432060692604,-0.010536871508476603,-0.0001267891868793143,-0.00904474065963889,-0.017544378826677358,-0.0012737122771386152,4.962077482890448e-38,-7.507098045785256e-64,0.006183273379534439,-0.000977978941986233,-0.0017308965306484026,1.525909210557358e-67,-0.001503114641494894,-0.010885043869402587,0.005270061594383445,-0.01019217114447066,0.00355300277187929,0.00315023950534366,-0.02681982168720919,0.0022888301394348525,0.007540928062937623,-0.0030279413583582807,0.00013949797318423593,0.004452257667240038,-0.00535747891028854,0.01418710459939263,-0.0019667869786275994,-5.285094077898344e-65,0.0055449358009094975,-2.2411685652142853e-22,0.01800216081435979,-0.005884292009553168,-0.0016802917730523973,-0.006446151917230752,-0.0031540437237510665,-0.0007133650270961914,-0.0005306950664048623,0.00992926900606814,5.341461059634739e-65,-0.0067247549313834715,0.0062143757042948805,-0.0204840267908255,0.011535919645563301,-1.3764364115654743e-61,-0.009011846910558865,-2.389480197040663e-37,-0.0013727690101509927,-0.00966794853534912,0.01485296480944605,-0.00718038970244668,0.0007174475406088423,3.112049771779562e-15,0.00150839633371732,-3.1811274657281345e-10,0.005054147086837664,-0.0013665226898443511,-4.759548327665696e-66,0.00005323937120012073,-0.009329086410076102,-1.5259238047490752e-43,-0.023752025658861142,1.4502953017150284e-28,-0.0007872005715389725,0.0008840561707490206,-0.015190785899804035,-0.00025929234482295393,0.00039307885055280044],[-4.501177316403117e-63,0.02022558470113978,-0.00644706792971595,-0.0005175207637910517,0.006363068137899635,0.017531867333237153,0.0152298832824218,-0.003528730027257008,0.0005231387423396785,0.00017607496674162834,0.02495811601223446,-0.009496377493141098,0.0003463506009902457,0.007165974146653641,-0.0028949755129142793,-0.0053074339138448785,-0.011566698691646641,0.009419067141056503,0.0012829027634196398,-0.036883340492019544,0.0029800483056012616,-0.002273646432876698,-0.004314917122050779,1.1872307625308257e-40,-3.151299269808839e-20,-0.007158911611620366,0.000714253820420336,0.006227336194188822,-0.010068597311996375,-0.008777658945694886,0.0044591922720925,-0.008538498711984997,-0.016027646072243096,-6.949013982558101e-25,-0.022650370003976315,-0.01131252000882784,0.0037701857584961466,-0.004098335457431858,0.009023949737580169,-0.0017913080602623796,-0.00843801128479138,-0.000945637272114093,-0.00874057324166182,-0.009545108553642934,0.004146328867997645,-4.6373778336277987e-7,-0.006397706113500383,-0.00012051042637884726,-2.7251553476034646e-34,-0.006733831197186614,-0.0009677015343194956,-0.006479495897227113,0.004700752763711877,-1.2382273480965649e-52,0.000011553043038987905,0.006811222113835423,-0.00001072007989053362,-0.011198180785591108,0.0005643040054836724,0.0009239821195491456,-0.018072670977010243,-0.00272905818001488,-0.0000023712244537312655,0.006536278553964612,-0.02248248099008844,-1.3057809785899314e-22,-0.006487870004258564,-0.009835859504978646,-5.934812661617038e-44,-0.001216558615909311,-1.4528271699612248e-61,0.03877994970666298,0.006073354975739251,-0.0012382647591330572,0.002579210033486871,-0.0020996565213815353,0.021575906675541014,-1.4858629027792428e-34,4.161871978134619e-15,0.0038858625553574106,0.014602630055187502,-0.002969194454063183,-0.03070374630875221,0.003018929151836525,0.028628408608285444,-7.617669362694425e-21,0.00159403908174463,8.313047757325455e-8,0.0008830930684704502,-0.0022834690665185027,-0.01967973596775572,0.004857645628522381,0.0060202217965113925,-0.016553956678595796,-0.0007984982610257325,-0.0052751611077040995,1.415598333735827e-7,-0.004144318039784864,0.0006056611786338994,-0.0007399360197519315,0.005097002280213397,-0.0003841097337204197,-0.01590221779694552,-0.00018016643093925655,-0.006366148009880347,-0.024029654554684265,0.0009888814988982509,0.01868017103908687,0.001076735833546344,0.016646945232702878,-6.160413820269501e-66,-0.012451369040463199,0.014906628642258923,-3.387411879386973e-22,-0.0024820514797874085,-0.002966028329448811,-0.005674550116600166,-0.006980850290320988,-0.003435715595597742,0.002187633461661714,-1.59139765516997e-40,-0.0031744425950063515,-0.006704785682710566,2.8672306235432046e-31,-0.024701806206824432,-0.0011805093533457794,0.01612944781896344,-0.0012643503133343424,-0.018828563330327928,0.0007740228301370722,0.010534515683379231,-0.0022073230244528085,0.00023798366876843352,0.0034109084955382197,-0.02311005901611973,0.00159185641784878,-0.015205572671167384,-0.01581016329680397,0.00027269358087433037,-4.481383321573929e-38,3.5195635748082397e-64,0.0053785636248717865,-0.006445375073412332,-0.0024125267915649537,2.2562523516994255e-11,0.011886764477995785,-0.01238129837891159,-0.016501671215339287,-0.0006138754991987397,0.0033293144381129017,0.0003587724898787478,-0.016239153218650795,0.0012369003592146615,0.013012856348683885,0.0007272447336620943,0.005199833494283623,0.006680672003194286,0.005950357209155577,0.026363601647157668,-0.009028901238514239,8.437665401263314e-65,0.003927121889121878,1.0937604632871718e-19,0.026947675215101226,-0.012382508118802437,0.0012454527599474019,-0.011909803072078862,-0.004108656403087959,-0.0004517967965344342,0.0016852094647325823,0.011958297500368208,-1.9926972901787492e-64,-0.0008339884437169134,-0.01157183052847257,-0.030782664984847198,0.015765928007340755,-3.119163708467078e-63,0.02929230955601485,-3.136024051234239e-36,-0.005109579495669873,-0.015220944742230768,0.0203367585629443,-0.01681535231711333,0.00012462263296634076,7.596575723868744e-15,0.004046321013215213,-1.588764238268516e-9,-0.010459703941204148,-0.0038084351376292676,-1.3219583797171366e-66,0.0027313244037042656,-0.00783377898973963,1.4932824421417975e-44,-0.023150292001787535,-2.999565413304998e-28,0.00017520755147470957,-0.0018030404361823404,-0.01616028105447397,0.002163929635567727,-0.00005051590656134391],[-1.0319212999242921e-61,0.024551368865617994,-0.008989858706854637,-0.0010525743798072995,0.006434011455166167,0.003537821845650411,0.004276013605790557,-0.011572151638352334,0.013320476487849175,-6.243320071877668e-11,0.02737150622072587,-0.010424522022710752,0.011869178110458812,0.02891368421882487,-0.0003881527840800719,0.008884252846057754,-0.0030731182577166624,0.010910807458672775,-0.001654583633264094,-0.05049109165517215,0.0026178505183986306,-0.012437691396027104,0.0014522465424182613,-8.051360865192096e-42,3.29037565922167e-19,-0.018245102581319908,-0.0011875464750657917,0.006059634209557306,-0.02049496584653029,-0.007842383348436684,0.0016443284231674531,-0.01164044110362947,-0.03359319829928497,-4.3622339410091e-26,-0.021618091992794818,-0.015691468670284606,-0.0031294419231383134,-0.00047874563435795466,0.013243247477174955,-0.006614881122728514,-0.01791800005002632,-0.001577510176499297,-0.0030536340418408562,-0.016228326325812684,0.011688734896050044,-7.464665887088441e-7,-0.007047690873871439,-0.001546392754816586,-2.3553158135153237e-32,-0.02270605609225952,-0.010459700758666013,-0.014926238473432907,0.0024829158868582483,2.2143249135887864e-52,0.000010914646016435158,-0.003953123283350417,0.003192811657457256,0.0015796053601466113,0.005500883020063962,-0.0033757593155243877,-0.017890652195377492,-0.011434609846181554,-0.0002465432539698526,0.006168936342386273,-0.04079726907153079,-2.5268442899282347e-22,0.0032412527382484646,-0.0027355500018604074,-1.4377216404077137e-43,-0.00384767094896764,-5.346272307125249e-61,0.03342935672723786,0.00848183748372396,-0.005938266673697904,-0.000675940735227538,-0.005679665499370101,0.03186197186108477,1.7113592535639644e-35,-1.87308385542322e-14,0.0043746433033936775,0.009091529644090579,-0.013719249079365255,-0.033232751385592646,0.005806641625372031,0.03556150271165095,1.7415412574746014e-21,0.0029364441929432385,2.858074320655724e-7,-0.006098937586841825,0.00010791147667984634,-0.0303700730995105,0.004838298711411131,0.0070799852331911075,-0.0246875717083774,-0.0028345809556686043,-0.005276256581526752,-0.000001174992779478394,-0.009579319360831952,0.0011173489337661852,-0.0028350228150172204,0.008432289984912819,0.001419271658361606,-0.016057537701098183,0.0013768677160936054,-0.000254359979127007,-0.03940062707818923,-0.006295774234825177,0.023465032359546393,0.007390123770860429,0.020314371249887605,8.11072276483841e-66,-0.008901492872521333,0.011737162519029643,-7.696936750091525e-22,0.0008095189926894095,-0.005764382491405717,-0.005782362164005505,-0.008865582259452696,-0.000416356054759126,-0.0015473698632420647,-2.110220237161431e-40,-0.006018250087940766,-0.006133361079379976,-6.527547966218495e-31,-0.03282009170498611,-0.00015195934890312946,0.02456906652701043,-0.0022359544454524194,-0.049629248409175174,0.004932604115991746,0.016186025289459498,-0.0016937645289832042,-0.019456665896310163,0.00487447251490099,-0.03719342304043578,0.0027927453046543665,-0.016771932690544,0.003042016441297735,-0.002530626408987894,3.896560603765285e-38,1.0769893450122769e-63,-0.00030531059825904445,-0.0015365646869141658,-0.0054246469669793195,1.979167572306517e-8,0.010414271765823274,0.012266584791087875,-0.022481228608737414,0.0028858942137967546,0.0006401115398750874,0.001832668584041052,-0.001596396098511667,-0.0006545611776178997,0.018872285836362575,0.00527524696236998,0.0018170392583962264,-0.003830749414311836,0.012759396642137336,0.018063856096229326,-0.01698777553052858,-9.175368691652393e-65,0.003783909821651279,-7.15288999810634e-20,0.0424125717727049,-0.0066447593559545715,0.01014686837084147,-0.0026721416119464443,-0.002645571023693717,-0.001805440631700371,0.004235663509346255,0.022228689325728586,-3.5580093568994468e-34,-0.0005134333766752079,-0.016214628165761313,-0.026246721957005233,0.014741319056891505,-4.3827631652865366e-61,0.0305692419439254,1.1916655787005122e-35,0.0013105811103654235,-0.013728313074377016,0.02366500948197465,-0.026422648294539476,0.0007794314486835258,-3.3643999296171413e-12,0.00040255871179391864,-7.644239891410527e-10,-0.02731310219696246,-0.004108020268252107,5.648311664087513e-66,0.005102990864276187,-0.012205590756935314,3.1253053415263234e-43,-0.019178845286769608,5.540599371027777e-28,0.0025731213456652454,-0.0024128270771183722,-0.008166366704972169,-0.00026182354131719057,0.0000026643649022795033],[2.9913117386960493e-61,0.022572409785459328,-0.006728838963897889,-0.0003450873609521555,0.005080952093097936,-0.005120554606510853,-0.00874762390771654,0.00998676871849219,0.023648427125289865,0.000016282871794693365,0.040164490736666135,-0.014243744522800202,0.010159498355199068,0.05169311944589926,-0.004276677828270679,0.024061064546677405,-0.003217580201256784,0.0064999422886276095,-0.0043669797060049845,-0.046379574481653855,-0.0005819611756642563,-0.011121253779736263,0.0004024602791685072,3.136844887453507e-41,5.220851361995954e-19,-0.01885385387146356,0.002906543508629094,0.011596160782959927,-0.021845505421996432,-0.00870120572729297,-0.014561488145330261,-0.016177822470390964,-0.035475175940549,1.7501140601488992e-25,-0.02788958089818421,-0.020917343499506972,-0.01642498565595306,-0.002287673772866183,0.008160409046985322,-0.002849818740348319,-0.022822821730338658,0.0006235310215707947,-0.0031162671026280565,-0.016252432713984015,0.012729019205419469,-0.0000021022208869840652,-0.012422343776909293,-0.003631183380796405,2.7631803121640252e-30,-0.027921309547146125,0.0008226524805555213,-0.014610149915511942,-0.000738784417872354,-3.853924400752453e-53,0.000010521866087982182,-0.0028563807745862852,-0.0007014420530107573,0.014912328422070938,0.005330449602194304,0.0073627002897886365,-0.019329385691753687,-0.010601466362357509,0.00010692814329809999,0.0038882251639565674,-0.03676241304301901,-6.796628700747041e-22,-0.004756244058493684,0.009794515966073584,1.8029487759104942e-43,-0.020809356800602818,7.444945043346613e-61,0.014291500591465998,0.010193705723633338,-0.005916287560217363,-0.001164921055226283,-0.00768582126671019,0.024122417459738768,-3.3775883318199757e-34,8.481264029396392e-15,0.004709618143642581,0.0017528714744950381,0.009211756247787486,-0.02912754641906474,0.0024624435127725236,0.04124484220706361,2.7097446819644676e-21,0.004320913179964643,2.4490170376784337e-8,-0.011821537364593973,0.0018432783318544429,-0.028963965873538104,0.00401064354406449,0.008083475704639279,-0.02121458672576629,-0.00866012844339861,0.00347471992644154,8.726361595062728e-7,-0.01895280165053494,0.0020002396795943266,-0.004000258188255412,0.009893994679364249,0.00551604988601478,-0.007564426145979442,-0.0019454849290826515,-0.002644266335652032,-0.052513628876292184,-0.0025010987813013693,0.01507264961758394,0.004467428715680392,0.019719469010042946,-2.916223812097415e-65,-0.017547901023465783,0.00779127942723743,6.456137849072805e-22,0.007608150771492305,-0.008102968903222749,-0.006040763047488459,-0.012621339183208222,-0.000985936990930413,-0.0023608421426806205,1.1448425459863217e-39,-0.00820738272509989,-0.011869702621363184,-9.373714654147693e-30,-0.03216839406933941,0.0023241201334252256,0.02012738411422382,-0.0008470388000971459,-0.04848901716949662,-0.004019640559370222,0.013735340256637248,-0.0016263464542998535,-0.02654850177603045,0.009326335485219783,-0.050434254912697915,0.006433697717130891,-0.021946906929513274,0.04248681009072519,-0.010732218950764998,-2.1683107364376684e-38,1.2924277772647514e-63,-0.003674681958360736,-0.006116482494299839,-0.00942448795413373,4.5972953934967586e-8,0.005100664097214572,0.016742146081401676,-0.021399707351908742,-0.0021943521914236743,-0.00577817423999466,0.004912853781120009,0.008992819215883187,-0.009172751005821048,0.024547549692323884,0.01900906666286149,0.003945857861579698,-0.00997063329444623,0.008876828245088689,0.004667804464758309,-0.021025334853180807,1.1590812694874929e-64,0.003833245328435432,-1.8396392495498897e-19,0.05672841896328759,-0.012936490644117796,0.01508164208191821,0.0010054482122688736,-0.003386623251440526,-0.0019717702705852637,-0.0006847166876060934,0.016126372999119315,5.10503293914123e-35,-0.005444465633376196,-0.007012689535481756,-0.01562703200800917,0.008983354444490329,3.64702725393363e-61,0.014880040721555673,2.521226475326856e-34,-0.0019271444501056997,-0.00630153359264881,0.0073699049251557975,-0.04532336778591152,-0.0004347789331698625,-3.494837734012564e-11,-0.006317830583445471,1.930240553453448e-9,-0.0171804259876687,-0.003295021480489679,-5.983001829687033e-66,0.0016694978540386252,-0.0091249303382028,-5.095058294307179e-43,-0.0124794769623559,-9.514629293004713e-28,-0.00006723271380973189,-0.006037224815958051,-0.0009442893308492864,-0.004745423156765987,-0.0002714644623285925],[3.6123869529402845e-61,0.018461135575670744,-0.0026101764569572876,0.002504980128804453,0.004529576298922422,-0.012515731136597128,-0.011588860532029538,0.04585654312332224,0.03543475115498417,-0.00004567038364343557,0.0432392762394514,-0.011729058114536629,0.01860637134954171,0.06266644473716987,-0.006601609668145803,0.0334132157228184,-0.0008510315839606537,0.001851238840140503,-0.006624804424871051,-0.022133203774948266,0.0005676496867226607,-0.012900302896847467,-0.00874663818150557,1.8304927047896156e-41,-3.255343634751911e-19,-0.007430008469351532,0.001653362565448953,0.016735244712564303,-0.0210948995228759,-0.013117458111860094,-0.01569257074111741,-0.016671652461505992,-0.020803544868070612,2.2559184455590028e-25,-0.01799501569333256,-0.026245378897626733,-0.018133348258278385,-0.00617898434955207,0.006342356576408111,-0.003456886798574616,-0.027961836809779945,-0.002492050162135273,0.006049291293322599,-0.009006043149174482,0.016356107430981762,-0.000028464542993324417,-0.006056225987903344,-0.009223977915009337,-4.627142153143006e-30,-0.037299383019877404,0.008350311628849909,-0.008418912744799348,-0.0034664454207214224,-9.87616752434653e-53,0.000022104297102068645,0.005660200885049727,-0.006249727090731454,0.024879122809354965,-0.0059733149914036054,0.00849750093912697,-0.024027897038261192,-0.01689508109798222,0.0005859069767860885,0.0019615265372877025,-0.017758662463850255,-1.6891664479843529e-21,-0.011625205214370484,0.012581646931872236,1.1244645214250078e-43,-0.031675389489818115,5.75819130267674e-61,0.009750851630217165,0.01549617294475558,-0.00949275853407066,-0.006592160457248263,-0.013338818405325676,0.010208536477084296,3.158417344212551e-35,-1.9301510945478274e-13,0.004207534416050884,-0.011166137091428172,0.014837662646596906,-0.032400564129613556,-0.0056168696280157766,0.026677701629354372,2.105945663578341e-20,0.0008263088987899511,1.3117051385945526e-10,-0.01266580858600251,0.0057220641307189355,-0.016227137200355412,0.004436193420115751,0.011951736690828118,-0.014949896110136604,-0.013355871132858877,0.008574367395198079,0.000005146749532120799,-0.023049699033869307,0.00018865095476799,-0.006469744063601717,0.015633808248130095,0.006996359477562079,0.0037647176019660203,-0.0033340324956113387,-0.008457911582570721,-0.06964841623140222,-0.00032355518579929175,0.019036896515939743,0.008684976397833158,0.035611412333133266,3.500872628909065e-66,-0.01894060657872436,-0.0005496751147998912,-5.86362613362221e-21,0.015412073067135275,-0.004741756914064694,-0.015362266382167901,-0.01750096198219953,0.00012356564797030205,-0.012935406530852681,1.4411952510393401e-39,-0.017507831821490395,-0.028062836209874775,-1.1951409890601709e-24,-0.04518191736847828,0.005072792806931154,0.017345671014776447,0.0021324330095537527,-0.03416657569376841,-0.004090269443263834,0.012416601446714845,0.0012008955218819402,-0.026942105825382156,0.011681890023228732,-0.05984478192054429,0.0016105037688590763,-0.008736001685992464,0.06550668906943503,-0.019985912947642914,2.7478884260382004e-38,7.946789241339739e-64,-0.005104597720242885,-0.012503908817494948,-0.012688089329504625,-7.343587767954133e-8,-0.0018116342200638477,0.026445052027819837,-0.012642405533509267,-0.011990690047571482,-0.009738194833857461,0.008344298502999904,0.002904552846963753,-0.013510902927302264,0.02606678586044555,0.017960164468589324,0.004968777776333706,-0.00658863167755581,-0.004400558554342014,-0.011489487098704704,-0.015286876771085567,5.351981704763977e-65,0.0034580812280493242,2.0297211299478722e-19,0.04957547256287195,-0.018358047691219858,0.01706944827193895,0.00458872969070249,-0.007783537049079867,-0.0020020999638900912,-0.018382822264986727,0.009612501505517066,6.762536558918212e-34,-0.006532985029046575,0.002067932945205994,-0.01197483222291898,-0.008180762411304708,2.4010199439425604e-61,-0.00760562584305136,-2.8511802048705086e-34,-0.0065517414877195495,-0.005090952935593084,-0.010953594196043656,-0.06735019776911891,-0.0029774226249278486,-3.68398568440058e-11,-0.010547863498919835,-1.531353854032958e-9,0.011302559476899105,-0.0016384597802059555,1.0805789860195378e-65,-0.004149459825837694,-0.004474479996666355,-1.311172305275266e-43,-0.011717926823292948,1.030013125545124e-27,0.009768793967088876,-0.008277813729891333,0.00856957400539798,-0.0016959759179572434,-0.0009178044095620547],[-2.407877353252819e-61,0.012637949183348637,-0.003017488966922013,0.0003753627553316364,-0.000017531062804764094,-0.01942637555113468,-0.008850941962803326,0.048398669121067564,0.03513253337094777,-1.076208666784375e-8,0.03362484538784877,-0.010648759073819807,0.028436945509130788,0.06359212046566871,-0.005708264797283353,0.0335597621936944,-0.001643408425012297,0.00018434360287860121,-0.009130005803759762,-0.006107105336261354,-0.0016870736678170387,-0.0025211054444952297,-0.021065981461092044,-1.5926551861769015e-41,-1.6934297870922367e-19,-0.0009454554032651076,-0.001255182231785538,0.016038993275792935,-0.010176011379285588,-0.027106807875546517,0.007763207849049224,-0.014861679182723214,-0.019152895344486158,-4.824189396177672e-22,-0.0023983457468160813,-0.01599224767269418,-0.006166800093057384,-0.004166524301728657,0.013413841036303305,-0.0063207723157991955,-0.02417779518056048,-0.001701354257009056,0.00144887974199643,-0.0077290360872875755,0.025225564039060094,-0.0000469047346331858,0.014616894767340549,-0.010680769207250185,3.7163979547062535e-31,-0.03796939153184024,0.011196152324878644,-0.015516267710339838,-0.010268154665551196,1.050553206100418e-52,0.00009460164782569592,0.006481428154642797,-0.007901433914870368,0.022768246398893553,-0.012799555764826298,0.00530969364113475,-0.030377439970113926,-0.021760806854822755,0.0014177935466796114,-0.002344297787211201,-0.011796466174124807,1.246433785513681e-21,-0.014739056066552752,0.025702928146983193,-1.694336617712159e-43,-0.04130218910364589,-9.511454454466528e-61,0.013802107589262163,0.012420952270600192,-0.013720223407530364,-0.016595073266789166,-0.01901912673936214,0.0012211343343289933,-1.8034447362145297e-33,-7.116947122017334e-10,-0.0012049350909433647,-0.02823438989593061,0.005674709186178122,-0.03666799799720042,-0.01700078338592624,0.017735483986199518,1.6298056032631414e-20,-0.009515239456621407,1.421055481618681e-9,-0.01660265349076769,0.0010577892940589013,-0.009529943906113057,-0.00016560151728416264,0.008878454013245123,-0.020886083647899144,-0.015841213690766312,0.011200039079096164,-0.00042447112922593436,-0.03283029327138828,-0.0035072176842143475,-0.006877835709153583,0.013030481329020922,0.0036533627095760362,0.009343110258841877,-0.007600545481422644,-0.007803729727905631,-0.07914141424310846,-0.005103216633144177,0.022558770866175398,0.012145309386699932,0.06682499341891317,-2.310657658961969e-65,-0.015075150582099659,0.006015010870528494,-5.721047080988909e-20,0.00799805617003317,0.0007143962410068938,-0.026326087401717012,-0.021338738277143606,-0.0013775870076048365,-0.015890770297459344,-5.1636627359891775e-40,-0.01973567155425785,-0.040509331037200516,-2.2952508642445266e-24,-0.05290351527796122,0.01304500769555367,0.014777881436800816,0.005301919729880582,-0.02696991206434537,-0.004483353923331312,0.013840893688947361,0.0013616970483991144,-0.015601875755858717,0.010985792301128937,-0.06999176397978886,-0.0047382016796266345,0.003954511772373534,0.07979749671396426,-0.03318033828017134,-1.0895013810298647e-38,-1.301894656468317e-63,-0.006210521669134538,-0.018142286873077843,-0.017838498057689608,6.332681243528352e-8,-0.007426569280156957,0.035971185505877634,0.006661185194551091,-0.02284291849068929,-0.010457462865608214,-0.0018934534652103575,-0.006161895552628896,-0.016694532588843316,0.02193397388603545,0.02470836239343896,0.006575495124791603,-0.017551279784307636,-0.01261605959144662,-0.012428333152520683,-0.012651319984788363,-2.518830970310732e-64,0.00000376308666706778,-7.011911218323673e-20,0.03172654416099517,-0.023608950460294698,0.021618833877833976,0.010931642391329177,-0.005881483552024895,-0.002064147654841404,-0.019091199106001336,0.014777523261602487,6.306751816816306e-33,-0.01071628686058422,0.00003768921481478319,-0.00423031561298659,-0.02119177849615764,-7.227897592795968e-61,-0.011376515797748902,-2.8311191367100783e-34,-0.0069756409659392825,-0.003896344631502306,-0.017596891584823176,-0.05346952674674241,-0.00010358417108423192,-3.4758051570483466e-11,-0.010661866818522901,-7.319245531719132e-9,0.028599562403723536,0.0033355541409460254,1.5996041757137137e-65,-0.015747691590075753,-0.004783165741300362,-3.8279270962581195e-43,-0.017366145367837524,-2.7743214037919187e-28,0.010454803123077411,-0.00981015886437202,0.001154036086264389,0.0008825796879447085,-0.004084724092984603],[-3.0294955483755112e-61,0.006900563807322574,-0.00017982671093506354,0.003408135094996512,-0.0033484232385906304,-0.0276744329385065,-0.02243569780074156,0.014148994208604392,0.030840656432579917,0.00019533383725532134,0.03177307155393269,-0.02738435055933483,0.04212179098292512,0.06551543323430846,-0.004458480410880721,0.0325856386811608,0.007722310418664545,0.007305742345358986,-0.009061872255100868,0.0005745542840734116,-0.0026593527049679788,0.012768253514684233,-0.039335830565252604,1.7065715938933258e-40,7.028292979507702e-20,-0.0013566344812045415,-0.007436643555038896,0.016252496770253366,0.00639715141706981,-0.03444902074071225,0.028463846718553443,-0.01682541179050814,-0.035663913613884914,-3.467440741481501e-19,0.0007185824955021141,-0.009216892848155,-0.00857333980856893,-0.005976549928426659,0.014774005666648247,-0.010805524931822828,-0.012264267645745803,0.003079876471875448,0.01852241996687792,-0.010658233844378326,0.030453658404294967,-0.00006153493238749607,0.030244152572295607,-0.006026923030695998,1.9962374555316152e-30,-0.035606935300813825,0.005601349627761162,-0.03492824216367952,-0.018134697790187268,1.2494409657965511e-52,-0.00007641595161590885,-0.004964590684740141,-0.01448802758510414,0.024349671434636653,-0.013778376237517483,0.0029023673573803904,-0.033294129086317875,-0.024515030692672534,0.0025297704165683126,-0.004452775021260788,-0.02814445801046125,7.415451897122374e-23,-0.019707267135506013,0.03942055861431815,1.4039936239232452e-43,-0.04279218574181393,3.7849727552782935e-61,0.017113533728999493,0.008609659067769693,-0.006183459835383622,-0.020230345779522974,-0.03101856082665403,-0.0004440745115607747,-1.5606301826058385e-33,4.617508295837734e-8,-0.002680670382383711,-0.036154700634457,0.008514090779280375,-0.03300749645453914,-0.03433075587302122,0.01655684985632782,8.122855866902063e-21,-0.02256466885229569,3.262931789174861e-9,-0.021785926863915592,0.0028196734065354476,-0.009162778332223533,-0.0045816786988518,0.003955727635824902,-0.026147653210942017,-0.014229230376914339,0.015639772068478986,-0.002388754596940791,-0.043763401120802084,-0.0033061752750910703,-0.0053758325371431265,0.008569722114361453,-0.0030001483745481236,0.009809125845297851,-0.018264215694783672,-0.011548547046856046,-0.08297331463508627,-0.013963671234258207,0.03182889321646916,0.003674600012750136,0.08814898937304161,-1.793135231525351e-65,-0.023767886343750436,0.010527275312935675,-2.852042410374633e-20,-0.008324886807777872,0.007338191731601897,-0.02915107136028407,-0.02504521772965115,0.002781422850718508,-0.008311983171074079,-3.731162616879142e-40,-0.014714832193305612,-0.047111983675235156,7.00944379552917e-26,-0.05891450393277939,0.016787487516540182,0.011495798591329548,0.005811820150500758,-0.024065705211156113,-0.005476524262651866,0.013402321787126274,-0.0032875661804952464,-0.0005780676311358066,0.008833138172746079,-0.08408971890073637,-0.009055979163271406,0.009334727756325956,0.08479754821512836,-0.041848682194841245,-2.730969563422095e-38,-2.630540983871785e-63,-0.009441097263196004,-0.0183159994354839,-0.02669454259291289,-1.9880010117396503e-7,-0.005562497011319135,0.04314131945687672,0.0062568981258178495,-0.03310550471533569,-0.014788529431590557,-0.019154708293846554,-0.01583467083107031,-0.02292226078116661,0.021466749163496755,0.038488754017323774,-0.0001483644527002281,-0.025501890189365405,-0.012986396498014018,-0.005917357515180065,-0.014502461534206026,2.3469811266320976e-64,0.00043528117016075987,-1.1412134047024768e-19,0.01491871900922341,-0.01451796989687304,0.021678062419279696,0.027078212566083986,-0.0026904802440425035,-0.006595776026517026,-0.020733993280650936,0.011597868229679158,3.3245720216388505e-34,-0.017018274172157642,-0.0043675077214875,0.00017729657673170164,-0.020746071580423974,9.179044423487055e-61,-0.010937901572437717,5.064879455702248e-35,-0.008578880787731282,-0.004092481099615412,-0.015429088513530451,-0.034978570620594264,-0.00030817610398879334,1.8477903885702557e-11,-0.018671558460164828,-6.922340480116589e-9,0.026687242945230425,0.0085605419183008,-3.13761025847284e-67,-0.023852213238803294,-0.015570367093882998,-8.599498381983e-44,-0.02429512673352782,2.1476650140689896e-27,-0.007986482397684303,-0.01230718288552329,-0.007330132228178602,-0.0005100553549846734,-0.008419745375523638],[-2.3161092675728488e-61,-0.002247340053951579,0.0011372730161787695,0.004128009245207322,0.0005060686943687319,-0.0392998768226515,-0.02536800904837754,0.027888445923041832,0.022311764817481664,-0.000010141731442325309,0.022255906341340587,-0.038386889047039505,0.03244998232807295,0.052301040085865044,-0.0022421169459823616,0.036897908474094965,0.019092301873296372,0.01176879101492926,-0.013674137587592457,0.005475335953116369,-0.0025906888772654246,0.005244665913112371,-0.035575003685563364,-4.461730220189505e-40,-2.6988280034333785e-18,0.0004962746501167662,-0.003959715306246206,0.02045449310145866,0.023196115169612924,-0.0295078979372869,0.02285877708820816,-0.024653345703391182,-0.05004762746332968,2.6535037291518008e-17,0.003328357449903392,-0.0024729895168685836,-0.009857949935527195,-0.003310923483847194,0.014475630416983593,-0.002401578232883462,-0.0042917015707685914,-0.009503214389996122,0.03370507892625191,0.006458276743888616,0.03781722116631514,-0.000039365418056059293,0.025781996377378394,-0.006424242677165091,3.3522436459844398e-31,-0.027852382229147064,-0.0058581544701103525,-0.05446552169968452,-0.018404998244604193,1.0523468782436614e-52,-0.000008557183834153054,-0.01810770810322498,-0.020137131465450233,0.020199130437125193,-0.014423913289921634,0.0070766731960146285,-0.026319019704483207,-0.015002528834475769,0.009643967579371214,-0.001363959601440741,-0.028262197510157655,-1.7297780093950784e-21,-0.024024053621434983,0.04750229474398575,3.2414213221821783e-44,-0.02513398361541169,3.8851505352488567e-62,-0.0031926892353045804,0.00939768783522123,0.0037310033015799686,-0.019249732146969553,-0.02595287503222257,0.000158861137195922,1.4971225255455318e-32,1.4326691143239492e-7,0.0024191920048726523,-0.032480984041013794,0.00009230284159033854,-0.032076032841373024,-0.04248876577367027,0.022074385883967425,1.2734172748644367e-21,-0.02874204200403459,-2.4392814218421262e-8,-0.02337168814032205,0.00032210330541815454,-0.011058897310477534,0.0006454855745432526,0.007420574802911374,-0.0318900376311758,-0.010392435269183622,0.019076263938420497,-0.005959115100038955,-0.049870737438909116,0.0003023063660811485,-0.0033235025530315328,0.011058704773240155,-0.008044245652386206,0.009062045385714106,-0.023205550992011853,-0.008573381060056276,-0.06320067294386392,-0.025671229386347333,0.02115267034928983,-0.009662640922905039,0.09045969256062387,-4.582324334653742e-66,-0.030113025019268762,0.015454303567445846,-5.671995554980941e-21,-0.0425861626000382,0.0005717385951590666,-0.02228509121336333,-0.027849110491506096,0.004975654140422154,-0.007098988560301618,-1.0134870864331912e-40,-0.009557696449335072,-0.050622646758360694,2.1421941350164291e-29,-0.046500365687294834,0.019373442095931025,-0.0061646147508435,0.006070084883751922,-0.03614329022742499,-0.005966430830836381,0.013688479735556393,-0.007916384142582993,0.01960771304032184,0.002410271943796647,-0.0852090818181178,-0.005768788956260018,-0.013720388616514805,0.08686531969235997,-0.03728975254267629,-1.90212466475858e-37,3.944764842494139e-63,-0.0020650958860333616,-0.013278150400132917,-0.038568266660142604,1.5065971865847506e-9,0.003129500180871431,0.03161921826514823,0.007297989361925073,-0.017089338806388122,-0.011079083051392921,-0.034229121718462284,-0.005292646336407414,-0.010485038135598016,0.017274413172370405,0.04623551784088949,-0.009622603297154796,-0.0259269706153046,-0.00991289413592461,-0.002378410792677961,-0.00011357126900949675,1.7783439500591284e-64,0.0024227833322525805,8.954816416535417e-20,0.01885546190483159,-0.0014052830103646777,0.017824201496732212,0.03895564415935144,-0.0101715921721309,-0.00903852655721225,-0.02338667206075855,0.01591002115756941,-3.089373836833482e-33,-0.019318335229767832,-0.008327804167837221,-0.00039949039243078975,-0.018793984330486048,1.3581394658036226e-60,-0.003897638352174125,-2.6273653028203564e-34,-0.005501480065603386,0.0016863594579303934,-0.040818183595066476,-0.02882328596207244,-0.000951109464002876,-2.6697409774101915e-12,-0.020245769897398038,-3.8374580494582527e-10,0.0032160932822458575,0.005401679888787305,-1.6910062151604502e-65,-0.016126576490155496,-0.036403542879968526,-1.0124624799240673e-43,-0.02286478351839991,1.8824120876398432e-27,-0.04876887957985558,-0.0030880491980733492,0.005456217623062854,-0.004281328735414757,-0.00784901078809123],[-2.0276044659831176e-61,-0.0017904011360925622,0.004071500566045546,0.007130406045453564,0.0002993331874369897,-0.028303535675759182,-0.02597403153756326,0.04178082728655821,0.0018907437553196255,6.387846155997564e-7,0.014838086390257393,-0.036900971874732236,0.019341362869736548,0.012275078270183966,-0.0031294151059257564,0.0153193677236906,0.02865477708463385,0.01937285150407063,-0.018554112264535585,0.005516382388474794,-0.0005651041852624619,0.01638420495540723,-0.033794672461941885,-2.456334463819075e-40,2.280313155491221e-18,0.0010488429199823532,0.008253717197571548,0.02326845422992319,0.02281420864563694,-0.02313302863969357,0.04030753048283885,-0.014715500620261281,-0.04781899032064169,2.896409114172441e-15,0.007888776466647625,0.005825298975228916,-0.0038670581552934487,-0.0012323547801812934,0.008636412557079028,-0.006011354144159676,0.0008161256763996934,-0.01446089493526662,0.032360744525315684,0.017927376112777806,0.030313558970015784,-0.000027513216704139743,0.014992525574304902,-0.005073681087642354,6.714671442203688e-31,-0.022894787252935977,-0.022374241434879552,-0.06128359954963419,-0.013108861495431086,1.5597563008141422e-52,-0.000004986216605689905,-0.01969336183388054,-0.023579514179137895,0.012965643179627985,-0.012557627449357255,0.011418310678740412,-0.018758533518627978,-0.00890848867323201,0.008123415984116896,-0.0015343504788741598,-0.0278252228921829,-5.652100402956594e-21,-0.024755034836989546,0.047086688482230646,-1.0413766526472288e-43,-0.01479786481945219,-9.305644350288534e-62,-0.018296084578209162,0.0049662590612889026,0.011200114273135973,-0.025433520700363366,-0.002968595840275457,-0.005831244878896178,-1.0914417047675583e-32,1.1035452659706978e-8,0.0060910335046884855,-0.02083415452473248,0.0009617225659906778,-0.02732496564373933,-0.03652164600126667,0.024892495322929,-2.9613759516719094e-22,-0.02978869415712848,-1.5741596095365818e-8,-0.02873546387670146,0.0025076668462270944,-0.007098353050689698,0.0016590888583425329,0.002802548362345891,-0.032906818856566544,-0.0018743228308565941,0.019506339128576963,-0.004904665431220852,-0.03538299434569363,0.00509863325309459,-0.00397419143956209,0.005931829510801615,-0.011466632684496679,0.010015597508763373,-0.02253375239938227,-0.008232109541858311,-0.038562671843869946,-0.0307986531054892,-0.0001362620258794688,-0.014646405699590555,0.0834096637560466,-2.3845511124370866e-65,-0.027776611467269882,0.02244052898501827,1.2100918685488785e-19,-0.04549209622285609,-0.0052911413585368956,-0.015084399184806425,-0.032093430416712865,-0.0005538600233376022,-0.01597498227063438,-6.663121279720878e-40,-0.01294620862406114,-0.04956287363038255,-1.015529504361776e-31,-0.017221612499900285,0.018006521257288875,-0.012999956796023346,-0.0012767895352603365,-0.039841686440991085,-0.009330780763424846,0.014668339947569307,-0.00888883004668448,0.024809599918245558,0.006329717712729055,-0.06461535424912544,-0.00975559216444265,-0.024235107298827645,0.0676458541086616,-0.024603250643051192,9.706994358528577e-39,4.049453040794275e-63,0.002462693672013589,0.00017562044863124796,-0.03782091634512305,-2.0497837501810603e-7,0.007900538839415166,0.00028776901167243407,0.004617738849066528,0.0035297082505212863,-0.0073746452137347755,-0.034366442203345476,0.008984925957355096,-0.016638141796755913,0.009574550105690841,0.04786712366556422,-0.001878105800644558,-0.03092637173321709,-0.007195018379344906,-0.013541718998883548,0.01374809520259234,-2.6929655713370874e-64,0.003535573558816827,1.8086087418543732e-19,0.014174536288662798,0.018206470575474715,0.01990018055300801,0.031072786387884722,-0.018877294134483198,-0.01185843049002094,-0.0043274731116118995,0.015449057886120502,-9.826090984458006e-35,-0.01979472130548183,-0.009184320359340189,0.0013802109758349857,-0.0007545452246517559,1.0829813436622047e-60,-0.003734216615066411,2.2380964790712426e-34,-0.003971125829880632,0.0027563379394214037,-0.061126105334490914,-0.028470109709983333,-0.0014890436198882681,2.048504768520939e-11,-0.020751822575981793,-8.176401043062702e-9,-0.009074032711026463,0.004305115771100315,2.832522646744562e-66,-0.00251021584815957,-0.05409445953857102,4.895208339303975e-43,-0.020011644683653778,-1.2201607135268701e-27,-0.0745260550525795,0.009521863500061711,-0.012469861349406983,-0.00512853059419864,-0.006323889250371136],[1.168491994425712e-61,-0.0012624689245092973,-0.0005092012085875348,0.010114170033423032,0.003519197629897191,-0.019812879014342807,-0.030120355840557844,0.047383394049905325,0.0041620222724162576,-0.000006178982873528708,0.028687006243594142,-0.037290332679175565,0.01822422220892589,-0.008375933480023572,-0.004689265953415632,-0.004826874758754003,0.04141280839290013,0.03368974897575881,-0.019859172299260174,0.003913681837437109,-0.00951858499165013,0.006418929473642228,-0.03614831652028267,1.3918852590613623e-40,5.363113031265756e-19,0.0005972586638915106,0.019646764682164093,0.032171908684105105,0.015149027106049293,-0.013890659964213865,0.026949313790375684,-0.007544517261944486,-0.03288614974991242,2.1976858774835083e-13,-0.002227309747843939,0.0091187501444819,0.0018196439161102394,-0.006546274912087174,-0.0016490792640373537,-0.0075704937094891326,0.001267914832630044,-0.0032776643826800925,0.031883045513476205,0.021285202793747862,0.02668831340253435,-0.00003782718993697896,-0.006698676922237709,-0.00770474094370619,4.555830047370823e-30,-0.03685503563149936,-0.019200171521735636,-0.057686474140999026,-0.005718999902905044,-2.6630567207290235e-52,-0.000005741681354153557,-0.019568816197589427,-0.03297617577001927,0.009030050360161416,-0.005493889724155315,0.021343030906672483,-0.013003444251139685,0.003325356113963914,0.005176726823570027,0.0011485023019245748,-0.023565060555461443,-2.257680912374632e-22,-0.025389438953934158,0.06160024408503846,-3.195989570338915e-43,-0.036518243023140065,-7.249717852895242e-61,-0.040679270070601695,0.006951868115693065,0.014571691371506091,-0.0384670434074213,0.017300059486362977,-0.005788030309773108,1.0085391389257747e-30,-4.40940152137667e-7,0.013192426254778542,-0.009037848228081853,0.013921735590519062,-0.025550208515860342,-0.036359581399701225,0.04009254485607261,3.2482920260214716e-21,-0.030800469046436654,-1.1405082143311933e-8,-0.030728417449725935,0.011653939122699802,-0.010766246492603892,0.006539772011173821,0.003023377188562382,-0.03179193032387708,0.010339356393196816,0.017592449818952537,-0.003656437176150554,-0.016678832443300696,0.010549123165942871,-0.003537156603842242,0.006940511355097597,-0.015742280806640797,0.00900003539453215,-0.028413887135793615,-0.023181776918009798,-0.029324880734238116,-0.02201572771466927,-0.019421936164340656,-0.020366154993313165,0.06122521012098037,4.287459219605998e-66,-0.03697510885424195,0.014338425771201665,-1.0292358942455343e-19,-0.038713308346469834,-0.020400943198835213,-0.010592563348328565,-0.03342895110777002,-0.002364892876658292,-0.009553016752136214,3.790773617966317e-40,-0.013735214448525324,-0.05120823343519959,4.29685838050384e-30,-0.006890721423585544,0.01409671583641883,-0.013126050647715385,-0.004436389338279315,-0.03870001579849349,-0.01351930900161848,0.01579005365576952,-0.00003488768716424004,0.019577284981358124,0.013623202454753132,-0.053930461134068707,-0.00965061583657008,-0.027741615532668056,0.04525150441589312,-0.02644428437937206,-8.898375874975903e-37,8.831458001045982e-64,0.007867113475327479,0.0027256814475661753,-0.03578604836570223,1.8925417602953565e-7,0.009012012203749831,-0.00216107547169709,-0.002258428433759634,0.014637465179884719,-0.012777564319346601,-0.027910409916778903,0.02082751384632245,-0.021885619992214347,0.010374167614980955,0.06254666402467823,0.008826455807364098,-0.0311427401663307,-0.0034929003420400705,-0.06052894485008116,0.011477616230579727,2.0702012736941035e-64,0.008278667052724627,1.4246963345040336e-19,0.02354614981604769,0.030101146505433742,0.015466807910396854,0.02791761326858137,-0.022663631047370795,-0.01847407968804075,0.0184344340778101,0.01075253897501315,-1.7482027311639228e-33,-0.024397308217161448,0.0003867055666500296,0.002659928765810663,0.01359984578455501,3.399873643850572e-61,-0.002084980963039299,-4.928745274707194e-35,-0.005607059086188014,0.011916918751306483,-0.042729881392457,-0.016272787398257438,-0.0011986028524500875,-1.2417428009044449e-11,-0.022968863450778438,7.980941810245441e-9,-0.003692270888762441,0.0028238849078504034,7.620379122685194e-66,0.00718763767837321,-0.04526061545384947,-6.277847737699667e-43,-0.00665408607925337,-1.528498843236896e-27,-0.08010550556515664,0.014060240234068797,-0.0009561359784738986,-0.0019956601148575013,-0.004271697407324555],[-1.1888656217230185e-61,-0.00671381570121681,-0.0031964218119128014,0.014472763630565065,-0.0009646291161978945,-0.008826862447606313,-0.02313496504374501,0.04610079658436385,0.0175669838898088,0.00005632147108822534,0.057398040465715235,-0.03587696158531475,0.029774215535976627,-0.015326085923917565,-0.006456840889710249,-0.019117393739700544,0.044237645724571076,0.05400052933640904,-0.028203252313224,-0.000716991528821032,-0.02180689378370179,-0.005016737396691881,-0.03709296946627715,-4.191257539929434e-40,4.335773960887162e-18,-0.0005042772874865832,0.013204542834417557,0.034603328193490025,0.007240991653460963,-0.011494031622482793,-0.003584251113627591,0.004668081529816408,-0.034666884902571894,4.971020193732364e-12,-0.003924102311662011,0.012910975488521591,0.0030013073736601037,-0.012247548769960672,-0.00787750780632314,-0.008880987970647763,0.00845780097055502,-0.001583227554451019,0.020920876118546258,0.019426194569745252,0.029451497724777356,0.000009723877248582109,-0.012162316989814953,-0.009278550413064522,-2.7134387264295076e-30,-0.044770561742705314,0.002789349871357442,-0.04093061701428193,-0.0013965568250108383,-2.3283700078987306e-52,0.0000037949719005192683,-0.002710979410415837,-0.03728377983465921,0.00727165319732705,0.0019987368584355623,0.020113371466563654,-0.008470290335252213,0.0075119087698949935,0.001963688910146054,-0.0027765956947055845,-0.02387130615864957,8.292553172175018e-22,-0.02219091448774112,0.08414188608669888,1.2028919070231016e-43,-0.051019793873364895,1.02558230397797e-60,-0.04258103443584553,0.004688610843654724,0.017226389361925085,-0.04336462911114793,0.019132493349125125,-0.0029293900670544267,-1.2193794306315806e-30,-8.677790589420251e-7,0.012556423713318722,-0.009211552712552263,0.0013128954640513793,-0.02548110506315419,-0.04485906937318645,0.052622452145929435,1.2055948701038212e-20,-0.03455964053963709,-1.7338426616306317e-8,-0.0197735565092184,0.020902001915648585,-0.021645807600924428,-0.0003964770185113375,-0.005765777963501892,-0.02869088270790987,0.01269268920506482,0.012531841683701616,-0.002700183307181671,0.010403826795892026,0.011680991452061761,-0.0037987493640238633,0.0008319508753883043,-0.009816010184858287,0.006724403181510282,-0.04050516641494043,-0.02717838725144997,-0.005405477777963191,-0.006229781862282735,-0.02714170162995543,-0.02029537090561835,0.043994402543636776,-1.1532276179773614e-65,-0.027457620829486135,0.0015869879162335619,-1.6030652139735861e-19,-0.02257268372353692,-0.030745299055379774,-0.014982923918976938,-0.03664957359979306,-0.003771350230660909,0.015177278767993746,4.328508273703948e-40,-0.012429778188843249,-0.0431968501645747,-3.2285122458613406e-30,-0.011665198979269646,0.013199415047170744,-0.015386919263117393,-0.002514769938411985,-0.03733542787944373,-0.014572684965128598,0.01195052501091054,0.008408999738373191,0.015511439624680696,-0.0009037337880580859,-0.05596429451308743,-0.00693787588322077,-0.020286896462769596,0.02961526400112831,-0.025401972655335114,-1.7673197648382833e-37,-7.762584567388652e-64,0.009472921477138553,0.0036566434567821948,-0.031422054865329896,2.731380603887815e-8,0.01670425175259859,0.008990442495263335,-0.0023447500175606114,0.013025650588406068,-0.015272391358197277,-0.015090029853838097,0.024077790711108875,-0.025433720279266034,0.02416393077476834,0.07351481335004266,0.023227916858425693,-0.02844632823464082,-0.0044542394815662405,-0.08792109586913492,0.0010432656937850262,9.847079661795885e-65,0.008122522722989696,-1.9030784795467023e-19,0.021784212876899918,0.030800925121156945,0.02002380078461099,0.02916139897335991,-0.015114653870194901,-0.018744394141614704,0.029733109412393106,0.007861199636723748,-2.4037962319027742e-34,-0.03647732185052186,-0.00009187459311840295,-0.010078633696262237,0.015732676685075324,3.516485948004012e-61,0.0040892028069512126,-3.6373397933863424e-34,-0.018843850459123658,0.013277190753365243,-0.002246950742972297,0.008236531103906148,-0.00001663450937174581,2.3712369715785033e-12,-0.030511035766974223,1.019709363249087e-9,0.0030591714203950255,0.007584113437488721,6.449888307161513e-66,0.009202940802251364,-0.03842153454206036,6.473332385027202e-43,0.007500754491246181,9.36763017263105e-28,-0.07196411426085426,0.014734881035538508,0.0006954499828091755,0.0015340329552514902,-0.004212350586367699],[8.109279481050671e-61,-0.012115876059566997,-0.016612378077280433,0.005007598329688201,-0.0028540740472937083,0.007763910420309664,-0.020514543207673805,0.054160850646128314,0.022206759105883985,-9.376006015972582e-7,0.058330015093421395,-0.024688843256149905,0.025561450251726795,-0.018175487700798982,-0.005347984737714952,-0.030828286411574687,0.03801565243868384,0.05235148102763463,-0.015604868449817198,0.006480874962647556,-0.031680141474107054,-0.0025352146950438485,-0.021340339700294295,9.986831437380807e-40,2.1380414208900277e-18,-0.0014246101790708527,0.01718217703155068,0.029776874733330634,-0.014322057795079075,0.018247179040986276,-0.03335688134160913,0.017223915467110433,-0.034162174531143175,3.066190193526735e-11,0.0007665278688304423,0.0003357672597093244,-0.011566002010638577,-0.006103987609817277,-0.01287252540026766,-0.011514387163472565,0.004316635902015512,-0.006706814137557753,0.008579791624638847,0.02732240953161959,0.019402996174747507,0.00011124907964206752,-0.008075069463863944,-0.017607348663586635,-5.3031983823604815e-30,-0.052519660250127706,0.011424599016134938,-0.027261439728680094,-0.0019291452439288892,2.698208502013874e-52,-0.000001986451912565835,0.007478128924298194,-0.02545344844879531,-0.005351402027538907,0.002287066968138202,0.014380590712374306,0.001342029435732859,0.01371014616931088,-0.0005292060624678277,-0.0036365028848997817,-0.022347276140743808,4.0163687362769585e-22,-0.015750887074169103,0.08543880773476413,-1.1202539496047943e-43,-0.03335272649749388,6.605185735696533e-61,-0.019832568357119256,0.003734053006246017,0.01416053582542793,-0.04370699466963126,0.027050236151452328,-0.0006926836533594845,7.113522738495593e-31,-1.43252309307363e-7,0.0106893668914779,-0.00815054805798379,0.0032004812353796917,-0.024460666227168366,-0.044763371155223594,0.05938497004735208,-2.0832214895283926e-20,-0.03411142132809543,-9.36002021140971e-9,-0.019113038220151403,0.013639568158575607,-0.02162672535665282,-0.0036775982716999714,-0.010129740307778754,-0.02201659592962997,0.012780901935440292,0.006614133655696672,-0.002029006180020467,0.027320217900071858,0.00919688562112663,-0.004543735301484787,-0.0017644396468267625,-0.006169395793900185,0.010699521650445985,-0.05041211416133153,-0.025413884681131923,0.029795643153923523,-0.0008250429366787708,-0.01350345682130879,-0.011181496011371818,0.025367232688457978,7.949268573250073e-66,-0.010480269196141282,0.0072341791307797615,1.3692572195627525e-19,-0.003808907476568149,-0.026640717424095198,-0.015445800556923468,-0.03332560056051687,0.00034642352751515927,0.03421717399226632,-2.783693145640064e-40,-0.008962879172654453,-0.04310614226474802,-6.640889603093733e-31,-0.027772244642553505,0.005745051315898804,-0.014284540266949456,-0.00993238028337093,-0.019825724453156453,-0.01932911533616425,0.009742746888307815,0.011616077451983719,0.0034167990692580814,-0.007316219802580355,-0.04215043080420813,0.0017758280091798074,-0.015217773414365417,0.008112992337580928,-0.012571383811004325,-3.164991458225039e-37,-2.320705216586328e-63,0.007384905453200062,0.00525765809794417,-0.026497321780298098,1.8756228821404513e-7,0.024307687764684758,0.012051354007965838,-0.005512947513731018,-0.003553394750880762,-0.007396147577077739,-0.01601061075381011,0.01803557496706185,-0.02752138419989717,0.024020614330789756,0.06899212960862235,0.03366650149579584,-0.027777642562708947,-0.008770314957157176,-0.09881230612968583,0.002427904859468717,2.8196347991777617e-64,0.007111287944682868,6.11439619908838e-20,0.021994052340394022,0.019986257444577944,0.027281344991899735,0.02785055923034067,0.00025522746832793374,-0.01570897690047253,0.034622267015510695,0.007547039182223972,4.5251068519808295e-34,-0.044911771218726464,-0.007641068255774051,-0.024622631339797165,0.00715287828683507,-5.3961474983378086e-61,0.006291766246332239,7.913045059051166e-34,-0.026596235378722886,0.010603789951979999,0.019332784003008658,0.020950800249870123,0.0010714809660285027,4.8801754455409e-12,-0.03728450580863044,7.485853374295562e-10,0.01318508354479015,0.011492536137049206,-1.7455720160899054e-65,0.007684868114953216,-0.031023798220287124,5.0987327063539075e-43,0.016766308982509102,-8.918804057151864e-28,-0.06659088427560166,0.020817924227025695,0.01192138272874107,0.007130408398828974,-0.004138039763552201],[-2.1391542929756146e-61,-0.015041642683198202,-0.02345179696971183,0.002241691025476813,-0.005960647160955886,0.003172962052438018,-0.019217519793384975,0.05822780429150795,0.01100584862930886,0.00006080248272514255,0.03230616946266836,-0.014162972874824866,0.019060806266418144,-0.010707533666350202,-0.003018140085699129,-0.029234201206441567,0.031778042955010855,0.0340549350605125,-0.009305614469454378,0.012603664959035943,-0.03306631668031785,0.005732472894935266,0.0035824940186575567,3.566336629788683e-41,-8.868360220158536e-19,-0.0013309450689179085,0.02401195432575302,0.023390743051874184,-0.024453402630737784,0.03611558519551201,-0.057187778887098896,0.028672648942873684,-0.034286274567175784,5.941816307065732e-11,0.005491328976522426,-0.004604636841769623,-0.0145881617222373,-0.003160817239374773,-0.016764676486699985,-0.026180510140155128,0.01037263684668759,-0.0069649828507270355,-0.008570352652745538,0.028808873488382347,0.006214241248089524,0.0003739382366952263,-0.0048832724317861235,-0.01396261071010484,8.431630552891346e-31,-0.027051355035986494,0.008557944297132839,-0.023287308914886284,-0.004133705579175186,2.8956320681245576e-52,0.0000033444921456189474,-0.009146334807203067,-0.008526649520888852,0.0010958573256803555,-0.0005009999102720074,0.0009264591995990969,0.00901113638650159,0.01280263954777957,-0.0034750107322501144,-0.0066908806019556335,-0.02733622270581464,1.6708606754405489e-22,-0.005725529951003903,0.05400914496434519,-9.184459011356753e-45,0.005266820911326146,-3.742392103992801e-61,-0.014214478161106279,-0.0010593914747945605,0.014434457030636963,-0.030769399004173394,0.0408622732593633,-0.0014553177754888995,-1.9090462707471808e-30,-5.79870896648686e-8,0.007332950216294682,-0.005232618598769949,0.0010212870291105916,-0.006465056832930789,-0.06020740179268724,0.057034586591954574,2.731681961331929e-20,-0.0243254159290215,2.2896903095704873e-10,-0.020360062553852323,0.008551691695776338,-0.005735782006893767,-0.005319079921852324,-0.013884835285813246,-0.014844990263279375,0.002892549460387924,0.00379825405524894,-0.001733271822751294,0.028598861321156847,0.006619996624133019,-0.007591440990694947,-0.004420681239065397,-0.01162180992336322,0.023089438009740917,-0.05375798279153114,-0.019200128213061975,0.05678427224942855,-0.002912208031748912,-0.024278917492922283,-0.003392827804818971,-0.014461872343709607,5.699699431304868e-66,0.0018180343187697045,0.0005811138772006798,8.912377562246754e-20,0.00360080098377982,-0.018416265462505996,-0.008202202485186307,-0.033051867881378386,0.008297675518499772,0.03136526705065905,-1.6697352316583454e-40,-0.008188217458094105,-0.022982781031753104,-4.583723751269196e-31,-0.03724978070286975,0.0015033799663410083,-0.014197936699232416,-0.020915041108063782,-0.020780674861663278,-0.01627191592928467,0.004865549716438342,0.010381133034840406,0.00480311191456984,0.010811754695132498,-0.01905578488662226,0.0005043167598698773,-0.00825397972118235,0.009517105843265202,-0.00763379093417693,-2.1327167959077604e-37,-5.910628136702491e-64,0.007809315021670044,-0.000028303504336703615,-0.01406602565809294,-1.864944859276753e-7,0.02089859388248572,0.015221245565413752,0.00614637789273513,0.00014147488976902576,0.0006955742597038135,-0.01253677779038564,0.014698531363601679,-0.01706293990728241,0.007520894146936883,0.06001117222454741,0.03306593442654128,-0.026152686544930137,-0.006392410092105022,-0.0756794601663495,0.011052243257623188,-2.377371072755321e-64,0.0035823736616931072,-1.2158259368680845e-19,0.02935664834691207,0.012190098246847735,0.00788898707342196,0.0370095557970054,-0.0015000905205538068,-0.011429253724264456,0.03221763477085249,0.003406072196045413,1.0013654272675958e-33,-0.04967111081118811,-0.03202458816353993,-0.026180542857316205,-0.005499712780449705,-1.0068260791232937e-61,-0.011039287928032928,1.1321155537905658e-35,-0.014753190652724076,0.005148760637367764,0.004453307439496687,0.012443180648751242,0.004618160959957488,2.7993793295513205e-11,-0.023050512278181765,1.5217838897219986e-10,0.0015390540344454625,0.008573459026082036,-1.938743493865385e-65,0.0056531254948130796,-0.04438421409335009,-6.119004483284561e-43,0.01895997067649561,-7.78672022184427e-28,-0.04712752018773461,0.022017467562575894,0.021403185663850296,0.005941314840137171,0.0027790895799746592],[2.934224067448721e-61,-0.017228071519926696,-0.02082008220237138,0.0020916555754390796,-0.016246859574078346,-0.00661655881071805,-0.018765478697502724,0.04108134580317337,-0.004633021636421365,0.0000959449807903308,0.02059161118045556,-0.003925572253594404,0.01827783871465667,-0.01807086519419072,-0.0027969458491741393,-0.03632980999292966,0.016740756455395658,0.021345765528004174,-0.005269339577540911,0.023412274436970828,-0.014255324120117674,0.024038465594412226,0.009324035829529566,-7.580546566683386e-40,-1.3598777464151896e-18,-0.000009699844139007543,0.02311788515718906,0.011357372747628929,-0.02809740559672044,0.03482762152824702,-0.07318394062909425,0.03971834761552435,-0.015150944227029669,2.7196333465670738e-11,0.010270229704695977,0.003618137873147402,-0.007675827438008949,0.0035052643998296296,-0.011852292319933583,-0.04114200370890671,0.005434928536596183,-0.006509077907914622,-0.034310254541223544,0.022484570020809974,0.001033406502375159,0.0007273407314967342,-0.0046593461002443545,-0.0022646805517419033,-6.332004936812835e-31,0.0075726455920863515,0.009190424640404852,-0.021207239103891943,-0.007813537487248366,-4.21401574400947e-52,-0.0000028033543496519325,-0.007666181800563868,0.010558628786311544,0.015323212944398406,-0.0017907460989371648,-0.010033407638128189,0.010530979445053733,0.006226802768017667,-0.003978237418814222,-0.014764638923675053,-0.030660990471207013,-1.0609378852341514e-24,-0.003264036536117709,0.028625356346783367,1.9398610121276878e-44,0.024591337823198132,3.1240615232738596e-61,-0.009526822787313255,-0.013356368413621556,0.011278240436084585,-0.02287162021226539,0.039965674260996495,-0.012683254311349562,5.551814085771969e-30,3.906701496194201e-9,-0.0033446529033396583,-0.003457050709662432,-0.001275711164674646,-0.008765478637096414,-0.055985665701985904,0.053579451283006244,-2.1048144015680544e-20,-0.019744122542976136,-8.373625108307026e-11,-0.016708926569259316,-0.0017619525870934375,0.008774866357558581,-0.018295337207692414,-0.027029484442552813,-0.0024530265636135114,-0.009369388585295828,-0.0038112600317862354,-0.0018496030538500737,0.02471801870772198,0.0010488373841693313,-0.012078979932163673,-0.01793886503801303,0.0036669817690617914,0.02184363440498155,-0.04830358344703276,-0.010811470140122629,0.08340740611017204,-0.00004662700895394692,-0.026156150300733285,0.0065745640718553044,-0.016750764372731684,1.5386880173265497e-65,0.0020022676340786284,0.017411850794766686,-1.9116407788592406e-21,0.020588301903599334,-0.015451854297363557,-0.0053004554168570184,-0.02701084782294812,0.0017055332443767358,0.0334147113191053,-1.7707564671488076e-40,-0.013641460645396598,-0.008797834415140334,-8.716604207881724e-32,-0.025210605351410915,0.0007267083179815613,-0.018320442005569083,-0.04087224166227266,-0.02149229117810672,-0.009215963781916716,0.00033175738067960596,0.01130925702227279,0.017974064189239514,0.007689231248311106,-0.0020648415192670716,-0.009662600645001905,0.0030648483269668167,0.006315097452755814,0.0033274590144753,-9.371580864191076e-38,1.9743335241612252e-63,0.009330952906648043,-0.01190551411499665,-0.010574338887324902,-7.574416132272158e-9,0.014775960302349926,0.009681737382739978,0.02122052014078834,0.015569158388284514,0.006468452744050992,-0.010916608788675328,0.005160064062746707,-0.00715959972613493,0.005519491211627925,0.05248820919511028,0.04108740745831829,-0.019411891910606285,-0.00715849293255934,-0.03308810054493474,0.012730489057024678,2.805123310231479e-64,-0.003979907507895068,3.453131440529126e-20,0.024788586328855913,0.00758386306551945,0.002454553212461996,0.041072792451638473,-0.006199320476210722,-0.008494221254762615,0.030707323287886733,-0.0000046376802808000515,4.13612051996411e-33,-0.05523951379484018,-0.039643728374968414,-0.014154559883042081,-0.010463437433950467,-2.5850789103201804e-61,-0.03420393930830929,3.637723839985717e-34,-0.01385651367347021,0.002862219337384065,-0.00031282964348190387,-0.0028667589768725287,0.00653344595125902,-7.1098671852492955e-12,-0.010664863239300125,-7.211888091180014e-10,0.005204853860528797,0.007080233046879659,4.467399723470081e-66,-0.0007040497130623915,-0.06425436409398545,-6.457256862651807e-43,0.016073381729816313,-2.4882374801193342e-28,-0.024812105346503573,0.012781639518462532,0.01669463917779408,0.004579046154195927,0.016742364698524585],[-8.150261293784754e-62,-0.02764174762511068,-0.019544372078966785,0.006215280287337406,-0.021413192838088395,-0.010080074854228733,-0.018021993604478106,0.02883312408592004,-0.0104948768668915,0.0004718318903018158,0.03422256815955828,0.0023185112720976904,0.024503342581047804,-0.013280887547358433,-0.0013077016710958869,-0.03286245106201247,0.02120298233475697,0.028155097083755666,0.0006472157530951629,0.019829553908692024,-0.0006772709903878991,0.02395909717228512,0.014526925413856185,4.387897335473419e-40,1.2044169237204687e-18,-0.000030064506634521284,0.02316815485942914,0.0103179609655185,-0.020355574071491387,0.020197715927350694,-0.07398639864285252,0.040575800395996335,-0.005233502870914811,8.585113068220321e-12,0.008669800775732863,0.0037389843377934524,0.0008736462107077818,0.009017002448235062,0.0024854847825467445,-0.02965296303617693,0.005462078102042689,-0.004302634381371056,-0.04144280096847544,0.035351243128967216,-0.002848138417291713,0.0010838008836466424,-0.007865379204168358,0.002894044527747265,-6.755387743758754e-31,0.004736944415627076,0.015533796225868117,-0.009437862398940684,-0.005126555310672734,2.3894100388419678e-52,-0.0000032104273177726657,-0.003853307051111924,0.00494455049688877,0.01155011711540662,0.0016480734471507556,-0.0034750788824368948,0.004968531736962345,0.009846851897122302,-0.005051561260556576,-0.017125308472955805,-0.0221775810733246,9.821591856992667e-23,-0.000789934999228184,0.028898831757381355,-2.3217508228427564e-43,0.012561655752333006,-1.5291565357238195e-61,-0.01931608457051753,-0.019728518405024018,0.0060304664171435315,-0.021274775938126926,0.024457144278672925,-0.011277914800062272,1.2068671930805133e-29,8.010048387602838e-10,-0.009943524202090498,-0.005528623217906645,0.00025745011587071265,-0.008665492479380867,-0.0422224366765782,0.05298625552538849,-1.2143157475903492e-20,-0.010616158233635377,2.0511697365754247e-11,-0.020561933321141396,-0.00038637779018685934,0.01666069336852338,-0.02833752780655053,-0.03549156514269211,-0.0010947809290381171,-0.009319427274963502,-0.0059285922567960826,-0.0005023990359423248,0.012864698085714044,-0.0038344557766239783,-0.009833286477533976,-0.027721479003201314,0.00045328351320125587,0.02412409821855323,-0.036139169699777665,-0.008080905209161871,0.07760768174646096,0.0026821593780386403,-0.033431285957486984,0.01001498985468961,-0.017809616551938995,-1.0822632885594517e-65,0.0006419879673375365,0.017405457097499327,-2.2304733138826443e-20,0.021924666409459555,-0.014126083404508782,-0.004330694469843458,-0.015582376106861012,0.005829359164622215,0.03399172305754449,-6.4300476885830706e-40,-0.005970334264410655,0.0010486655425846984,3.188942539986021e-31,-0.004597974535417249,0.00037571472995702655,-0.016712608993964765,-0.03872106385312169,-0.01662523122893707,-0.010713534007177289,0.0005314716563733355,0.00896414191014811,0.02128959679371723,-0.006624185357482847,0.0037037074593911645,-0.012375598546765018,0.004493779387650573,-0.003440630574388105,0.0012315548017777763,3.7576932152384016e-38,1.5300590791370472e-63,0.004604728354301295,-0.013784439103441607,-0.005292318608511639,7.051916690234971e-62,0.011062345596088857,0.012693277920819626,0.019741358747642875,0.011854137721117508,0.0059457879543902414,-0.01752935997205581,-0.0017195296845998764,0.003313145090925766,0.008775415387583528,0.050312291808127504,0.039880060888736836,-0.018164838499201804,-0.014304953665906527,-0.01525691877029482,0.004149860021010815,2.324084000252933e-64,-0.005794542920345555,-2.300607907759157e-19,0.015979799249457298,0.01972332311116223,-0.00824631477879995,0.050048843614044665,-0.009073482734922261,-0.006032646725320555,0.023946804355278996,-0.0007662367254323101,-3.8203273717113582e-34,-0.03494355733042878,-0.03067805508174222,-0.0015591796664750398,-0.009659816589623588,2.2836081151249358e-62,-0.037001161540908156,1.0204720239544705e-34,-0.017710278865104696,0.009343236022143365,-0.007573153258176094,0.0005477013063813284,0.004750393928184957,5.320954850213359e-13,-0.009594752730861023,-3.493948511679312e-10,0.015898749264911145,0.0012054507230155151,9.085927917439381e-66,-0.006857750296079225,-0.04734443936552724,-1.3461557022516348e-43,0.005171565841375539,-2.1241036518975796e-28,-0.020425865841586045,0.0000556472104406746,0.016037630569095667,0.0019489130059228187,0.016599834420943854],[-3.989210256168473e-61,-0.028187713984552915,-0.006428551819203356,0.015085907350725678,-0.017030076839493362,-0.011220482892212502,-0.016059595955652248,0.014584646496726115,-0.008217601797613055,0.0007577342501980214,0.03562129004294165,0.00009473689495646118,0.03319301427000643,-0.00003792380809370603,-0.0008145829373968869,-0.020288988116738505,0.03502996327811034,0.027989320619268305,0.00035713982088114206,0.011088592207260868,-0.006125614742651852,0.010597865997063258,0.0018073090667477813,-5.068571538624895e-40,-3.974208047138617e-18,0.0005382840779530865,0.016749683404324194,-0.002179634077602039,-0.013000257317191373,0.010710722722926651,-0.06949852685164218,0.031806441730759326,-0.0053869147858003055,1.821882059240198e-13,0.016834790987261032,0.00031811219010908956,0.0018468807462517628,0.014256618118100115,0.0060532393993052375,-0.015129860725430343,0.0015274508768739513,-0.004270921523203584,-0.02559207479823128,0.02494271331131034,-0.0017154302001528836,0.000544518592062614,-0.005506228154925941,0.008263223825645294,2.771751931361505e-31,0.003125613513180487,-0.0009843846449925355,0.00007829519982639716,0.0003930546125731079,-4.107954987108568e-52,0.00000708362892841943,-0.002069365052785678,0.002589913410083147,0.0058857637932470145,0.0032600774481925535,-0.004162663796086627,-0.012327878539240101,0.021419604785390907,-0.0036022341623980184,-0.015091477673797553,-0.010696377644921333,9.439446279749463e-23,-0.0012117112268002048,0.019458911791591885,-2.538802535795393e-43,0.0020834855250133565,2.234330905977572e-61,-0.01662090703113159,-0.014566528114047917,0.00941238682994611,-0.02213662043142126,0.01791365417009568,-0.013340973086189518,-3.619598336909972e-30,2.11877901487287e-10,-0.00733713034206555,-0.016427416299812567,0.00003074450861859589,-0.013294104868705471,-0.029601784703839108,0.04131145051330415,-8.485986116362807e-21,-0.008188163108910289,5.523130651562184e-12,-0.02415551071434048,0.014345442058966689,0.006052722720560846,-0.02324282272340753,-0.029615548213972567,0.004169528176742561,-0.0027120078361431263,-0.007179904936257062,7.684265433667758e-7,-0.004502141717753646,-0.003165429799970696,-0.009416718675512218,-0.021709273304286642,-0.00896347367109047,0.029040572545388714,-0.01781947689705121,-0.005560394872028426,0.05814461635844915,0.006978756237990033,-0.03557133864943001,0.007077921337058419,-0.02225605337377144,-1.2867098368903615e-66,-0.002865163159966551,0.008856793382537797,4.2467012884116224e-20,0.014276475231108084,-0.010830030426758444,-0.012300848440042098,-0.009598896344887538,0.013804237046556235,0.03030581554820125,4.051072246854708e-40,-0.00045731107464561213,-0.009949267866663543,5.154340790755431e-31,0.0030831402236496924,0.004554414781884525,-0.009464426643096647,-0.02661077902710245,0.0002121346494372016,-0.008850766643374428,0.0014660760336174196,0.0037609509949459554,0.005267877709376007,-0.0060358292891123395,0.00186148820628647,-0.02005275891217789,0.0007694552644909613,-0.007590117202191569,0.00008274249880366649,6.258684104862363e-38,2.972126201437116e-63,-0.004399509933042449,-0.012749296498453713,-0.005856140886706296,-3.477410955092173e-61,0.0045496323769694735,0.028177964942320666,0.010617298625381697,-0.0011217342132348596,0.005290757471515227,-0.016303068257963016,0.002128109987138806,0.008461037817056915,0.009205187861072477,0.036696035017894146,0.031253179951541046,-0.015038372502196178,-0.008259096216083513,0.005691823140226585,-0.007102618620684526,4.05303904718714e-64,-0.0038536905082311927,4.128814975562205e-19,0.012000186234119891,0.029971077929854525,-0.011006736865469546,0.04429442076708175,-0.009068789090140425,-0.00555933648218782,0.015640306162757838,0.0013216011976685353,4.848640757608205e-33,-0.014777610960886178,-0.0337823458274179,0.017116709154704503,-0.00135074353329759,1.902317150813986e-61,-0.02154476295124181,2.1068048193157536e-35,-0.020182494631994386,0.004597159979542247,-0.011469733801444563,0.0037871995273646916,0.005101711240643145,-5.573807116831895e-13,-0.004332147209852165,-3.327391600347653e-9,0.022170422926618666,-0.002676268173137259,1.14665982633703e-66,-0.010694609744114937,-0.007289355662496008,3.255439145432857e-43,0.01386902516075505,-3.87051297166808e-28,-0.020938191352842195,-0.007767744040737915,0.00893416563854198,0.004960872714687257,0.005929224156556577],[-3.398146326514989e-61,-0.008365102790014959,0.001862231925501992,0.006604406131912383,-0.015070715165561853,-0.00798342337175187,-0.01218505220749079,0.01050651348663252,-0.008213150520890033,0.0005028055736622193,0.03043638815554554,0.003739196685198895,0.013551174191527276,0.008598060651962886,0.000020497292726282955,0.0014869206705718388,0.026614339354159484,0.03029217546877879,0.0036936900988795403,0.0011655157803640817,-0.0035733705804845604,0.00673306433880839,-0.004268070072919183,-6.101981735422314e-40,-1.3646464595013023e-18,0.0021767643505720712,0.01269839841254665,-0.005405203216410973,-0.005331794738359547,0.035338498512373015,-0.038378190543956615,0.02032702043239206,-0.0003997044964219864,4.563813381456447e-20,0.016899410884417064,0.003453002993985066,-0.00018910517848133338,0.015169398176768571,0.010403269809354724,-0.0017533889927018886,0.0013986281284350784,-0.002976615000855722,-0.00814711841923785,0.021097395703099875,0.0018352310726904616,-0.00003766873195134558,-0.001221964791280172,0.0000536291989452262,3.327636014727241e-30,-0.0015730163777558208,0.0018222225438321712,-0.004906395731871283,0.0001357024899014597,2.9267753044510328e-52,0.000006230725777286264,-0.004056362986568463,-0.0010553152733007885,-0.015138274886101075,-0.0006920192833794979,-0.011803885244614962,-0.01392065213263375,0.023415335606720142,0.0005916793266972092,-0.013394292975581765,-0.004681832068634889,2.4660679707090678e-22,0.0018595383687856426,-0.014426995998262422,-5.314426266683812e-44,0.00706754370078034,3.3733155985161938e-62,-0.010926416690352983,-0.01693462873113145,0.0015176206392513603,-0.024152806014583354,0.02084902113750676,-0.012109301759852815,-7.600515281126083e-31,6.221820439867823e-12,-0.008236682642125277,-0.011362419401694279,-0.0071657392979776885,-0.0029744089675918526,-0.025802769672464827,0.028354539138267378,-1.837692924128928e-20,-0.002320246985321418,-2.707266862154011e-12,-0.020032394571738235,0.009728001158078623,0.005119501835226685,-0.01986846845721735,-0.026951045721690225,-0.0003274636369746163,-0.009826461690704813,-0.0033812252212871916,-5.032334131771384e-7,-0.01998946090487459,-0.0040764575526070195,-0.010318657849515628,-0.023182747452462793,-0.007780905282628325,0.036716307005587645,-0.00590586061119085,-0.0019580438767412317,0.04134600774232394,0.009579458823541059,-0.01868712755668957,0.008072616677016696,-0.025466780517354157,6.210005887631531e-66,-0.008145027848215008,0.003852695835006261,6.850822092753646e-21,0.00014079797426393536,-0.00919482546013908,-0.011633801515047257,-0.006440736743572911,0.013222025788915508,0.025987304522798262,-8.299885233604865e-40,-0.0009627724668317562,-0.01834225779136119,3.9184649082063792e-31,0.0350316127809977,0.004795355297891494,0.0011705869812054202,-0.008149135084918156,0.006172635594426536,-0.0020894887938661746,0.0002748716929898282,0.0008064160436858855,-0.009479217897981281,0.0004824435619930242,0.0047278010721162975,-0.010836640401057916,-0.008846278783056317,-0.00909359196214785,0.0011622670303279286,3.82765104399039e-38,2.5957137790931254e-63,-0.008259147700678563,-0.0036686321407418806,-0.008387937179131454,3.5880516562086285e-61,-0.001208829447640539,0.014905896257346523,0.0017130175748607058,-0.009512917550695863,0.005166341984640442,-0.008717728042991162,0.012942521158751821,0.006931804771297292,0.006181671358927462,0.028991695545021384,0.025723142141835843,-0.013527915247307487,-0.0030113218247990294,0.02425913431291709,0.014517738607684481,2.4162805243478936e-64,-0.004634543127564868,-3.906110922830962e-20,-0.0014386112462715353,0.024911245784908616,-0.0044223145602736635,0.035384281492450514,-0.003105790646797595,-0.015482256467752678,0.012626662067209847,-0.0003267421525923125,1.6107295212591557e-33,-0.0052548593289461695,-0.03550223002303075,0.02503416761295765,0.014327336476015575,1.988019353725961e-61,0.0021017722999063285,2.537236456112314e-36,-0.019133536688568698,-0.0029596697375470294,-0.013612251237679814,0.005782016347998169,0.005339131512196518,-1.6957979318729847e-12,-0.006418033088077787,1.1047298366616983e-10,0.009858381678115511,-0.0010326237805649346,-2.094989181863393e-65,-0.007920167431682099,0.008318796348536883,5.705316995462248e-43,0.019763814850258375,-4.3282256826094726e-29,-0.019044807638883703,-0.0061732503328122,0.01646576214207912,0.0038475316976561047,-0.0021080752497517185],[2.8267835163992367e-61,-0.0006055811999821786,0.00024277406541105086,0.006728473888391822,-0.012093950491282472,-0.01072370018252085,1.4308868304032394e-7,-0.0013486491657136329,-0.0022795144374946038,0.0015141384102570544,0.01701664699650482,0.0009721938725374145,0.008515288525170205,0.016208127950933595,-0.0021139534878947108,0.01510228938345538,0.013791042832504973,0.011724463403605922,0.0004772584347152973,-0.0013713333285798265,-0.0038267729551543133,0.006289575160720876,-0.008970661004313525,1.6944836968519288e-40,4.9858941675882435e-18,0.0019720113298930444,0.007115514948439638,-0.015891464237901422,0.00021452595428397717,0.0454976823977535,-0.01959690126605093,0.011584139565496752,-0.009120929082306566,4.6797485508572935e-23,0.018134519746606414,0.001660747758005669,-0.012214927647733497,0.003564973411886019,0.008452442842201846,-0.006855705425911077,0.0005468315038568566,-0.006813611930764359,0.003828218441004295,0.009094491435596357,-0.0014845235095148784,-0.00003824796496419953,-0.002589375241256381,0.0023275276216030275,-3.499188568520246e-30,0.0027394790793582252,-0.0008420453691894747,-0.008121291481636086,-0.004488571844009478,1.3062746791298285e-52,-0.000005159129677435535,0.0023422761883689883,-0.002173288992352467,-0.008385956779469935,-0.0021582089462607395,-0.0013948382125313625,-0.004550071312832225,0.018922968870951764,-0.00017372024001439796,-0.01021959213421067,-0.008696701519854069,9.853060470158858e-22,-0.00026088182346864145,-0.05179920131063902,-1.2340981381113776e-44,0.017607289922798468,-8.462425705015673e-62,-0.005208156131424346,-0.015000613216516145,0.0035446556893579534,-0.006733050770428883,0.014683501033692271,-0.010266834954479595,6.107326936997848e-31,-4.884367374376484e-14,-0.008034725051035268,-0.007067050798920035,0.0016441629089096012,0.0011326589816281027,-0.025876023066154486,0.016542489901903393,-3.261538483667416e-20,0.0021447340557155478,3.638004664288606e-12,-0.0056109114786967885,0.007762476437760605,0.009912202372597458,-0.0158906623513925,-0.02210508558706298,0.0014317988295823635,-0.01615561692267914,0.001187446072724332,-5.97481747844666e-8,-0.027706897956319154,-0.004753701595393712,-0.008452516076299692,-0.019658942453102447,0.0004816841336280005,0.0218649448485547,0.0012541490734481208,0.0009643510016678798,0.047330544561298316,0.013502664595446391,-0.010720463495142578,0.0023513622265032437,-0.020071204595830477,-3.061432502897991e-66,-0.005924654512348165,-0.00028875987754729956,1.1918482807391377e-21,-0.0000567878887781242,-0.004959545412976413,-0.003986470581934152,-0.0003594177851696574,0.010052582028890804,0.007107551208913498,-7.551087019276215e-40,-0.0058087749529904115,-0.00042777707768177974,-1.6291649556752324e-31,0.03768353518047486,0.0012084505167351584,-0.0006088035763953862,-0.004324383033685658,-0.007797950163793716,0.0016803587127420642,0.0013122234607220171,0.000042267732447199985,-0.007330657433085032,-0.0013219787236095554,0.01567878525212097,-0.010816000790439343,-0.005083195046034287,-0.0033896224434418884,0.002731039924085155,3.316427665404859e-38,1.1167718037022166e-63,-0.010897833569103657,-0.0007668073799140911,0.0015872260766041381,-5.676676948775528e-62,-0.0005272068293832965,0.006898837598735821,0.0032351772535532683,-0.014896398655787617,0.0018434146101250924,-0.009438659600343928,0.018348256102145837,-0.00008994577029067914,-0.003596422004261282,0.019721875165830956,0.017868045970889014,-0.013676879903177262,-0.0013872455816080107,0.02674712721184488,0.02970028176479554,-2.9432434639377868e-65,-0.004950951019438038,1.7775637041236474e-19,-0.004057477637631002,0.017405289129330686,-0.0011193438559234372,0.025433133421625245,-0.0009475004158115598,-0.013743476797935233,0.006978226946079013,-0.0007036478374656404,-3.4186955944734856e-35,-0.006082193617696067,-0.03982002043846469,0.015421693527279077,0.013603381636904013,6.027099157294636e-62,-0.0021229700996793542,2.1496783309632323e-35,-0.011355825058822627,